{"model_weights__encoder_bilstm__encoder_bilstm__backward_bilstm__lstm_cell__bias:0": {"shape": [192], "data": [-0.005244002211838961, 0.07624205201864243, 0.029636170715093613, -0.0034875525161623955, 0.013458714820444584, 0.18339502811431885, 0.10397655516862869, -0.013562743552029133, 0.026154054328799248, -0.006647586356848478, -0.02475753426551819, 0.06547057628631592, -0.03436746448278427, 0.01292098592966795, -0.001591572887264192, -0.0007243241998367012, 0.0033228066749870777, 0.024442482739686966, 0.05493047088384628, -0.03402575105428696, 0.008793197572231293, -0.0769803449511528, 0.06757832318544388, 0.00904556643217802, 0.018481820821762085, 0.1061352789402008, 0.0674324706196785, 0.006930484436452389, -0.006395891308784485, 0.0552833117544651, -0.01607520692050457, 0.018330300226807594, 0.03553829342126846, -0.020743241533637047, 0.04223507642745972, 0.019298264756798744, 0.03373449295759201, 0.015962250530719757, 0.030416220426559448, 0.05208438262343407, 0.049617309123277664, -0.01016082800924778, 0.11894897371530533, -0.030286407098174095, 0.020699651911854744, 0.028838280588388443, 0.05806482955813408, 0.03245241567492485, 1.0042469501495361, 0.9871782064437866, 1.0278687477111816, 0.9587447047233582, 1.0023788213729858, 1.0706037282943726, 1.061330795288086, 0.99364173412323, 0.9948649406433105, 0.9729790687561035, 1.0181453227996826, 1.0480319261550903, 0.9970890879631042, 0.9197757244110107, 1.0045260190963745, 0.993556559085846, 0.9081817865371704, 1.013142466545105, 1.033828854560852, 1.015992522239685, 0.9667515754699707, 1.037608027458191, 1.0360978841781616, 1.0125013589859009, 0.9982688426971436, 1.0161488056182861, 1.0294197797775269, 1.0044206380844116, 1.002945899963379, 1.0159682035446167, 0.9868857264518738, 0.9749752879142761, 1.0218960046768188, 1.0100079774856567, 1.0679482221603394, 0.9886542558670044, 1.0500174760818481, 0.9966502785682678, 0.9746874570846558, 0.9870147109031677, 0.9792119264602661, 1.01824152469635, 1.0144414901733398, 1.0021436214447021, 1.0048997402191162, 0.9721227884292603, 1.0093704462051392, 0.9748027324676514, 0.0022133931051939726, -0.007165962364524603, -0.006476548034697771, 0.004942937288433313, 0.03136187791824341, 0.05665476247668266, -0.021242648363113403, -0.00765179144218564, 0.0856969952583313, -0.053965214639902115, -0.01378045603632927, 0.00042188679799437523, -0.028538523241877556, 0.01782519929111004, -0.042128417640924454, 0.025005826726555824, 0.012967096641659737, -0.016696492210030556, 0.0596054345369339, -0.04230259358882904, -0.03114469349384308, 0.016613410785794258, -0.0022673229686915874, 0.015771381556987762, 0.0006514415144920349, 0.022961286827921867, -0.018536634743213654, -0.01583181507885456, -0.0703377053141594, 0.037367384880781174, 0.04297458007931709, -0.05762631073594093, 0.051609382033348083, -0.04707008972764015, 0.02030733972787857, 0.0770166665315628, 0.021268434822559357, -0.011140537448227406, -0.010641525499522686, -0.06980697065591812, -0.07441805303096771, -0.02273876965045929, 0.02682732604444027, -0.043360330164432526, 0.03946135565638542, -0.03290745988488197, 0.007016175426542759, 0.04322868585586548, -0.037850260734558105, 0.10420127213001251, 0.02620675601065159, 0.0015501886373385787, -0.00233263592235744, 0.07857397198677063, 0.05981484800577164, 0.03669542819261551, 0.03808830305933952, -0.017779069021344185, 0.022041000425815582, 0.08695252239704132, -0.006688548251986504, 0.012876623310148716, -0.02982228435575962, -0.010614356026053429, -0.0121238324791193, 0.04319319128990173, 0.12100578844547272, -0.013118807226419449, 0.007120388559997082, -0.03697730973362923, 0.041466083377599716, -0.005123630166053772, 0.06811318546533585, 0.1417999565601349, 0.015283934772014618, 0.011691762134432793, 0.002151790540665388, 0.050534557551145554, 0.00158935715444386, 0.015124820172786713, 0.017955144867300987, -0.03173551335930824, 0.05992969498038292, 0.010002334602177143, 0.054021794348955154, -0.002148845000192523, 0.011814307421445847, 0.045096516609191895, 0.02458898164331913, 0.0644998550415039, 0.06792980432510376, 0.00144292414188385, 0.03606852516531944, 0.0004165741556789726, 0.06046653911471367, 0.08875808119773865]}, "model_weights__encoder_bilstm__encoder_bilstm__backward_bilstm__lstm_cell__kernel:0": {"shape": [13, 192], "data": [0.09733811020851135, 0.08060763776302338, -0.04946992173790932, 0.1448802500963211, 0.17624609172344208, 0.017933053895831108, 0.22245846688747406, -0.37132367491722107, 0.14488983154296875, 0.107651486992836, 0.1519533395767212, 0.0798681303858757, -0.23109784722328186, 0.1811610907316208, -0.355039119720459, -0.08599451929330826, 0.403513640165329, -0.048084232956171036, 0.07285108417272568, -0.1570063680410385, 0.1122688427567482, 0.1315050572156906, -0.11196988075971603, -0.011475952342152596, 0.2697107195854187, -0.36381036043167114, 0.06329383701086044, -0.01415655855089426, 0.08391941338777542, 0.03779226541519165, 0.31615149974823, -0.09162905067205429, -0.1882014125585556, -0.2016393393278122, -0.2790083885192871, 0.42975547909736633, -0.1517787128686905, 0.40199416875839233, 0.4001160264015198, 0.2315712422132492, 0.3360575735569, -0.2365572303533554, 0.3403676748275757, -0.07330791652202606, 0.04191509261727333, 0.17072881758213043, -0.00392876286059618, 0.06241009384393692, 0.18456704914569855, -0.10522988438606262, 0.05792151391506195, 0.048354532569646835, -0.07448448240756989, 0.14193646609783173, 0.07893671840429306, 0.011181768961250782, -0.022196955978870392, -0.1474480777978897, 0.06037910655140877, 0.08541372418403625, -0.09990692138671875, -0.12782222032546997, -0.1641571968793869, 0.03888827562332153, 0.002245409647002816, -0.15670499205589294, 0.07192976027727127, -0.12235415726900101, 0.0619172677397728, 0.13244609534740448, 0.048972442746162415, -0.0543874092400074, 0.2171230912208557, -0.11371435225009918, 0.04915843904018402, 0.11119372397661209, 0.1236601173877716, -0.150396928191185, 0.07235459983348846, 0.06363479793071747, -0.09858325123786926, -0.21126914024353027, 0.10940711200237274, 0.010353639721870422, -0.08378361165523529, 0.17029567062854767, 0.03001873381435871, -0.0743679478764534, 0.07043980807065964, -0.1318695992231369, 0.05814971774816513, -0.11699188500642776, -0.13110530376434326, -0.04403311386704445, 0.0020751350093632936, -0.10366462171077728, -0.046320006251335144, -0.22149206697940826, -0.10847330093383789, 0.17287106812000275, 0.4278974235057831, -0.26555418968200684, 0.44213443994522095, -0.19742731750011444, -0.10350678116083145, -0.2650950849056244, 0.024016553536057472, -0.16794565320014954, -0.07384076714515686, 0.23966334760189056, -0.4249756336212158, -0.13716807961463928, -0.31903591752052307, -0.15658292174339294, 0.33842387795448303, -0.06909677386283875, -0.1510658860206604, -0.0351988822221756, -0.2779027223587036, 0.10505679249763489, 0.09846483170986176, 0.3433399796485901, -0.14218512177467346, 0.06645426154136658, -0.0906551331281662, 0.05511702969670296, 0.1287955343723297, 0.2276770919561386, -0.07459094375371933, -0.04439069703221321, -0.002437061397358775, -0.05747583508491516, -0.02695384807884693, -0.22060896456241608, 0.22246302664279938, -0.22088408470153809, -0.04776027426123619, 0.29475638270378113, 0.0616239495575428, -0.10472790896892548, 0.18161723017692566, -0.06587207317352295, -0.10020920634269714, -0.0902729481458664, -0.12880854308605194, -0.04006016626954079, -0.1498093158006668, 0.11823848634958267, 0.08518213778734207, 0.19879594445228577, 0.07582451403141022, -0.1637130230665207, 0.20479607582092285, 0.0397285595536232, 0.023216616362333298, 0.00344454706646502, -0.08988387137651443, 0.2560388743877411, -0.3698510527610779, 0.0340600311756134, 0.18122780323028564, -0.22564774751663208, -0.12181682884693146, -0.16576454043388367, 0.2417309433221817, 0.100286103785038, 0.09090571105480194, -0.27787643671035767, 0.16879339516162872, -0.133061021566391, 0.18123549222946167, 0.050547223538160324, 0.27179768681526184, 0.11040930449962616, 0.2216607928276062, -0.06506197154521942, 0.056734293699264526, -0.23678815364837646, 0.02542099915444851, 0.10473266988992691, -0.18489353358745575, 0.19419677555561066, 0.20362035930156708, 0.04042760282754898, 0.36134111881256104, -0.1772589385509491, -0.08928008377552032, 0.01042443048208952, 0.27287596464157104, 0.3531282842159271, -0.03201982378959656, 0.21643111109733582, 0.08472184091806412, 0.04485783353447914, 0.2373128980398178, 0.1239117756485939, -0.01388282049447298, 0.1681070178747177, 0.41083601117134094, -0.2744762897491455, 0.16542841494083405, 0.2252248376607895, 0.3228710889816284, 0.09788693487644196, -0.24611824750900269, 0.10123779624700546, -0.28076180815696716, 0.06157289817929268, 0.11585258692502975, -0.22883880138397217, -0.22867903113365173, -0.39132535457611084, 0.1802767813205719, 0.1640748232603073, -0.034911222755908966, -0.06495366245508194, 0.28194981813430786, -0.32421553134918213, 0.09386832267045975, 0.04388485103845596, 0.19751806557178497, 0.08497024327516556, 0.2553562521934509, 0.01126174908131361, -0.18911702930927277, -0.15304668247699738, -0.08458933979272842, 0.3630145192146301, 0.07944292575120926, 0.16828522086143494, 0.2714526653289795, -0.0596311129629612, 0.24556273221969604, -0.4212099313735962, 0.2779323160648346, -0.1692465990781784, 0.10562555491924286, 0.2393236756324768, 0.18902434408664703, -0.021550338715314865, -0.07885706424713135, -0.06875772029161453, 0.12466230243444443, -0.0659174993634224, -0.013790300115942955, 0.022679124027490616, 0.2836543917655945, 0.02623312920331955, 0.17452676594257355, 0.1631738245487213, 0.19380591809749603, 0.04509429633617401, -0.12827932834625244, -0.03879634663462639, -0.05610732361674309, 0.1389199048280716, -0.007180173881351948, -0.15920467674732208, -0.02852368727326393, 0.05709550902247429, -0.13805007934570312, 0.13828164339065552, 0.15096786618232727, -0.0886804535984993, 0.15247444808483124, 0.15176835656166077, -0.08521820604801178, 0.07434406876564026, 0.22640755772590637, 0.06288508325815201, -0.00992615707218647, -0.006508533377200365, -0.037542589008808136, -0.12650202214717865, -0.174614816904068, -0.009795821271836758, -0.11086291074752808, 0.2966630458831787, -0.06864240765571594, 0.07019776850938797, 0.10167616605758667, -0.1804097443819046, -0.01988343894481659, -0.23085318505764008, 0.05996587127447128, 0.07700283080339432, 0.1802849918603897, 0.03728717565536499, 0.17866124212741852, -0.4216880202293396, -0.1296180635690689, 0.054196473211050034, 0.16053150594234467, -0.38380277156829834, 0.28370216488838196, -0.305524080991745, -0.022600937634706497, -0.2803322970867157, -0.09932875633239746, 0.08969131112098694, -0.029229598119854927, 0.13828721642494202, -0.2157556712627411, 0.11544153094291687, -0.20972789824008942, -0.21440482139587402, 0.27035415172576904, -0.12852361798286438, 0.11328284442424774, 0.16034488379955292, -0.29909276962280273, 0.16322849690914154, 0.22809746861457825, 0.36813491582870483, -0.01623356342315674, -0.05853705480694771, 0.0923689529299736, 0.13391900062561035, 0.2084740400314331, 0.060505010187625885, 0.1552352011203766, -0.06499017775058746, 0.20824840664863586, 0.03466838225722313, 0.03312719240784645, -0.21681705117225647, 0.13336050510406494, -0.12614770233631134, -0.256886750459671, 0.3163334131240845, 0.21013130247592926, -0.29175490140914917, 0.20855262875556946, 0.13143981993198395, -0.20385614037513733, -0.22911909222602844, 0.10143078863620758, 0.24340946972370148, 0.06936618685722351, -0.08628837764263153, -0.05302046611905098, -0.034143973141908646, 0.2880820333957672, -0.10448488593101501, 0.08645489811897278, 0.1990467607975006, 0.10286515951156616, -0.023381194099783897, 0.1202993392944336, 0.20137764513492584, -0.14688736200332642, 0.17230743169784546, 0.4418269693851471, -0.06695537269115448, -0.08156031370162964, -0.31411245465278625, 0.1884460598230362, 0.22651219367980957, 0.06147671863436699, -0.22930434346199036, 0.19692838191986084, 0.09253397583961487, 0.12494676560163498, -0.15180353820323944, 0.22729499638080597, 0.22482380270957947, 0.33963948488235474, -0.03401658684015274, -0.1681603640317917, -0.19626298546791077, -0.0415608249604702, 0.23204685747623444, -0.18382374942302704, 0.14555472135543823, 0.2080746293067932, -0.047046273946762085, 0.4330078363418579, -0.32900482416152954, 0.12685339152812958, -0.09959235787391663, 0.021389106288552284, 0.2531835436820984, 0.11608416587114334, 0.21416564285755157, -0.026249945163726807, 0.09812483936548233, 0.1020369753241539, 0.01029105857014656, 0.0952904149889946, 0.02425680309534073, 0.10981249809265137, -0.0631866455078125, 0.061679232865571976, -0.0818791463971138, 0.06204497441649437, -0.04394315183162689, -0.010406095534563065, 0.20054446160793304, 0.0020117363892495632, -0.08749686181545258, 0.33884280920028687, -0.01414343249052763, 0.003658652538433671, -0.04749809205532074, 0.08979988843202591, -0.07044629752635956, 0.07364445924758911, -0.03012141026556492, 0.147431418299675, -0.06261442601680756, 0.11469902098178864, 0.20798638463020325, 0.2245773822069168, 0.0905313789844513, 0.07058454304933548, 0.11599671840667725, -0.0828208178281784, -0.238191157579422, -0.008443981409072876, 0.3265579640865326, 0.06749287992715836, 0.03285786136984825, 0.29652953147888184, 0.05964410677552223, 0.17224520444869995, -0.08587910979986191, 0.13850541412830353, -0.09107760339975357, 0.1711881309747696, 0.05600026622414589, 0.21022194623947144, 0.13816602528095245, 0.1054917499423027, 0.024458182975649834, 0.08570174127817154, -0.12943439185619354, -0.14822888374328613, 0.1890440434217453, 0.15078173577785492, -0.17867471277713776, 0.1812104731798172, -0.16083747148513794, -0.0616074800491333, 0.153722882270813, -0.1454199105501175, 0.06391920149326324, -0.10610532015562057, 0.07576457411050797, -0.1299288421869278, 0.027886515483260155, -0.09877951443195343, -0.11039815098047256, -0.059973813593387604, 0.12693816423416138, 0.16165004670619965, -0.130217045545578, -0.09203993529081345, -0.041737064719200134, 0.14430487155914307, -0.08606482297182083, 0.04845311865210533, 0.093443363904953, 0.05722007527947426, -0.06507386267185211, 0.08203499019145966, 0.08571392297744751, 0.01198191475123167, 0.016556236892938614, 0.08132771402597427, 0.08075151592493057, 0.14384976029396057, 0.15071503818035126, -0.02631375379860401, -0.13289774954319, 0.1200467050075531, -0.02500106394290924, 0.06542397290468216, 0.027844026684761047, -0.06253011524677277, -0.06743188202381134, 0.16704653203487396, -0.25533416867256165, -0.10975243896245956, 0.12757639586925507, 0.33605197072029114, -0.11732621490955353, 0.1396399587392807, -0.10546974837779999, 0.08060792833566666, -0.1393263190984726, 0.055785637348890305, -0.2140277773141861, 0.06054900586605072, -0.10966085642576218, -0.2807861566543579, -0.036606404930353165, -0.05559862032532692, 0.05220261961221695, 0.04051549360156059, 0.01633898727595806, -0.10356560349464417, 0.17366833984851837, -0.0980817973613739, -0.07445923238992691, 0.001383441500365734, 0.0034713016357272863, -0.03126004710793495, -0.09802711009979248, -0.13142114877700806, 0.23141485452651978, -0.11479532718658447, 0.09070929139852524, -0.03875114023685455, -0.16690129041671753, -0.11367037147283554, 0.20249804854393005, 0.014281493611633778, -0.03445475921034813, 0.06472352892160416, 0.009555503726005554, -0.005987668875604868, 0.1520441621541977, 0.20213887095451355, -0.22914396226406097, 0.06569310277700424, -0.1189168319106102, 0.15960688889026642, -0.02679099701344967, -0.04141842573881149, 0.014898682944476604, 0.015302715823054314, -0.0773206502199173, -0.16918273270130157, 0.10570670664310455, 0.08755268156528473, -0.09826695173978806, 0.023013880476355553, 0.19384251534938812, -0.05278563126921654, 0.15314999222755432, -0.02213602140545845, 0.13391321897506714, -0.2402726709842682, -0.10991999506950378, 0.16895624995231628, -0.16933871805667877, -0.04342179745435715, 0.14517918229103088, 0.1446552574634552, -0.07477155327796936, 0.15659046173095703, -0.16820000112056732, 0.2851071357727051, -0.158175528049469, 0.15378215909004211, -0.08587031811475754, 0.10844622552394867, -0.06206360086798668, 0.24579952657222748, -0.05161789432168007, -0.05037568882107735, -0.14492091536521912, 0.027855820953845978, 0.1620509922504425, 0.06038453057408333, 0.23758158087730408, 0.1931827962398529, 0.16440416872501373, 0.2996446490287781, -0.09993559867143631, -0.18782155215740204, -0.1241762712597847, 0.04909319058060646, 0.09344888478517532, 0.06799197942018509, -0.07561593502759933, 0.27081820368766785, 0.1351897269487381, -0.036573559045791626, 0.11487433314323425, 0.005158815532922745, 0.26275941729545593, 0.20556937158107758, -0.3303315341472626, 0.13229051232337952, 0.10669200867414474, 0.2379416823387146, 0.10638502240180969, -0.06798296421766281, 0.09489560127258301, -0.36957913637161255, -0.07112052291631699, 0.28122222423553467, -0.262480229139328, -0.15162429213523865, -0.3073852062225342, -0.04455120116472244, 0.0712476596236229, -0.03978142514824867, 0.04050435870885849, 0.07989713549613953, -0.22371475398540497, 0.25841233134269714, -0.163669154047966, 0.3544808626174927, 0.14335979521274567, 0.02044028788805008, 0.008912768214941025, -0.17867448925971985, -0.20383314788341522, 0.02451903745532036, 0.4053846299648285, 0.05887984856963158, 0.13215282559394836, 0.1780005693435669, -0.06699533760547638, 0.27267128229141235, -0.3924350142478943, 0.23697111010551453, -0.21719162166118622, 0.03873929753899574, 0.146966814994812, 0.05002906545996666, -0.0796075388789177, -0.0021697147749364376, 0.07985728979110718, -0.061757925897836685, -0.032444942742586136, 0.17401620745658875, 0.11250784248113632, 0.1197969913482666, -0.15819334983825684, 0.11805573105812073, -0.12862473726272583, 0.0668564885854721, 0.21058395504951477, 0.06475400924682617, 0.1459498554468155, -0.24940599501132965, -0.029071126133203506, -0.11486396193504333, -0.14924229681491852, -0.11503162980079651, -0.07090030610561371, -0.09989423304796219, 0.07808330655097961, 0.1121615394949913, -0.014672741293907166, 0.12260175496339798, 0.08947138488292694, 0.11178635060787201, 0.11586630344390869, -0.06271416693925858, -0.08118119090795517, 0.16077202558517456, -0.16076204180717468, -0.1852641999721527, -0.1043543592095375, -0.14755868911743164, 0.22183625400066376, 0.03577784076333046, 0.027742868289351463, 0.03683045879006386, 0.031901534646749496, 0.08050616830587387, -0.2211599051952362, 0.21818625926971436, -0.22954687476158142, -0.10800471156835556, 0.10901113599538803, -0.10467611253261566, 0.15298637747764587, -0.10592594742774963, -0.2419627457857132, -0.013213885948061943, -0.055103931576013565, 0.1236611157655716, -0.25292521715164185, 0.3952389061450958, -0.022068273276090622, 0.15818674862384796, -0.2059900462627411, -0.02834244631230831, -0.040935732424259186, -0.19947388768196106, 0.21763388812541962, -0.05365428328514099, 0.03664851561188698, -0.08582795411348343, -0.28448423743247986, 0.1835021823644638, -0.16044926643371582, -0.0633840411901474, 0.07693862915039062, -0.24599739909172058, -0.016046879813075066, 0.2686079740524292, 0.1656559556722641, -0.2073114663362503, -0.05048929899930954, -0.10394148528575897, -0.05582999438047409, -0.034678470343351364, 0.0409126803278923, 0.16790349781513214, -0.31938523054122925, 0.10563541203737259, 0.034693241119384766, -0.022137688472867012, -0.11804880946874619, 0.18588939309120178, 0.005157044157385826, -0.11555007100105286, 0.33759805560112, 0.26748353242874146, -0.26255926489830017, 0.06820982694625854, -0.14043088257312775, -0.23632988333702087, -0.24887996912002563, -0.1277468353509903, 0.029570026323199272, 0.12460648268461227, 0.00839096400886774, 0.14760570228099823, 0.04462038725614548, 0.10475073754787445, -0.006750972475856543, 0.05650129169225693, 0.06927067041397095, 0.06899720430374146, 0.1036565825343132, 0.0061546815559268, 0.013209653086960316, -0.44358134269714355, -0.13131487369537354, 0.1361999213695526, -0.10406723618507385, 0.11466337740421295, -0.14268368482589722, 0.10451441258192062, -0.03553583472967148, -0.09757492691278458, -0.15308333933353424, 0.18060539662837982, 0.15231914818286896, -0.0636567771434784, -0.12275348603725433, 0.17783603072166443, 0.10257255285978317, 0.24448974430561066, -0.058330535888671875, -0.22788728773593903, -0.3266070485115051, 0.04526197910308838, 0.20830439031124115, 0.03999366983771324, 0.07562652230262756, 0.12528488039970398, 0.05833624303340912, 0.3664858639240265, -0.18378086388111115, 0.07752614468336105, -0.09011264145374298, 0.042276252061128616, 0.14989690482616425, -0.08039595186710358, -0.02636236511170864, 0.12265148758888245, 0.006435738876461983, 0.0007841080660000443, 0.050435878336429596, 0.10823477059602737, 0.22968536615371704, 0.11306427419185638, 0.10310298204421997, 0.1568029522895813, -0.12064679712057114, -0.07800411432981491, 0.09325074404478073, 0.022842586040496826, -0.03171132132411003, -0.10722996294498444, -0.15409016609191895, 0.0792197585105896, 0.15130136907100677, 0.030585210770368576, 0.1096591055393219, -0.08459661900997162, -0.04569461941719055, 0.09210389107465744, -0.13612890243530273, -0.03111756406724453, 0.0546705462038517, 0.16827964782714844, -0.1437181532382965, 0.08062749356031418, -0.07495104521512985, 0.13981212675571442, 0.10462235659360886, -0.10112351924180984, 0.11693443357944489, 0.14308740198612213, -0.06028767302632332, -0.12090618163347244, 0.11699697375297546, 0.1735703945159912, -0.020820636302232742, 0.10193316638469696, 0.09820067882537842, 0.22665399312973022, 0.12182072550058365, 0.012351489625871181, 0.19888009130954742, 0.04415805637836456, -0.09454475343227386, 0.05035977438092232, 0.006170652806758881, -0.09612969309091568, -0.0289347805082798, 0.07096133381128311, 0.11612137407064438, 0.04691528528928757, -0.14790500700473785, 0.03398485481739044, 0.08964419364929199, 0.10064402222633362, 0.10881602764129639, -0.10817352682352066, -0.1314316838979721, -0.11800164729356766, 0.014030611142516136, -0.06273068487644196, -0.17077559232711792, 0.08467823266983032, -0.05880820006132126, 0.11073950678110123, -0.027842162176966667, 0.09202978014945984, 0.0005888675805181265, -0.1313398778438568, -0.06139553710818291, 0.09152165800333023, 0.1525472104549408, -0.11403833329677582, 0.02483542077243328, 0.15277092158794403, 0.012419572100043297, 0.0590963140130043, 0.023083548992872238, -0.09087564051151276, 0.03622207045555115, 0.09170501679182053, 0.025734178721904755, -0.13561362028121948, -0.09613870084285736, 0.021452482789754868, -0.002005082555115223, 0.04341112822294235, -0.1638907641172409, 0.12373971194028854, -0.12250693887472153, -0.14191125333309174, 0.02198689803481102, 0.14763367176055908, -0.08106791228055954, 0.010433592833578587, -0.10597658902406693, 0.035472091287374496, 0.009354733861982822, -0.11838670074939728, 0.13790689408779144, 0.015839220955967903, -0.1794130653142929, 0.09819193184375763, -0.1270824521780014, 0.039700284600257874, -0.09328876435756683, 0.005229241214692593, -0.0024302233941853046, 0.02161998301744461, 0.11541102826595306, -0.060064904391765594, -0.019753647968173027, -0.18025089800357819, 0.050111934542655945, 0.12934397161006927, -0.07553340494632721, 0.14060625433921814, 0.13010531663894653, -0.17253072559833527, -0.1561187356710434, 0.04483862966299057, 0.11424557864665985, 0.14252719283103943, 0.056211329996585846, 0.14467817544937134, -0.03992508351802826, -0.11882268637418747, 0.04265568405389786, 0.10421965271234512, -0.12215479463338852, -0.054055046290159225, -0.23394465446472168, -0.06302095949649811, -0.04181940481066704, 0.14586058259010315, 0.04383351281285286, 0.05218740180134773, -0.08620300889015198, 0.1621728241443634, 0.19764253497123718, -0.11642814427614212, 0.24997647106647491, -0.15007548034191132, 0.11526361852884293, 0.16987721621990204, -0.04100313410162926, 0.09014396369457245, 0.02831549197435379, 0.0574212484061718, 0.11025838553905487, -0.06993943452835083, -0.009292609989643097, 0.008355085738003254, -0.007299744989722967, 0.11195669323205948, -0.05320727452635765, -0.0005476934602484107, -0.07222296297550201, 0.18939468264579773, -0.1534930318593979, 0.1586838662624359, -0.1614336520433426, 0.1068970337510109, -0.15128085017204285, 0.07957713305950165, 0.20747597515583038, -0.0768766701221466, -0.0588415302336216, 0.17810985445976257, 0.021296311169862747, 0.16120506823062897, -0.03343357518315315, -0.07418619841337204, 0.012302317656576633, -0.004572716075927019, -0.028995605185627937, 0.14265595376491547, -0.06012335419654846, 0.11279595643281937, -0.02887926995754242, 0.07985629141330719, 0.07303284853696823, 0.06403964012861252, 0.07669324427843094, 0.06565447151660919, -0.09379968792200089, 0.10657341033220291, 0.25560829043388367, -0.10200583934783936, 0.001042301650159061, 0.055704329162836075, -0.025970369577407837, 0.09736720472574234, 0.24949847161769867, 0.08235859870910645, -0.0002019717649091035, -0.009576910175383091, -0.13706637918949127, -0.025117814540863037, 0.043609753251075745, 0.005628034006804228, -0.09939761459827423, -0.04588603228330612, 0.054627396166324615, 0.029288889840245247, 0.04856618493795395, 0.16011005640029907, -0.15153281390666962, -0.11396268755197525, -0.02002059295773506, 0.10837763547897339, -0.14220476150512695, -0.07735908031463623, 0.24589484930038452, -0.061991073191165924, 0.10267534106969833, -0.1089986190199852, 0.09364525973796844, 0.09188178181648254, -0.12148891389369965, -0.09361309558153152, -0.06495495140552521, 0.06923618167638779, -0.00776103138923645, -0.04349058121442795, -0.14530812203884125, 0.04639493674039841, 0.0025283428840339184, 0.11238013952970505, -0.08966561406850815, 0.0014566060854122043, -0.08486420661211014, -0.0712127536535263, -0.09788025170564651, 0.00879106018692255, 0.020597392693161964, 0.01587044447660446, 0.011231721378862858, -0.10360153019428253, -0.11440940201282501, 0.15463493764400482, 0.1942492425441742, -0.04277503862977028, 0.012133242562413216, 0.1514550745487213, -0.014842233620584011, -0.01665995828807354, 0.004244977608323097, 0.01141193974763155, -0.034734878689050674, -0.02966172620654106, 0.010485631413757801, -0.11868175864219666, -0.04969930276274681, 0.22731566429138184, 0.1180708035826683, 0.08554035425186157, -0.08153094351291656, -0.042976535856723785, -0.1378469318151474, 0.09910300374031067, -0.14784304797649384, -0.08751633018255234, 0.11721871793270111, -0.11052916198968887, -0.034281834959983826, -0.008844432421028614, -0.10817509144544601, 0.15499411523342133, 0.07522774487733841, 0.048489488661289215, 0.0010831643594428897, -0.0901634469628334, 0.10825741291046143, -0.07076427340507507, -0.022435832768678665, 0.07051540911197662, 0.14833702147006989, 0.059474870562553406, -0.11260463297367096, -0.1565292328596115, 0.045796070247888565, -0.13979798555374146, -0.16854268312454224, -0.010727711953222752, 0.0037890933454036713, -0.0442061685025692, -0.04844978079199791, 0.12485607713460922, 0.03162378817796707, -0.041122738271951675, -0.015490837395191193, -0.03512044996023178, 0.020311711356043816, -0.1018180102109909, -0.1578284502029419, -0.07420962303876877, 0.05532104894518852, -0.14562442898750305, -0.05575112625956535, 0.061646174639463425, -0.039593007415533066, -0.047005075961351395, 0.0887293592095375, -0.06179247051477432, -0.11758197844028473, 0.10118231922388077, 0.188849076628685, -0.0053348117507994175, 0.16123849153518677, -0.11417213827371597, -0.1419687569141388, -0.10630956292152405, -0.10397350043058395, 0.07858376950025558, -0.10687542706727982, 0.007364766672253609, 0.05856037512421608, 0.0524844191968441, 0.037944942712783813, -0.025054441764950752, 0.08210722357034683, 0.006783681455999613, 0.0005153673700988293, 0.07530710846185684, 0.15793345868587494, 0.04893609508872032, -0.03748712316155434, -0.09749096632003784, 0.10020802170038223, -0.1499064564704895, -0.05293422192335129, -0.1716359257698059, -0.002846686402335763, -0.012363755144178867, 0.13453197479248047, -0.08884332329034805, 0.07947861403226852, 0.05748708173632622, 0.12872491776943207, -0.11531838029623032, -0.12430908530950546, -0.09415731579065323, 0.0991954430937767, 0.10929650813341141, -0.0002423996338620782, -0.06954671442508698, -0.1741337776184082, -0.1832093894481659, 0.06393719464540482, 0.21509559452533722, 0.036441583186388016, 0.15130701661109924, 0.11445052921772003, -0.03325899317860603, 0.03507497161626816, 0.08192650973796844, 0.10777196288108826, -0.026230644434690475, -0.02061951532959938, -0.13993407785892487, -0.009699487127363682, -0.12465211004018784, 0.14508503675460815, -0.03489746153354645, -0.01880410499870777, 0.24589157104492188, -0.10687460750341415, 0.028612270951271057, 0.09292678534984589, 0.07809996604919434, 0.18475908041000366, 0.1101795956492424, -0.02725319005548954, -0.057226862758398056, -0.13355526328086853, 0.12688161432743073, -0.07134781777858734, 0.040198925882577896, 0.03462887927889824, -0.17488813400268555, 0.006318267900496721, -0.08205525577068329, -0.15740375220775604, -0.04549473151564598, 0.2175407111644745, 0.24811960756778717, 0.06141318008303642, -0.03934027999639511, -0.015696091577410698, -0.16160254180431366, -0.007326193153858185, 0.09223685413599014, 0.15540248155593872, -0.10401225090026855, 0.11149351298809052, 0.12287942320108414, -0.10668230056762695, 0.08465626090765, -0.14733584225177765, -0.1259688436985016, -0.2270601987838745, 0.23316119611263275, 0.16335013508796692, -0.08607260882854462, 0.024617614224553108, -0.00635876040905714, -0.14736245572566986, 0.05050071328878403, -0.07592662423849106, 0.08229557424783707, -0.06960335373878479, 0.15523016452789307, 0.09799675643444061, -0.09298987686634064, -0.1029423326253891, -0.1352820098400116, 0.027227936312556267, -0.08193530887365341, -0.05850059911608696, 0.14020749926567078, -0.0011695589637383819, 0.15599104762077332, 0.09695044159889221, -0.031031541526317596, 0.15402114391326904, 0.14821664988994598, 0.20565690100193024, -0.09187986701726913, 0.10407117754220963, 0.03490322455763817, 0.019913295283913612, 0.05167131870985031, -0.09917581081390381, 0.15198177099227905, -0.07806386798620224, 0.11451088637113571, -0.022527527064085007, -0.01667593978345394, 0.20358975231647491, -0.0345432311296463, -0.09820429980754852, 0.1301971822977066, 0.022734452039003372, -0.07240625470876694, -0.15011046826839447, 0.19558551907539368, -0.07616958022117615, 0.05450791120529175, -0.1314651072025299, 0.04855809733271599, 0.16913750767707825, -0.13658827543258667, 0.033692117780447006, -0.09046446532011032, -0.05413416028022766, -0.01454242505133152, -0.052079301327466965, 0.15734069049358368, -0.1323828250169754, 0.026738319545984268, -0.1337146908044815, 0.044928692281246185, -0.09389203786849976, 0.09336701035499573, -0.17149977385997772, -0.1802939772605896, 0.05865529552102089, -0.0357186496257782, 0.16149500012397766, -0.08813737332820892, -0.12016723304986954, -0.07179901003837585, 0.06140656769275665, -0.13978447020053864, -0.17599336802959442, 0.1617182344198227, -0.14634904265403748, -0.11029514670372009, -0.1326919049024582, -0.0875476747751236, -0.012178922072052956, 0.06722688674926758, -0.09059499949216843, 0.24974900484085083, 0.10469242185354233, -0.10098465532064438, 0.13170892000198364, 0.0662565678358078, -0.06045639142394066, -0.09912063926458359, 0.18899981677532196, 0.1252361387014389, -0.005176160018891096, 0.13802707195281982, -0.010705840773880482, -0.10542015731334686, 0.11844377219676971, 0.11056113988161087, -0.03262738883495331, -0.13585495948791504, -0.05716051533818245, 0.11127738654613495, -0.05603337287902832, -0.23631873726844788, -0.022602468729019165, 0.03817197307944298, 0.10336893796920776, -0.04436899721622467, -0.05199863761663437, -0.028175102546811104, 0.09670283645391464, -0.14372898638248444, 0.1565733402967453, -0.07226219773292542, -0.19574573636054993, -0.03058851696550846, 0.13111618161201477, 0.012803134508430958, -0.15919487178325653, -0.011513158679008484, -0.16050148010253906, -0.0680663213133812, 0.1335068643093109, -0.10720215737819672, 0.11714432388544083, 0.11792679876089096, -0.1427268385887146, -0.03190641850233078, 0.05920375511050224, -0.03204193711280823, -0.03126861900091171, 0.014960691332817078, 0.14253069460391998, 0.001372496597468853, 0.08045805990695953, 0.09212768822908401, 0.1402762085199356, -0.1307200938463211, 0.11324881762266159, 0.01930130086839199, 0.06266162544488907, 0.09498712420463562, 0.05412428826093674, -0.08000586926937103, -0.15771491825580597, -0.10966096818447113, -0.14305509626865387, -0.04581701010465622, 0.21030539274215698, -0.003621059935539961, 0.06931370496749878, 0.05414426326751709, 0.0006905122427269816, 0.1234549880027771, -0.0574682243168354, 0.13215723633766174, 0.016550719738006592, 0.17181026935577393, 0.1304369568824768, -0.10745826363563538, 0.012362268753349781, -0.08942488580942154, -0.042099934071302414, 0.18364275991916656, 0.08906985819339752, 0.20046769082546234, 0.1509983241558075, 0.1431969553232193, -0.044702932238578796, -0.009845715947449207, 0.15702180564403534, -0.23293207585811615, -0.03438278287649155, -0.2410881221294403, -0.17940297722816467, 0.07369226962327957, 0.07171491533517838, -0.1263429969549179, 0.27843350172042847, -0.4103524088859558, -0.33131930232048035, -0.13851647078990936, 0.15860098600387573, 0.13534089922904968, -0.037106383591890335, 0.17478971183300018, 0.005807480774819851, -0.5423044562339783, 0.2520093321800232, 0.42221030592918396, 0.2965599298477173, -0.09780076891183853, -0.5280119180679321, -0.05443558841943741, 0.39362505078315735, -0.43227294087409973, 0.2437676042318344, -0.011486299335956573, -0.08268887549638748, -0.4538576304912567, -0.08559105545282364, -0.1954476237297058, 0.16409887373447418, -0.0949806421995163, 0.22616411745548248, 0.4144580364227295, -0.1298605352640152, -0.06143825873732567, -0.4484168291091919, -0.3212835490703583, -0.022101039066910744, -0.24379830062389374, 0.2663569152355194, -0.12462099641561508, -0.04482421651482582, 0.056735407561063766, -0.0798528790473938, -0.12419504672288895, -0.2195817232131958, 0.019041022285819054, 0.07372190803289413, 0.02758694812655449, 0.07397735118865967, -0.055063992738723755, -0.0753813236951828, -0.3577120304107666, -0.08352559804916382, 0.1099463403224945, 0.11966800689697266, -0.2631489038467407, 0.16071633994579315, -0.01395354513078928, 0.07367008179426193, 0.07108626514673233, -0.1861809939146042, 0.0003017340204678476, 0.09633483737707138, 0.011702659539878368, 0.27918872237205505, 0.012901310808956623, 0.08975453674793243, 0.2544703483581543, 0.035464152693748474, -0.33581918478012085, 0.006360328756272793, -0.12865503132343292, 0.09289751946926117, -0.12418306618928909, -0.06237632781267166, -0.054188042879104614, -0.1818743199110031, 0.19813668727874756, 0.23543457686901093, 0.0678611621260643, -0.026153424754738808, 0.005917019210755825, -0.18160779774188995, -0.2652212977409363, -0.22031919658184052, -0.25925204157829285, 0.18193258345127106, -0.3108845055103302, 0.21412746608257294, -0.11146096885204315, 0.15870197117328644, -0.11886074393987656, -0.05368563160300255, -0.050766874104738235, 0.45868784189224243, -0.3079710304737091, -0.09259773790836334, -0.334455668926239, 0.571729302406311, -0.6106098294258118, 0.2793380916118622, 0.07748904079198837, 0.06335604935884476, 0.036091409623622894, 0.12423288822174072, 0.09011556208133698, -0.13114556670188904, 0.1261909157037735, -0.11138292402029037, 0.22337859869003296, 0.051342643797397614, -0.4061727821826935, 0.35077622532844543, 0.22732765972614288, -0.24347226321697235, 0.009242224507033825, 0.0020856510382145643, -0.37886008620262146, -0.38753169775009155, 0.06823403388261795, 0.011794360354542732, 0.0957975760102272, -0.06422754377126694, -0.2906683385372162, -0.21567708253860474, 0.009407351724803448, 0.34156253933906555, -0.24365414679050446, -0.20591089129447937, 0.11026276648044586, 0.1455637812614441, -0.5989437103271484, 0.005773841869086027, 0.056509122252464294, -0.3216674327850342, -0.40077877044677734, 0.3642922341823578, -0.06429744511842728, -0.002045953879132867, -0.14605677127838135, 0.021593498066067696, -0.26398181915283203, 0.3729720115661621, -0.09665332734584808, -0.07468225061893463, 0.0766078308224678, -0.13674692809581757, -0.20296181738376617, 0.1029784306883812, -0.3222316801548004, -0.39393705129623413, -0.0952354297041893, 0.14764274656772614, 0.15124410390853882, -0.20908209681510925, 0.3068060576915741, 0.009036282077431679, -0.39189791679382324, 0.07504525780677795, 0.0345560722053051, 0.38474732637405396, -0.27965807914733887, -0.10095047950744629, 0.11391865462064743, 0.09073463082313538, -0.37029656767845154, 0.164431631565094, -0.0026983977295458317, 0.08728159964084625, -0.39699503779411316, 0.022414499893784523, -0.1990968883037567, 0.04131855443120003, 0.1703217625617981, 0.4064770042896271, 0.2387952208518982, -0.14744924008846283, 0.18340474367141724, -0.31409940123558044, -0.06470566242933273, -0.219114750623703, -0.39204567670822144, 0.31857749819755554, -0.07155117392539978, 0.10720977932214737, -0.07909899950027466, -0.138249471783638, 0.07681816816329956, -0.06405065953731537, 0.09145946055650711, -0.0758904442191124, 0.2186415195465088, -0.025870265439152718, 0.1122078150510788, 0.2910742461681366, -0.051155511289834976, 0.0368582122027874, 0.15768897533416748, -0.1370856910943985, -0.03811125084757805, 0.043173253536224365, 0.08485820889472961, -0.03059038147330284, -0.22379395365715027, -0.1289987713098526, -0.07166232913732529, -0.01540497224777937, -0.20250381529331207, 0.14326192438602448, 0.16015583276748657, 0.18398897349834442, 0.03375894948840141, -0.08013198524713516, 0.051879990845918655, 0.2625817656517029, 0.11771675944328308, -0.03276880457997322, 0.16369757056236267, 0.18398801982402802, -0.12834125757217407, 0.11224158853292465, 0.19772645831108093, -0.05162392556667328, 0.015860581770539284, 0.06162615492939949, -0.15379230678081512, -0.08730698376893997, 0.07515235245227814, 0.022196253761649132, 0.1387055516242981, 0.08029492944478989, -0.005812495015561581, 0.06783518940210342, 0.14329761266708374, 0.02633991651237011, -0.0008305225055664778, 0.14781755208969116, 0.10827101767063141, 0.08904135227203369, -0.05671590194106102, 0.08350691199302673, 0.037032123655080795, 0.22165434062480927, -0.005978295113891363, 0.17849068343639374, 0.03186051547527313, -0.006838373839855194, -0.0500190369784832, 0.12515075504779816, -0.03739568591117859, -0.12063591927289963, -0.03235376998782158, -0.10748172551393509, -0.22259588539600372, 0.056797709316015244, -0.06192226707935333, 0.11720840632915497, 0.10779428482055664, 0.18381081521511078, 0.0749758929014206, 0.0711064413189888, 0.09775447100400925, 0.0488964281976223, 0.14976650476455688, -0.013539950363337994, -0.02917354367673397, -0.14566004276275635, -0.1477222591638565, 0.1016974151134491, -0.0004197527014184743, -0.04146938771009445, 0.03969517722725868, 0.0900038555264473, -0.10900226980447769, -0.16474418342113495, -0.11136522889137268, -0.12685054540634155, -0.07429418712854385, -0.005164239089936018, 0.15172210335731506, -0.017066704109311104, -0.11722154915332794, -0.11672396212816238, 0.09093102067708969, -0.05744173750281334, -0.08192791789770126, 0.09895195811986923, 0.0897371917963028, 0.043314315378665924, 0.031643934547901154, -0.04944191873073578, -0.005259226076304913, 0.05399549752473831, -0.01484227180480957, -0.2159094512462616, -0.10417409241199493, -0.10171499848365784, -0.10427162051200867, -0.14325246214866638, -0.10543251037597656, 0.15040816366672516, -0.05501346290111542, 0.04042774438858032, 0.038400180637836456, 0.1474618911743164, 0.04988254979252815, -0.0867750346660614, 0.042896874248981476, 0.0466245673596859, -0.07486224174499512, 0.1642918735742569, 0.12126578390598297, 0.10927122086286545, -0.12447874993085861, -0.010873460210859776, 0.17606182396411896, -0.21853065490722656, 0.01829644665122032, -0.0006715122726745903, -0.07300350069999695, 0.026968691498041153, -0.119148388504982, 0.13596905767917633, -0.03519346937537193, -0.1197436973452568, -0.08487235754728317, -0.038026582449674606, 0.054343536496162415, 0.08516897261142731, 0.05980667844414711, -0.054402872920036316, 0.16400404274463654, 0.11931905895471573, -0.17332671582698822, -0.06591392308473587, 0.012189350090920925, 0.04916798695921898, 0.007700917311012745, 0.19706811010837555, 0.09640239924192429, 0.029643714427947998, 0.10706722736358643, 0.053273264318704605, -0.13415773212909698, -0.07196079194545746, 0.13550585508346558, 0.06487556546926498, 0.15792331099510193, -0.16590960323810577, -0.027171872556209564, 0.14649537205696106, 0.2354138195514679, -0.08869840204715729, -0.10605854541063309, -0.015566338784992695, 0.05152498558163643, 0.16787859797477722, -0.06750470399856567, 0.23673178255558014, 0.01274855900555849, 0.04138186201453209, -0.09626045823097229, 0.08201025426387787, -0.12301930040121078, 0.19671638309955597, 0.16527287662029266, -0.03889915347099304, -0.14714138209819794, -0.026671884581446648, -0.05939772352576256, 0.10967487841844559, 0.08398794382810593, 0.004646634683012962, -0.08693980425596237, 0.14274869859218597, 0.09537070989608765, 0.14366474747657776, 0.09536116570234299, 0.06892045587301254, -0.003942681010812521, 0.04814664274454117, 0.19414912164211273, 0.14878703653812408, 0.01215674914419651, 0.09317334741353989, -0.02585751749575138, 0.028043976053595543, -0.10262330621480942, 0.13816635310649872, 0.1685623973608017, -0.11947660893201828, -0.15451321005821228, 0.015111113898456097, 0.09093941748142242, 0.059019166976213455, 0.04035910218954086, 0.005323568359017372, 0.18231137096881866, 0.09591717272996902, -0.15871550142765045, -0.003137671621516347, 0.2022937685251236, -0.144663468003273, 0.00658754538744688, -0.05162167176604271, -0.11556580662727356, 0.2040996253490448, 0.07054099440574646, 0.2251436710357666, 0.11286485940217972, -0.03497551754117012, 0.03343803435564041, -0.07409122586250305, -0.12170998752117157, -0.21085305511951447, -0.044094573706388474, -0.11139102280139923, 0.07365721464157104, -0.10983717441558838, 0.037078890949487686, 0.08288890868425369, 0.14880776405334473, 0.225563183426857, -0.09762798994779587, -0.2058727890253067, -0.047497447580099106, -0.04815779626369476, 0.08292833715677261, 0.03726332262158394, 0.06504274159669876, 0.048170480877161026, -0.09499909728765488, 0.08859168738126755, 0.090440534055233, 0.03132596239447594, -0.017181165516376495, 0.024917885661125183, -0.09006617218255997, 0.11148232221603394, 0.08590981364250183, 0.10365157574415207, -0.147025004029274, -0.0750562995672226, 0.15260723233222961, -0.048900164663791656, 0.015487452037632465, -0.018401000648736954, -0.11817894130945206, 0.017516473308205605, 0.10037463903427124, 0.13836972415447235, 0.010402641259133816, -0.14208745956420898, -0.18523073196411133, 0.202497199177742, -0.01373768039047718, 0.05381873995065689, 0.023573074489831924, -0.07347942143678665, 0.07507673650979996, 0.06795548647642136, 0.023100998252630234, 0.1989784836769104, 0.1622018665075302, 0.028731565922498703, -0.07487558573484421, -0.015495050698518753, -0.16778627038002014, -0.06887848675251007, -0.15410278737545013, 0.1987891048192978, -0.04500562697649002, -0.013914639130234718, 0.13137610256671906, -0.17456012964248657, -0.1122397929430008, -0.10329625010490417, -0.001069874968379736, -0.0007421381887979805, 0.009470503777265549, -0.11441537737846375, 0.0016826039645820856, -0.1375207006931305, 0.05109240859746933, -0.004480820614844561, 0.18754565715789795, -0.0994616374373436, 0.05590251833200455, -0.16209499537944794, -0.12911027669906616, -0.007908301427960396, 0.04827563092112541, -0.059016283601522446, 0.02537834458053112, 0.16467338800430298, -0.08002683520317078, -0.12478145956993103, -0.11673114448785782, -0.12721940875053406, 0.13359317183494568, -0.07624084502458572, 0.16343989968299866, -0.02608666568994522, -0.04148494079709053, 0.04716133326292038, -0.0546543188393116, 0.0006763963028788567, 0.07601644843816757, -0.07620225101709366, -0.0022127514239400625, 0.06478622555732727, 0.15466171503067017, 0.17408521473407745, 0.14785704016685486, 0.013500976376235485, 0.12796004116535187, -0.15466198325157166, -0.06096208468079567, 0.020725972950458527, -0.13736587762832642, -0.12751755118370056, 0.08540830761194229, -0.1053212508559227, 0.15106667578220367, 0.1690516471862793, -0.05899221450090408, 0.2271793633699417, 0.06872609257698059, -0.02851277031004429, 0.11039458960294724, 0.19042667746543884, -0.15244929492473602, 0.21270851790905, 0.04006332531571388, 0.12109771370887756, -0.01955803856253624, 0.1317666471004486, -0.03935324773192406, 0.03690094128251076, 0.0026392785366624594, -0.1073511466383934, 0.03329169750213623, -0.05284721404314041, 0.20841649174690247, 0.15766564011573792, 0.0736905187368393, 0.06109115108847618, 0.09383512288331985, -0.07494822144508362, -0.05218939483165741, -0.04324699565768242, -0.09762005507946014, 0.06501462310552597, 0.10890159755945206, -0.12028597295284271, 0.11147000640630722, -0.03800531104207039, 0.18641610443592072, -0.026929546147584915, -0.14123952388763428, -0.10491298139095306, 0.06751321256160736, -0.026159631088376045, -0.056049954146146774, -0.07727544754743576, -0.020858051255345345, 0.17371217906475067, 0.07480810582637787, -0.16317428648471832, 0.11007481068372726, 0.09144174307584763, -0.06993239372968674, -0.09187937527894974, -0.04496470093727112, 0.2450367957353592, -0.0013865086948499084, -0.14578084647655487, 0.08336512744426727, 0.051241349428892136, 0.0430435985326767, 0.0011803332017734647, -0.028743119910359383, 0.10742678493261337, 0.02305588126182556, -0.1303170621395111, 0.10745152086019516, -0.0828518494963646, 0.06147344037890434, 0.035005711019039154, -0.00549828028306365, -0.07119603455066681, 0.07226971536874771, -0.011050625704228878, -0.1281655877828598, 0.0024093303363770247, -0.07610802352428436, 0.08076547086238861, 0.012829335406422615, -0.03816666454076767, 0.16664129495620728, -0.027250466868281364, -0.00973109807819128, -0.05445973202586174, 0.050962962210178375, 0.01011691614985466, 0.21009160578250885, 0.040028609335422516, -0.024763060733675957, -0.023388491943478584, -0.07188911736011505, -0.010280533693730831, 0.010234350338578224, -0.12869831919670105, 0.08757035434246063, -0.01656438782811165, -0.023190435022115707, 0.12302234023809433, -0.14504370093345642, 0.13229358196258545, -0.05541440099477768, 0.053568579256534576, 0.040434084832668304, 0.0032842352520674467, -0.11022155731916428, -0.02523868717253208, 0.16239327192306519, -0.07391790300607681, -0.04255146533250809, 0.07208355516195297, -0.05870018154382706, 0.11029115319252014, 0.013028621673583984, 0.15867574512958527, -0.15021800994873047, -0.19564497470855713, -0.12562483549118042, -0.07957220822572708, -0.1689651906490326, 0.18169160187244415, 0.06901640444993973, -0.1701246201992035, -0.12645947933197021, 0.17760981619358063, 0.024740463122725487, 0.07941628247499466, 0.0043896520510315895, 0.15612299740314484, 0.026672178879380226, 0.058125805109739304, 0.009894924238324165, -0.03281695395708084, -0.11558115482330322, -0.09498916566371918, 0.0708388239145279, -0.06451418995857239, -0.012157529592514038, 0.07909112423658371, -0.03904805704951286, -0.009588982909917831, 0.15917423367500305, -0.09869249910116196, 0.037956587970256805, -0.001978563843294978, 0.010691135190427303, 0.020989790558815002, 0.04867367818951607, 0.07208210229873657, -0.011118982918560505, 0.16404329240322113, 0.029597654938697815, -0.0005381816299632192, -0.0011404539691284299, -0.006833186838775873, -0.0006938473088666797, 0.005712213926017284, -0.000725742313079536, 0.002481029834598303, 0.18195544183254242, -0.09790852665901184, -0.09314463287591934, 0.05764403194189072, 0.1294039636850357, 0.13664047420024872, 0.0606176033616066, -0.1291702836751938, -0.026345260441303253, 0.01831080950796604, 0.00012276221241336316, 0.15889091789722443, -0.07036426663398743, 0.16256272792816162, -0.03593845292925835, -0.08756095170974731, 0.007093400694429874, -0.030967988073825836, -0.1628258228302002, 0.08988118916749954, -0.11954499036073685, 0.1320681869983673, 0.06856214255094528, 0.004974124021828175, 0.16384655237197876, 0.06563413888216019, -0.11085008084774017, 0.16748812794685364, 0.08312184363603592, -0.08410999923944473, -0.004064160864800215, -0.1549878865480423, -0.1531037539243698, -0.05178166180849075, 0.012434904463589191, 0.00982104055583477, 0.02088458463549614, -0.13936521112918854, -0.08359953761100769, -0.039660170674324036, 0.12182693928480148, 0.03959940746426582, 0.1462903767824173, -0.14461009204387665, 0.08365558832883835, 0.17111051082611084, 0.10767818987369537, 0.015057079493999481, -0.07163749635219574, -0.016917645931243896, -0.04842977970838547, -0.08733168244361877, 0.17796432971954346, -0.14791683852672577, -0.010968674905598164, -0.0961453840136528, 0.010240158997476101, -0.06044589355587959, 0.29239022731781006, 0.08586511760950089, -0.0026336454320698977, 0.04535287991166115, 0.18376000225543976, -0.025519339367747307, -0.008910113014280796, 0.07174704223871231, 0.05203033611178398, -0.123627670109272, 0.04905368760228157, 0.0007378811133094132, -0.013799929060041904, 0.010172377340495586, -0.12348762154579163, 0.030564339831471443, -0.06254074722528458, 0.001653286861255765, 0.05113436281681061, 0.06652200222015381, 0.04340684786438942, -0.09561492502689362, -0.010629432275891304, -0.016223961487412453, 0.22784148156642914, 0.11355537921190262, -0.12904119491577148, -0.09236772358417511, -0.12150633335113525, -0.05541875213384628, 0.08195421099662781, 0.09616988152265549, 0.06242186203598976, 0.06625908613204956, -0.013172074221074581, -0.009337125346064568, 0.16798701882362366, 0.011088239960372448, 0.1969100385904312, 0.14762772619724274, 0.05157395452260971, -0.04356372356414795, 0.00941200740635395, 0.12412083894014359, 0.0642475038766861, -0.041650403290987015, 0.24303501844406128, -0.15474824607372284, 0.08904712647199631, -0.17442791163921356, -0.07752447575330734, 0.13177590072155, 0.009884102270007133, 0.0384829007089138, 0.18014459311962128, -0.01739712432026863, 0.12594419717788696, 0.11233671009540558, 0.03370890021324158, 0.16795234382152557, -0.009252031333744526, 0.029466044157743454, -0.12957987189292908, -0.15287750959396362, -0.01630321331322193, 0.30258551239967346, -0.02818886749446392, 0.21945205330848694, 0.028023183345794678, 0.17403240501880646, 0.032924357801675797, -0.19118785858154297, 0.2033933848142624, -0.16327083110809326, -0.014950799755752087, 0.12825904786586761, 0.15049639344215393, -0.009883057326078415, 0.07075376808643341, 0.09827379137277603, 0.14423097670078278, -0.08388537913560867, 0.16355189681053162, 0.12628737092018127, 0.1768900454044342, -0.0810457319021225, -0.07239025831222534, -0.054253675043582916, -0.10765457898378372, 0.10415490716695786, 0.05994595214724541, 0.06072570011019707, -0.06956368684768677, 0.15053874254226685, -0.0058477530255913734, 0.07083871960639954, -0.07409578561782837, -0.015053985640406609, -0.04167931154370308, 0.11575771123170853, -0.05556246265769005, 0.021815037354826927, -0.10337425023317337, -0.024065637961030006, -0.1431521475315094, -0.047352757304906845, 0.12279507517814636, -0.11910787969827652, -0.09604467451572418, -0.13006044924259186, 0.06166540086269379, -0.16396673023700714, -0.11315036565065384, -0.17954738438129425, 0.17133912444114685, 0.060231033712625504, -0.019373103976249695, -0.014674348756670952, -0.10108045488595963, 0.0758846253156662, 0.1458326280117035, -0.11320619285106659, 0.12366816401481628, -0.15189577639102936, 0.07820087671279907, -0.19688630104064941, 0.07982370257377625, -0.061151791363954544, 0.010701153427362442, -0.01864660158753395, 0.1052832305431366, -0.02835366129875183, 0.2271260768175125, -0.024982700124382973, 0.15898573398590088, -0.08448587357997894, 0.10885400325059891, -0.15024957060813904, -0.23550347983837128, -0.0003216309705749154, -0.10025943070650101, 0.012044955044984818, 0.012740874662995338, -0.15460056066513062, 0.28183624148368835, -0.14363476634025574, -0.062329407781362534, 0.1361868530511856, 0.01802200637757778, 0.08830438554286957, 0.12049626559019089, 0.025034224614501, 0.12797792255878448, -0.18236441910266876, -0.1265016794204712, 0.10294568538665771, 0.1147649958729744, -0.1696101427078247, -0.10465593636035919, -0.11855191737413406, -0.07161425054073334, 0.16786926984786987, 0.14981380105018616, 0.00644982373341918, 0.24352939426898956, -0.08333422988653183, 0.06587497144937515, -0.08214356750249863, -0.0488138385117054, 0.05661069229245186, -0.07187997549772263, -0.04158196970820427, -0.06791061162948608, 0.018040413036942482, 0.12695612013339996, 0.24673207104206085, 0.07925687730312347, 0.0016232983907684684, -0.03126775473356247, 0.06945987045764923, -0.0007069013663567603, 0.1299172043800354, 0.11070314049720764, 0.14472542703151703, 0.108473040163517, 9.797886741580442e-05, -0.09505099803209305, 0.12678852677345276, -0.3549167513847351, 0.09400306642055511, 0.026529112830758095, -0.19535179436206818, -0.016336731612682343, 0.1070433035492897, -0.09242327511310577, -0.036671657115221024, 0.04678419232368469, 0.07336129993200302, 0.23578427731990814, 0.13616247475147247, -0.13319514691829681, -0.13789929449558258, -0.10751532018184662, 0.14537912607192993, 0.09792715311050415, -0.013645957224071026, 0.1382933408021927, 0.04200028255581856, 0.15758833289146423, 0.2083485871553421, 0.1633613556623459, -0.0433303527534008, 0.20311535894870758, 0.15297634899616241, 0.0284514669328928, 0.07752468436956406, -0.11568378657102585, -0.061501797288656235, -0.013343446888029575, 0.2289332002401352, -0.10282397270202637, 0.06048775464296341, 0.10718453675508499, -0.13163593411445618, 0.14035116136074066, -0.09726916998624802, -0.03607383370399475, 0.029941782355308533, 0.0039093648083508015, -0.025870395824313164, -0.010885417461395264, -0.04645558446645737, -0.0689985528588295, 0.15724319219589233, -0.1757332682609558, -0.0997963473200798, -0.1066872775554657, -0.12346619367599487, -0.017461322247982025, -0.07178013771772385, -0.07354233413934708, -0.22120562195777893, 0.016817865893244743, 0.021971087902784348, 0.2528650164604187, 0.031115543097257614, -0.01558751706033945, 0.1450091153383255, 0.00631814356893301, 0.14336314797401428, -0.04354523494839668, 0.2114434391260147, -0.11285523325204849, -0.17368395626544952, -0.1326511800289154, -0.21038439869880676, -0.0801350399851799, 0.056042417883872986, -0.10064413398504257, 0.029502185061573982, 0.1841268539428711, -0.012438367120921612, -0.13875940442085266, -0.10216988623142242, 0.2421700656414032, -0.16039246320724487, 0.09574545174837112, 0.07038645446300507, 0.00561889773234725, 0.19979341328144073, 0.14986267685890198, -0.07522999495267868, -0.08272916078567505, -0.051976099610328674, -0.11562894284725189, 0.15512578189373016, 0.09964388608932495, -0.18833978474140167, -0.05577857419848442, -0.07511962950229645, 0.1628570556640625, 0.20622989535331726, -0.03369177505373955, -0.16361191868782043, 0.0836159810423851, 0.019649364054203033, -0.11961263418197632, 0.11748677492141724, -0.1162714958190918, 0.0007605799473822117, -0.1666269600391388, -0.1251465380191803, -0.03284487500786781, 0.019597366452217102, 0.21246521174907684, 0.055749066174030304, 0.1375044286251068, -0.02768499031662941, 0.008603802882134914, -0.09325344860553741, 0.11918220669031143, -0.0885215699672699, -0.004056632053107023, -0.10289523005485535, 0.15975044667720795, -0.12574167549610138, 0.1850133240222931, 0.001724111381918192, 0.14101167023181915, 0.0744662880897522, -0.14862270653247833, -0.03475202992558479, 0.11807145178318024, -0.09957453608512878, 0.020254136994481087, -0.12624499201774597, 0.16422748565673828, 0.014891867525875568, -0.09218994528055191, -0.0640021562576294, -0.11362720280885696, 0.0907185971736908, 0.16624553501605988, -0.018383627757430077, 0.10051735490560532, -0.041845355182886124, 0.06757521629333496, -0.04683554917573929, 0.029229817911982536, -0.08147673308849335, -0.020880626514554024, 0.07041415572166443, -0.03331296890974045, 0.07456021755933762, -0.18875539302825928, -0.11862310022115707, 0.13109634816646576, -0.17351041734218597, 0.0478355698287487, 0.013276421464979649, 0.15477845072746277, -0.056025195866823196, -0.03739185631275177, 0.17610082030296326, -0.0507512204349041, -0.0795423686504364, -0.20616033673286438, -0.11524102836847305, 0.1567630022764206, -0.020248424261808395, -0.050240471959114075, -0.022800862789154053, -0.06334578990936279, -0.07502050697803497, 0.13020861148834229, 0.01406650710850954, -0.016638582572340965, 0.010089497081935406, 0.058746904134750366, -0.13991227746009827, 0.20438870787620544, 0.01082516647875309, 0.013652089051902294, 0.051358599215745926, 0.08981876820325851, -0.17923420667648315, 0.048345815390348434, 0.09190163016319275, 0.00010172290058108047, 0.0749143660068512, -0.08237569779157639, 0.03263847157359123, 0.17361728847026825, -0.17706356942653656, 0.03265177458524704, 0.14521846175193787, -0.04724998399615288, 0.06010940298438072, -0.027137359604239464, 0.1798710972070694, -0.019530152902007103, -0.10173406451940536, -0.07595432549715042, 0.01570654660463333, -0.08137910068035126, 0.05675838142633438, 0.05701225996017456, 0.0389770083129406, -0.0747862383723259, 0.12006314843893051, 0.04588044434785843, -0.007839610800147057, 0.00545554980635643, -0.09429579973220825, 0.07381080836057663, 0.10936445742845535, -0.09855435788631439, -0.08320925384759903, -0.10119014978408813, -0.026201093569397926, 0.05337171256542206, 0.10248962789773941, 0.17374002933502197, 0.17370164394378662, 0.08870412409305573, 0.08974190056324005, -0.023078158497810364, -0.19949519634246826, 0.1461770385503769, -0.007096111308783293, -0.04661104455590248, -0.08810895681381226, 0.07525110244750977, 0.07718607783317566]}, "model_weights__encoder_bilstm__encoder_bilstm__backward_bilstm__lstm_cell__recurrent_kernel:0": {"shape": [48, 192], "data": [-0.04075763374567032, -0.024157540872693062, 0.03185145556926727, 0.0006704675615765154, -0.010950624011456966, 0.03034774214029312, -0.11302639544010162, -0.03538065031170845, 0.015903951600193977, -0.028603458777070045, -0.10940108448266983, 0.05017513781785965, -0.031412314623594284, -0.07797803729772568, 0.01014999020844698, -0.04943138733506203, 0.022633016109466553, 0.0668661817908287, 0.08098046481609344, 0.022354671731591225, -0.13694339990615845, 0.02180940844118595, -0.09779899567365646, -0.06759742647409439, -0.14598943293094635, 0.054275546222925186, 0.0033286733087152243, 0.11123495548963547, 0.00447152741253376, -0.002924411091953516, -0.07547639310359955, -0.013025655411183834, -0.0007941546500660479, 0.013113167136907578, 0.006763908546417952, -0.023253045976161957, 0.11472722887992859, -0.028398582711815834, -0.06161351874470711, 0.11959291249513626, 0.04996736720204353, -0.020016353577375412, 0.03152560815215111, 0.03106151707470417, -0.0416112095117569, -0.018056508153676987, -0.04811133071780205, -0.028528304770588875, -0.042661480605602264, -0.03541262820363045, 0.0233677439391613, -0.2434259057044983, -0.16111457347869873, -0.011399822309613228, -0.015837157145142555, -0.05614558234810829, -0.04957692325115204, -0.07461909204721451, -0.08532068878412247, 0.1133250743150711, -0.09769979864358902, -0.10759928822517395, 0.0683499127626419, -0.07575616240501404, -0.08326970040798187, -0.052224766463041306, -0.01900375448167324, 0.1767898052930832, -0.020578965544700623, -0.10158935934305191, -0.06483829766511917, -0.1472052037715912, 0.02231946587562561, 0.18524545431137085, 0.05652499943971634, 0.010607121512293816, -0.09829561412334442, 0.03900441899895668, -0.1340085119009018, -0.05791239067912102, -0.018367908895015717, -0.024659326300024986, 0.22042216360569, -0.012569774873554707, 0.09142348170280457, -0.020820243284106255, 0.0016900559421628714, -0.09135900437831879, 0.0012245647376403213, -0.06834233552217484, 0.024240883067250252, 0.17353960871696472, -0.009160010144114494, -0.10977193713188171, -0.12003204971551895, -0.09905602782964706, -0.05556077882647514, 0.04996694624423981, 0.22754386067390442, 0.02780281752347946, 0.07077376544475555, -0.002829670673236251, -0.08600500971078873, -0.048429038375616074, 0.00791816134005785, -0.03831566497683525, 0.044237930327653885, 0.11279416084289551, -0.03585754334926605, 0.03671913594007492, 0.013384734280407429, -0.035615839064121246, 0.06269142031669617, 0.13164867460727692, 0.04614165052771568, -0.07228834182024002, 0.027674013748764992, 0.14663605391979218, -0.02811259776353836, -0.12706775963306427, -0.124466173350811, -0.036665093153715134, -0.1346597671508789, -0.0673498809337616, 0.13177672028541565, -0.07923242449760437, 0.018411284312605858, -0.15787896513938904, -0.04737469181418419, 0.10431624948978424, 0.11388054490089417, 0.10581060498952866, 0.1949809193611145, 0.08426143229007721, 0.018181011080741882, -0.024214236065745354, 0.04676804691553116, -0.06620582938194275, -0.1305386871099472, -0.09527038037776947, -0.00678865285590291, -0.048700835555791855, 0.02823672816157341, 0.08517039567232132, -0.08069580048322678, 0.15099875628948212, -0.006201699376106262, 0.010721767321228981, -0.03198545053601265, -0.18715904653072357, 0.04993395507335663, 0.08976931869983673, 0.02351536974310875, 0.08207544684410095, -0.015459803864359856, 0.07242440432310104, -0.005205721594393253, 0.06834440678358078, 0.20750999450683594, -0.07224689424037933, 0.0007897606119513512, -0.03377532213926315, 0.05834237113595009, 0.07282034307718277, -0.038977209478616714, 0.005220737308263779, 0.1746249794960022, -0.09176246076822281, -0.001965171191841364, 0.12437138706445694, -0.1311250627040863, -0.0087294215336442, -0.01388397067785263, -0.090069979429245, 0.04757443442940712, 0.10621567070484161, 0.13019894063472748, -0.07298967987298965, 0.11502675712108612, -0.09233667701482773, 0.09893006831407547, -0.13680434226989746, -0.11484968662261963, 0.0294746495783329, -0.09577611088752747, 0.10759543627500534, 0.05301650986075401, 0.05603110045194626, 0.018690219148993492, -0.04288730397820473, -0.0394948348402977, 0.12568296492099762, -0.1542932093143463, -0.15915550291538239, 0.2480865716934204, -0.2782514989376068, -0.14544212818145752, 0.14673404395580292, -0.25191009044647217, -0.029505880549550056, 0.004223160445690155, -0.05655867978930473, -0.10139338672161102, 0.31146764755249023, -0.08837499469518661, -0.09928212314844131, -0.0662369504570961, 0.013101090677082539, 0.1036381796002388, -0.0755574181675911, 0.03051520697772503, 0.16274073719978333, 0.10485468059778214, -0.0634361207485199, 0.11647946387529373, 0.13369283080101013, -0.09071870893239975, 0.15191951394081116, 0.09971221536397934, -0.01864674873650074, -0.18286535143852234, 0.07365377992391586, -0.00951871182769537, -0.012412323616445065, 0.1681235283613205, 0.17931461334228516, 0.09768933057785034, -0.12998026609420776, 0.020732713863253593, -0.1409541368484497, -0.2426215410232544, 0.1277708262205124, -0.14116497337818146, 0.1275898665189743, -0.20423132181167603, -0.14023634791374207, -0.12592865526676178, 0.0893033817410469, -0.03025856986641884, 0.08427964895963669, -0.1991349756717682, -0.0010839663445949554, 0.1960621029138565, -0.0736645758152008, -0.044829729944467545, 0.21311883628368378, 0.0713854655623436, 0.06852823495864868, -0.00031645086710341275, -0.11716373264789581, -0.14762376248836517, 0.13899299502372742, -0.05383636802434921, -0.055101845413446426, -0.08014663308858871, -0.07024908065795898, -0.02934928983449936, -0.0693856030702591, 0.05668805167078972, 0.10009980201721191, -0.01793542318046093, 0.05757938697934151, -0.0869688093662262, 0.054382048547267914, -0.24305123090744019, -0.0567634180188179, 0.028084272518754005, -0.06355338543653488, -0.2206922024488449, 0.08764655143022537, -0.11374785006046295, -0.18265891075134277, 0.10336901247501373, 0.09184404462575912, 0.08725199848413467, -0.19389145076274872, 0.09986910969018936, 0.077214315533638, -0.20773373544216156, 0.02528197504580021, -0.14082443714141846, 0.04679719731211662, -0.006564015056937933, 0.07261420041322708, -0.012199456803500652, -0.19835378229618073, 0.1605241298675537, 0.07088948041200638, -0.20732837915420532, 0.018453238531947136, 0.25686973333358765, 0.08318288624286652, -0.30116382241249084, -0.23911261558532715, -0.12261367589235306, 0.1397583782672882, -0.03205619379878044, 0.11884331703186035, 0.11324993520975113, 0.0255352221429348, -0.09013118594884872, -0.0951344445347786, 0.0026845543179661036, 0.010666941292583942, 0.11320608109235764, 0.00023276667343452573, -0.17048786580562592, 0.03585067018866539, 0.05592318996787071, -0.1423560529947281, -0.11010724306106567, -0.11804512143135071, -0.0608704574406147, -0.1507633477449417, -0.18163159489631653, 0.12733416259288788, 0.04587617889046669, 0.09915802627801895, -0.09708588570356369, 0.21861636638641357, 0.11221976578235626, 0.005079858470708132, -0.16359993815422058, 0.03687246888875961, 0.024663753807544708, -0.08868216723203659, -0.1491115540266037, 0.05759180337190628, 0.23464779555797577, -0.08915124833583832, -0.02446049451828003, 0.0009262423263862729, -0.23589903116226196, 0.07233238220214844, 0.06648988276720047, 0.0067790960893034935, -0.1754971444606781, -0.004897490609437227, 0.1320265382528305, -0.11006085574626923, -0.07839557528495789, -0.019279737025499344, -0.11753671616315842, 0.07363724708557129, -0.047168388962745667, -0.06420379132032394, -0.15269924700260162, 0.03320809453725815, -0.016564873978495598, -0.027855822816491127, -0.012406366877257824, -0.09808089584112167, -0.05082341283559799, -0.0032115918584167957, 0.014884606935083866, 0.14255128800868988, -0.0260955598205328, -0.014965937472879887, -0.04416734352707863, 0.2244640290737152, -0.22362427413463593, 0.09978017210960388, 0.1595018357038498, 0.003249210538342595, -0.07332407683134079, 0.10298416763544083, -0.11419361084699631, -0.1477862298488617, 0.2550414204597473, 0.284806489944458, 0.27804815769195557, -0.13093715906143188, 0.22395899891853333, -0.14302878081798553, -0.19995829463005066, 0.08881467580795288, -0.20795764029026031, 0.2443365901708603, 0.16753126680850983, -0.03218245878815651, -0.031024985015392303, 0.015660515055060387, 0.0608723945915699, 0.022018862888216972, -0.11832725256681442, 0.037501268088817596, 0.11199715733528137, 0.04357359930872917, -0.007295904215425253, 0.0892404094338417, 0.07790586352348328, -0.07774506509304047, -0.05676525831222534, -0.031302835792303085, 0.07711616903543472, 0.23439012467861176, 0.03980919346213341, -0.012211506254971027, 0.014873445965349674, -0.06085551157593727, -0.11345808207988739, 0.0008455953211523592, 0.03965311124920845, 0.047500573098659515, -0.06673941016197205, 0.115742988884449, 0.07214976102113724, -0.07261624187231064, 0.028551118448376656, 0.0939147025346756, 0.030275095254182816, -0.022596778348088264, -0.03667314723134041, -0.04546895995736122, -0.06164810061454773, -0.01767079345881939, 0.1882309913635254, 0.005233040079474449, -0.0926867201924324, 0.036576125770807266, 0.034720756113529205, -0.024667054414749146, -0.13360324501991272, -0.0037348552141338587, -0.06409993767738342, -0.14068184792995453, 0.10383858531713486, 0.05014369636774063, -0.03812232241034508, -0.03372936323285103, 0.06921546906232834, 0.0582110732793808, -0.015185273252427578, 0.07133860886096954, 0.0040936642326414585, -0.0930057018995285, 0.03796771168708801, -0.012861824594438076, 0.19244354963302612, -0.05270276963710785, -0.11881178617477417, -0.09001955389976501, 0.08573479950428009, 0.20241887867450714, -0.13358443975448608, -0.10369547456502914, -0.11165064573287964, -0.0019396787974983454, -0.03963419049978256, -0.06986969709396362, 0.16676490008831024, 0.013103991746902466, -0.05301160737872124, -0.1805257499217987, 0.044452399015426636, -0.06158297508955002, 0.08377543836832047, -0.02483280748128891, -0.049357179552316666, -0.06052577495574951, 0.06693889200687408, 0.08441317826509476, 0.016957050189375877, -0.007747769355773926, 0.17300081253051758, 0.035161759704351425, -0.07785812765359879, -0.08475577086210251, -0.13600149750709534, 0.025233851745724678, -0.006985024083405733, 0.04644940048456192, -0.06412912160158157, -0.05045374855399132, -0.020193014293909073, 0.03704093024134636, 0.008269121870398521, -0.1110716462135315, -0.03322988376021385, 0.09886172413825989, -0.12508541345596313, -0.09445492178201675, -0.012595532462000847, -0.004677182529121637, 0.06526804715394974, 0.06982850283384323, 0.1054999828338623, -0.009896410629153252, -0.00408609863370657, 0.021334929391741753, 0.04924200102686882, 0.04687606915831566, -0.03404109925031662, -0.07599591463804245, -0.06183133274316788, -0.005357269197702408, 0.056766849011182785, -0.20272709429264069, 0.007202094420790672, 0.09578684717416763, -0.03070552460849285, 0.12941603362560272, -0.021711014211177826, 0.010370669886469841, 0.003965414594858885, -0.07142238318920135, -0.09405220299959183, -0.11854075640439987, -0.09404870867729187, 0.08261952549219131, 0.005152079276740551, -0.11283139139413834, 0.024992402642965317, -0.14680372178554535, -0.06949197500944138, -0.04192155599594116, 0.0021591519471257925, 0.136940136551857, -0.02450503222644329, 0.035160474479198456, -0.13439470529556274, -0.05934474244713783, -0.11097930371761322, 0.06740505993366241, -0.035279180854558945, 0.06843745708465576, 0.01915115676820278, 0.09420515596866608, -0.10841090977191925, 0.049432579427957535, 0.170127734541893, 0.028194688260555267, -0.04975385218858719, -0.02359090931713581, -0.04944803565740585, 0.10953640937805176, -0.08275014907121658, 0.03783513978123665, 0.053239379078149796, 0.05886321887373924, -0.053278010338544846, 0.07295235246419907, -0.036169685423374176, 0.00987724494189024, -0.0808243453502655, 0.08406394720077515, 0.07901185750961304, 0.001828764914534986, 0.07724852114915848, -0.009440621361136436, 0.10073983669281006, 0.14407455921173096, -0.037511274218559265, 0.04290661960840225, 0.02254791185259819, -0.1132701188325882, -0.07310982793569565, 0.09974473714828491, 0.01507833506911993, -0.10618097335100174, 0.02141530252993107, -0.04105842486023903, 0.06367217004299164, 0.02083602175116539, -0.037172988057136536, -0.03030293993651867, -0.13318833708763123, -0.10347455739974976, 0.13801519572734833, 0.10816721618175507, 0.16826260089874268, -0.045807208865880966, 0.004198790993541479, -0.05373331159353256, 0.1333121508359909, 0.028960013762116432, -0.18783625960350037, -0.09728807955980301, 0.08041232079267502, 0.02895325794816017, -0.005678633693605661, -0.01125412154942751, -0.03979149088263512, 0.0008021945832297206, -0.100821353495121, 0.14171817898750305, 0.17457622289657593, -0.13810372352600098, 0.02558078058063984, 0.08097762614488602, 0.007006877101957798, 0.07583345472812653, 0.018293224275112152, -0.03247790038585663, -0.1558915078639984, -0.020888037979602814, -0.13672588765621185, -0.16606684029102325, 0.007271478418260813, 0.04461243376135826, 0.007123891264200211, -0.040951069444417953, -0.058832403272390366, -0.1427983194589615, 0.0806206539273262, 0.22408591210842133, 0.0027016534004360437, 0.08039701730012894, 0.048715438693761826, 0.130793035030365, -0.0370192751288414, 0.08836030960083008, -0.04984353855252266, -0.07327624410390854, -0.13924190402030945, -0.0212701428681612, 0.08488359302282333, 0.05769185349345207, -0.04044906795024872, -0.01609160378575325, -0.03406684100627899, -0.05200285464525223, -0.03552166745066643, -0.12718632817268372, -0.06723471730947495, 0.06579359620809555, 0.0083902133628726, -0.08122854679822922, -0.09958957135677338, -0.044821735471487045, 0.018752554431557655, 0.0023312666453421116, -0.21030686795711517, 0.10676112025976181, -0.09796639531850815, 0.0051248264499008656, -0.05907999724149704, 0.07349297404289246, -0.05332118645310402, -0.07955784350633621, -0.007320316042751074, 0.03506919741630554, -0.05449441820383072, -0.061930250376462936, 0.10449018329381943, 0.0032225095201283693, 0.02101201005280018, -0.01728968136012554, 0.14199629426002502, -0.02142287977039814, 0.04633556306362152, -0.023232189938426018, -0.09693335741758347, 0.08506638556718826, 0.01628020778298378, 0.053443774580955505, -0.03005305863916874, 0.08860549330711365, 0.014352379366755486, 0.14381520450115204, -0.14792795479297638, -0.09015198051929474, -0.06708208471536636, -0.01585228741168976, 0.04954155534505844, -0.09888357669115067, 0.06356737017631531, 0.01547230500727892, 0.011320671066641808, -0.08031187951564789, 0.011874747462570667, 0.1446237564086914, -0.10389962792396545, -0.03899897262454033, -0.06385259330272675, 0.03456901013851166, 0.005708525888621807, -0.07088175415992737, 0.09335540235042572, -0.04614107310771942, 0.1033158153295517, 0.1302633285522461, 0.0008706786902621388, 0.04122323915362358, -0.029015719890594482, 0.10590745508670807, 0.003570589702576399, -0.005784463137388229, 0.02574864961206913, 0.030311666429042816, 0.09130008518695831, 0.04012972116470337, -0.04405616223812103, -0.09527957439422607, -0.16401407122612, 0.04087108001112938, -0.04928664490580559, -0.08451474457979202, 0.07380656898021698, 0.06442637741565704, -0.006133055314421654, 0.13669124245643616, -0.07420086115598679, 0.1317182034254074, 0.031142864376306534, 0.06124945357441902, -0.04078325629234314, 0.018814129754900932, 0.09137684851884842, -0.03466586396098137, 0.038659997284412384, -0.031622350215911865, 0.04288424178957939, 0.09773174673318863, -0.05834677815437317, 0.005760067608207464, -0.1003323644399643, -0.04308098182082176, -0.18584226071834564, -0.09650786966085434, -0.11284297704696655, -0.03031734563410282, 0.03883053734898567, -0.032261136919260025, 0.03759517893195152, 0.0927739217877388, 0.023156043142080307, 0.1773865967988968, 0.024596108123660088, 0.12258360534906387, 0.013177967630326748, -0.0042914352379739285, -0.1486811637878418, 0.019581161439418793, -0.11659206449985504, 0.03829928860068321, -0.07937914878129959, 0.1555515080690384, -0.08918145298957825, 0.01537703163921833, -0.13855727016925812, 0.11843758821487427, -0.10320987552404404, 0.18951165676116943, 0.0885249450802803, -0.02426287531852722, 0.10032418370246887, -0.12929649651050568, -0.018937328830361366, -0.10463855415582657, -0.002018189523369074, 0.02676352486014366, -0.06721886992454529, -0.02858252450823784, 0.07503439486026764, -0.0021112142130732536, -0.0630468875169754, 0.09921371936798096, 0.022271621972322464, -0.05080593004822731, -0.009681676514446735, -0.15009789168834686, 0.028670450672507286, -0.018890025094151497, -0.08192061632871628, 0.035184502601623535, 0.12445410341024399, -0.09314066171646118, 0.20078018307685852, 0.03771273046731949, -0.15296883881092072, 0.28861427307128906, 0.09654637426137924, -0.03692835941910744, -0.021163560450077057, 0.04479668289422989, 0.09792713075876236, 0.04804377257823944, -0.04274880513548851, 0.06064857542514801, 0.07188486307859421, 0.09722092002630234, 0.021133821457624435, 0.0978480875492096, 0.03740844503045082, 0.11109468340873718, -0.005478720646351576, -0.03801458328962326, -0.026142265647649765, 0.017897535115480423, -0.06915368139743805, -0.06148182600736618, -0.005551393609493971, 0.020095838233828545, -0.04864202067255974, 0.040066078305244446, 0.13097253441810608, -0.03460894897580147, 0.13390101492404938, 0.10767286270856857, -0.0033890786580741405, -0.07010221481323242, 0.10600171983242035, -0.03521988168358803, -0.18109846115112305, -0.026373764500021935, 0.10149156302213669, -0.043202463537454605, -0.12167488038539886, -0.036916136741638184, -0.09715929627418518, 0.030893169343471527, 0.0950709879398346, 0.03265608474612236, 0.030239950865507126, -0.026726676151156425, 0.010317103005945683, 0.015372345224022865, -0.13612514734268188, -0.023957619443535805, -0.006772667169570923, 0.0054122586734592915, 0.09255827963352203, 0.019665783271193504, 0.012548549100756645, -0.043820589780807495, 0.06951048225164413, 0.09834983944892883, -0.04470975697040558, -0.003756676334887743, 0.1594833880662918, -0.005154226440936327, 0.081610307097435, 0.1867659091949463, 0.05441424623131752, -0.0042295013554394245, -0.10382674634456635, -0.0909532755613327, 0.08983688056468964, -0.20524893701076508, -0.13230720162391663, 0.1595975011587143, -0.09864307194948196, 0.09928105771541595, 0.09879079461097717, -0.1434079110622406, -0.026534277945756912, -0.03713740408420563, -0.14736738801002502, -0.03530501201748848, 0.048593439161777496, -0.004404847044497728, 0.044309958815574646, -0.0299418605864048, 0.10352955013513565, -0.165397047996521, 0.23730355501174927, -0.034717582166194916, -0.06688930094242096, -0.06238023564219475, 0.03713137283921242, 0.015298406593501568, -0.03764539957046509, -0.11882724612951279, 0.026121141389012337, 0.017614921554923058, -0.19252464175224304, -0.06290682405233383, 0.09125026315450668, -0.028587179258465767, 0.09540609270334244, 0.16905725002288818, 0.08392296731472015, 0.021962665021419525, 0.06672319024801254, -0.1144382432103157, -0.008564027026295662, 0.08467001467943192, -0.041605498641729355, 0.02043941803276539, -0.0009806223679333925, 0.11031805723905563, -0.03372730687260628, -0.04934991896152496, 0.04202254116535187, 0.15367889404296875, -0.020063022151589394, 0.10464680194854736, -0.1474580615758896, -0.005242770072072744, 0.13642562925815582, -0.050433605909347534, 0.09756927192211151, 0.019056160002946854, -0.13271965086460114, 0.033263709396123886, -0.07476873695850372, 0.05325520411133766, -0.16680853068828583, -0.09473724663257599, -0.06500222533941269, 0.16567713022232056, -0.08157378435134888, -0.02280239574611187, 0.09325519949197769, -0.022344397380948067, -0.06098157912492752, -0.025845343247056007, 0.0734105035662651, -0.08278457075357437, -0.019410427659749985, 0.04021989554166794, 0.11294607073068619, 0.029585715383291245, -0.14411072432994843, -0.03493793308734894, -0.1329386979341507, -0.051176317036151886, -0.18337608873844147, -0.013101315125823021, -0.06543827056884766, -0.04035335034132004, -0.0037766899913549423, -0.007547847460955381, -0.1455150842666626, -0.05371088907122612, 0.11413813382387161, 0.005282086320221424, 0.16685178875923157, 0.05151819810271263, 0.11944002658128738, -0.08468343317508698, -0.1084822490811348, -0.004970398265868425, 0.032733600586652756, -0.018573220819234848, -0.11044400930404663, 0.06746033579111099, -0.09779340028762817, -0.1243596076965332, 0.023129401728510857, 0.002230873564258218, 0.07593853771686554, 0.2010718584060669, -0.11637532711029053, -0.14563098549842834, 0.16795164346694946, -0.08674193173646927, -0.07061538100242615, -0.015735773369669914, 0.027273358777165413, 0.012488257139921188, 0.09930913895368576, -0.0059472438879311085, -0.04523122310638428, 0.03257787972688675, 0.008297208696603775, -0.013532537035644054, 0.02973182499408722, 0.09666036814451218, -0.039084237068891525, 0.014980949461460114, 0.07756707817316055, 0.07162393629550934, -0.036324284970760345, -0.007329817395657301, -0.143675297498703, 0.1408299207687378, -0.027237938717007637, 0.08208951354026794, 0.1267213374376297, -0.013423400931060314, 0.07333961129188538, -0.12738223373889923, -0.022033175453543663, 0.015761718153953552, -0.12984316051006317, -0.06248275935649872, -0.08203019946813583, 0.09594080597162247, 0.0006996975280344486, -0.050005439668893814, -0.03817781060934067, -0.04179833084344864, -0.03489137440919876, 0.02112439088523388, -0.023495597764849663, -0.08295944333076477, -0.3362414538860321, 0.06213275343179703, 0.07138743996620178, 0.0347212590277195, -0.11066479235887527, 0.24871879816055298, -0.0456356443464756, -0.01555971521884203, -0.09241998940706253, -0.04047142714262009, -0.060458578169345856, -0.0002576458500698209, 0.1123095452785492, 0.1294095367193222, -0.05883326008915901, -0.017381612211465836, 0.12165600061416626, 0.10107903182506561, -0.09221359342336655, 0.13931389153003693, 0.12377700209617615, -0.02473965846002102, 0.018021536991000175, 0.1717928946018219, 0.10001739114522934, -0.06188523769378662, 0.016541356220841408, -0.11187400668859482, 0.027963580563664436, 0.18548886477947235, 0.05491025745868683, -0.07678010314702988, -0.16367602348327637, 0.1957666277885437, 0.0471646711230278, -0.03654004633426666, 0.07537269592285156, 0.05157874524593353, -0.02133127488195896, -0.012776447460055351, 0.021023908630013466, -0.04342690110206604, -0.04195050150156021, 0.015791073441505432, 0.1301952451467514, 0.0902208685874939, 0.029773686081171036, -0.06714359670877457, -0.03138739988207817, 0.024358149617910385, 0.06273478269577026, 0.10601923614740372, 0.00645837839692831, -0.07065487653017044, -0.09671242535114288, -0.02459307573735714, -0.0572945736348629, -0.05122930929064751, 0.14376957714557648, -0.12297821044921875, -0.009132685139775276, 0.003888495033606887, 0.06047984957695007, 0.07180725783109665, -0.09818965196609497, 0.07135504484176636, -0.18444903194904327, 0.029967699199914932, -0.0012964067282155156, 0.17712488770484924, -0.029425937682390213, -0.073597751557827, -0.3246136009693146, -0.002101548481732607, -0.012160717509686947, -0.03891387954354286, 0.11611884832382202, -0.010588286444544792, 0.09735870361328125, 0.03721548989415169, 0.05869133025407791, 0.03480999544262886, -0.06253109127283096, -0.05231929197907448, 0.009101091884076595, 0.005961467046290636, -0.028592929244041443, -0.03441924229264259, 0.004368515685200691, 0.04894431680440903, -0.08947698026895523, 0.10327237844467163, 0.03969665244221687, -0.014706200920045376, -0.0191244687885046, -0.04373621940612793, 0.12908285856246948, -0.026716196909546852, 0.15080353617668152, 0.026253841817378998, -0.01660163141787052, -0.011547240428626537, 0.01831398531794548, -0.030485276132822037, -0.11067264527082443, -0.04606297239661217, 0.14688262343406677, 0.00441485783085227, -0.19285176694393158, 0.06188741698861122, 0.05777136981487274, 0.08382396399974823, 0.05578053370118141, 0.03823808208107948, 0.02816249057650566, -0.12773990631103516, 0.27978751063346863, -0.181780606508255, -0.09785673767328262, 0.1172676756978035, -0.06969506293535233, 0.06912694871425629, 0.08753469586372375, -0.06640642136335373, 0.15836304426193237, -0.03749324008822441, 0.0006627480033785105, 0.009329835884273052, 0.0042277188040316105, 0.025363318622112274, 0.12330114841461182, -0.012156526558101177, 0.04982949420809746, -0.13666485249996185, -0.248920276761055, -0.0795428454875946, 0.014331371523439884, 0.0016989500727504492, -0.05146433785557747, 0.022686200216412544, -0.02512183040380478, -0.03744421526789665, 0.027641115710139275, -0.0675143152475357, -0.05971528962254524, -0.03686666488647461, 0.15327076613903046, -0.13339930772781372, 0.05742316693067551, 0.05558036267757416, -0.1253221035003662, 0.06921601295471191, -0.0811837911605835, 0.08387020230293274, 0.026382653042674065, -0.011069160886108875, -0.03284403309226036, -0.011431792750954628, -0.008228410966694355, 0.07809440791606903, 0.09920214116573334, -0.01606414094567299, 0.058948587626218796, 0.011851795017719269, 0.18859489262104034, -0.019803155213594437, -0.006595696322619915, 0.025857990607619286, 0.05696830153465271, -0.09857914596796036, 0.16468340158462524, -0.13494162261486053, 0.09936384111642838, 0.030155077576637268, 0.07357950508594513, 0.0005555457901209593, 0.17726990580558777, -0.022469138726592064, 0.03834829851984978, 0.029031243175268173, 0.20728589594364166, 0.05353070795536041, 0.1833590269088745, -0.17557717859745026, -0.04138416051864624, 0.10940730571746826, -0.10530006885528564, -0.10393107682466507, 0.1747586727142334, -0.01805088482797146, -0.16760234534740448, -0.05143501237034798, 0.06665664911270142, -0.10407600551843643, 0.15640351176261902, 0.007468963507562876, -0.04714148864150047, -0.1398424208164215, 0.11295530945062637, 0.09053406864404678, 0.03206471726298332, 0.08372817188501358, 0.15182462334632874, 0.0008363521774299443, 0.04791084676980972, -0.20023006200790405, 0.17134292423725128, -0.06822648644447327, 0.1207679957151413, -0.03390737250447273, 0.019674036651849747, 0.07607951015233994, -0.08299971371889114, -0.05699366703629494, -0.1508794128894806, -0.0541284903883934, 0.012930321507155895, 0.007686917670071125, -0.02024272456765175, -0.100656658411026, 0.2589603364467621, 0.19999490678310394, 0.06514277309179306, 0.04808363690972328, 0.14524242281913757, 0.032466016709804535, 0.008436605334281921, 0.01072253379970789, -0.04299981892108917, 0.010425821878015995, 0.14079949259757996, 0.0575515441596508, -0.023518668487668037, 0.06763419508934021, -0.044599831104278564, -0.005958160851150751, 0.05059942603111267, -0.004416026175022125, 0.015083406120538712, -0.02458510547876358, 0.1535312533378601, 0.008300741203129292, 0.13805246353149414, -0.03470644727349281, 0.16095758974552155, -0.07102985680103302, -0.04742055386304855, 0.08668158948421478, 0.021742727607488632, 0.03257925808429718, 0.053745076060295105, 0.07984456419944763, 0.24336163699626923, -0.09213650226593018, 0.07741687446832657, -0.11809681355953217, 0.04849832132458687, -0.1086660623550415, 0.0843687504529953, -0.018521970137953758, -0.08146439492702484, -0.022812532261013985, -0.06914222985506058, -0.012884197756648064, 0.1308717131614685, 0.09945578873157501, 0.16616445779800415, -0.14336830377578735, 0.08128372579813004, 0.10882126539945602, -0.08647781610488892, -0.053815972059965134, 0.0668533444404602, 0.0463784784078598, 0.15294334292411804, -0.006814461667090654, -0.06350238621234894, -0.07063591480255127, 0.20173943042755127, 0.06017841771245003, 0.017493678256869316, 0.09411986172199249, 0.06736621260643005, -0.005413988139480352, -0.06190774589776993, -0.014633881859481335, 0.16193337738513947, 0.04728065803647041, -0.06941405683755875, -0.055354803800582886, 0.12632040679454803, -0.021563904359936714, 0.09491946548223495, -0.05926484242081642, 0.013716457411646843, 0.11855507642030716, -0.07756168395280838, -0.053131621330976486, 0.1921285092830658, 0.029025843366980553, -0.09871111065149307, 0.04191068932414055, 0.09511561691761017, -0.2307901233434677, -0.025219697505235672, 0.021921489387750626, 0.033457182347774506, 0.12220828980207443, -0.05820688232779503, 0.09293466061353683, 0.06103019788861275, 0.1270110011100769, -0.011923609301447868, -0.06777871400117874, -0.029475899413228035, -0.018510619178414345, 0.01928144507110119, 0.12671808898448944, 0.08305403590202332, -0.11187776178121567, 0.013312269933521748, -0.010412522591650486, -0.04810139164328575, 0.062104731798172, 0.23565833270549774, -0.20506633818149567, -0.018749339506030083, -0.04107349365949631, 0.10083194822072983, -0.07413671910762787, -0.017208952456712723, -0.1668536365032196, 0.12185972929000854, 0.21061033010482788, 0.03858164697885513, -0.045530516654253006, 0.06523913145065308, 0.013134781271219254, 0.08685463666915894, -0.053694143891334534, -0.12870916724205017, -0.23035164177417755, -0.0784931480884552, 0.03229115530848503, 0.11534396559000015, 0.1757960319519043, 0.06413538008928299, 0.09093070030212402, 0.1783764362335205, -0.08535520732402802, 0.10075896978378296, 0.11595446616411209, -0.029192157089710236, 0.09216607362031937, 0.13898451626300812, 0.07947070151567459, -0.021935420110821724, -0.008295394480228424, 0.1215812936425209, -0.003304296638816595, -0.08162452280521393, 0.09311037510633469, -0.05906659737229347, -0.057728614658117294, -0.04211133345961571, -0.09747877717018127, -0.06451599299907684, 0.08300160616636276, 0.003508757334202528, -0.04893335700035095, 0.06879867613315582, -0.08891422301530838, -0.10010762512683868, -0.022731663659214973, 0.0016534707974642515, 0.15968923270702362, -0.024500340223312378, 0.014452740550041199, 0.08150959759950638, 0.10407502949237823, 0.02796328254044056, 0.15813831984996796, 0.08002834022045135, 0.09073221683502197, -0.05104591324925423, 0.12982669472694397, -0.07107435166835785, 0.1660887897014618, 0.13984614610671997, -0.05109822377562523, 0.12277764081954956, -0.237443208694458, 0.04506644979119301, -0.1804824322462082, -0.233265221118927, 0.03481902927160263, -0.14029866456985474, 0.06469668447971344, -0.014318588189780712, -0.10141382366418839, -0.14675438404083252, -0.1403450071811676, 0.06664338707923889, 0.07643913477659225, -0.03404431790113449, -0.07925468683242798, 0.037081655114889145, 0.1317513883113861, -0.13834252953529358, -0.07051954418420792, -0.02491534687578678, 0.01948796771466732, -0.10057413578033447, -0.08720245212316513, -0.008837433531880379, 0.007646104786545038, -0.14457671344280243, 0.02300325594842434, 0.1765846610069275, 0.04080633446574211, -0.026792222633957863, 0.056565795093774796, -0.08902207016944885, 0.15221740305423737, -0.09050227701663971, 0.01424351055175066, 0.05269552394747734, 0.06814897805452347, -0.03088914416730404, 0.017085229977965355, -0.08873125910758972, 0.011942015029489994, -0.002643128391355276, 0.062467340379953384, -0.13069868087768555, -0.08057839423418045, -0.04394304379820824, 0.18311335146427155, 0.18303367495536804, -0.12750683724880219, -0.02298339083790779, -0.08252784609794617, -0.135085329413414, -0.1011672094464302, -0.10848342627286911, 0.31369853019714355, -0.001626563724130392, 0.09037871658802032, 0.03797774016857147, -0.10538338869810104, -0.022374536842107773, 0.06682144850492477, 0.09098099172115326, 0.09457448124885559, 0.06409329921007156, -0.0058811381459236145, -0.052266187965869904, -0.13306449353694916, 0.061466068029403687, -0.08725468814373016, 0.06073819473385811, 0.033658262342214584, -0.003234580159187317, -0.04256380349397659, 0.08050618320703506, -0.10520095378160477, -0.021189117804169655, 0.020208509638905525, 0.06889773905277252, 0.043882790952920914, -0.02931402251124382, 0.16589172184467316, 0.10096482187509537, -0.06102947145700455, -0.02578725479543209, -0.11844029277563095, 0.019918326288461685, -0.131346195936203, -0.012485960498452187, 0.08845538645982742, -0.0015802180860191584, -0.02772742137312889, 0.050752293318510056, -0.04352501034736633, 0.15153580904006958, 0.013369894586503506, -0.07120736688375473, 0.07807709276676178, -0.04282849654555321, 0.028222952038049698, -0.04765120893716812, -0.0737660750746727, 0.08017909526824951, -0.018928997218608856, -0.12278334051370621, -0.01143584493547678, -0.177888423204422, 0.15581069886684418, -0.06415685266256332, -0.055041998624801636, -0.1607767939567566, 0.12334013730287552, 0.06009891256690025, 0.09431800246238708, -0.07083512097597122, -0.055763740092515945, -0.17194105684757233, 0.1217104122042656, -0.18859823048114777, -0.03175882622599602, 0.01161438599228859, 0.15866024792194366, -0.03810812160372734, 0.029506446793675423, 0.05057801306247711, -0.14185307919979095, -0.11869863420724869, 0.11556276679039001, 0.002300270600244403, 0.15630871057510376, -0.049572672694921494, -0.018338792026042938, 0.06673779338598251, 0.09775109589099884, -0.08355715870857239, 0.07904115319252014, -0.10968764126300812, 0.09572307020425797, -0.12253036350011826, 0.17758716642856598, -0.08553376793861389, 0.07573213428258896, 0.12062252312898636, 0.033720407634973526, -0.0005016893264837563, -0.16430112719535828, 0.17707639932632446, -0.08032426983118057, -0.05820266902446747, -0.040967851877212524, -0.16763930022716522, 0.19088052213191986, 0.2703246772289276, 0.13929586112499237, 0.04359066113829613, -0.06425894796848297, 0.013213296420872211, -0.07837428152561188, 0.15672840178012848, -0.12543350458145142, -0.03162630274891853, -0.039948970079422, -0.07008149474859238, -0.13783442974090576, 0.02767285704612732, -0.24255234003067017, -0.08234447985887527, -0.16263985633850098, 0.026662681251764297, 0.02408425323665142, -0.16618087887763977, -0.03906635195016861, 0.0006683340179733932, 0.006809319835156202, -0.18080779910087585, -0.010469394735991955, 0.031704965978860855, -0.0447821244597435, -0.03331613913178444, -0.016125185415148735, -0.037794992327690125, -0.05594420060515404, -0.24813230335712433, 0.12049724161624908, 0.03209558501839638, 0.02318311110138893, -0.013476761989295483, -0.10564562678337097, 0.045010846108198166, -0.06746983528137207, 0.028825821354985237, -0.05230540782213211, 0.041234612464904785, -0.017285974696278572, 0.01537263672798872, -0.005449885502457619, -0.12680372595787048, 0.0856202244758606, -0.08795683085918427, -0.11441420763731003, -0.015881644561886787, -0.11965551972389221, -0.12535099685192108, 0.022892482578754425, 0.0485701709985733, 0.04538793861865997, -0.06980118155479431, 0.10910157859325409, 0.026870109140872955, -0.0227378960698843, 0.08729109913110733, 0.16047953069210052, -0.11695152521133423, 0.07245837152004242, -0.00768274674192071, -0.07112396508455276, -0.03625856339931488, 0.09049122035503387, 0.14053502678871155, 0.04165196418762207, 0.054242584854364395, -0.026909254491329193, -0.1317806839942932, 0.1889624297618866, 0.024156566709280014, 0.13484562933444977, -0.13590534031391144, 0.03149200603365898, 0.05081980302929878, -0.061752934008836746, -0.1329435259103775, -0.06869608163833618, -0.003961469978094101, 0.08552596718072891, -0.10300812870264053, 0.04686082899570465, -0.07074791193008423, -0.03870747610926628, -0.14268094301223755, 0.0450187548995018, -0.1182207241654396, -0.08941441029310226, -0.007375503424555063, 0.04206820949912071, 0.069094717502594, -0.034625839442014694, -0.09319335222244263, -0.016901466995477676, -0.14058057963848114, 0.022889558225870132, 0.0029670523945242167, 0.006011368241161108, -0.0958251878619194, -0.1560034453868866, 0.045984189957380295, -0.014398112893104553, -0.07240186631679535, -0.00963008776307106, 0.04054008796811104, 0.044730015099048615, -0.03132432699203491, -0.027164574712514877, -0.05872679501771927, 0.17336679995059967, 0.04471199959516525, 0.10558878630399704, 0.17920851707458496, -0.13458234071731567, -0.0331098772585392, 0.026702579110860825, 0.09189455211162567, -0.05683452636003494, 0.002452385611832142, 0.11125288903713226, 0.10109348595142365, -0.08464733511209488, -0.01767164282500744, -0.1365981251001358, -0.08589554578065872, 0.05197020247578621, 0.06671350449323654, 0.06370970606803894, 0.10247014462947845, 0.02302243933081627, 0.004067644476890564, -0.20585253834724426, -0.06493309885263443, -0.009325304068624973, -0.10580582171678543, -0.0012296050554141402, 0.04054697975516319, 0.08922598510980606, -0.06396207213401794, -0.01196952722966671, -0.05900706723332405, -0.07980196177959442, -0.09655481576919556, -0.08182621002197266, -0.1488889455795288, -0.08977316319942474, 0.06286747008562088, 0.057831037789583206, -0.01575535535812378, 0.034063585102558136, 0.009050286374986172, -0.061762742698192596, -0.008083565160632133, 0.05700239539146423, 0.0030575264245271683, 0.015566195361316204, 0.12810713052749634, -0.009036257863044739, 0.04205828160047531, 0.09122782945632935, -0.06336188316345215, -0.11446815729141235, 0.06708423048257828, -0.11979982256889343, -0.056157998740673065, 0.17819181084632874, 0.0028470647521317005, -0.05963212624192238, 0.08302590996026993, -0.018625494092702866, -0.015858925879001617, -0.031041499227285385, -0.11920181661844254, 0.0664469450712204, 0.0014632594538852572, 0.013937774114310741, -0.047912973910570145, -0.07851017266511917, -0.10913291573524475, -0.07008273154497147, 0.020268192514777184, 0.03820478171110153, 0.00551678566262126, -0.025097550824284554, 0.04500950500369072, 0.01243386510759592, 0.09514922648668289, 0.02834171988070011, -0.10214980691671371, 0.06642018258571625, -0.14911998808383942, 0.09371323138475418, 0.04070376604795456, 0.08231229335069656, -0.03090771473944187, 0.07296577095985413, 0.043844711035490036, -0.07805754989385605, 0.035539660602808, -0.0506770983338356, 0.218021422624588, 0.11144060641527176, -0.16837415099143982, 0.15379394590854645, 0.08225078880786896, 0.011908834800124168, 0.1033596619963646, -0.011518369428813457, -0.007853427901864052, 0.055700451135635376, 0.005749897100031376, 0.1277567446231842, 0.05206841975450516, -0.03494768589735031, -0.04788007214665413, 0.11745310574769974, -0.041987985372543335, 0.017698731273412704, -0.010378208011388779, -0.0347207710146904, 0.013899235986173153, 0.0036297431215643883, 0.05024189129471779, -0.013062428683042526, -0.004880405031144619, -0.11045031994581223, -0.05274438112974167, 0.0003382382565177977, -0.012314087711274624, 0.046000659465789795, -0.04113023728132248, -0.022790608927607536, -0.02880282886326313, -0.10154987126588821, 0.11960994452238083, 0.026734724640846252, 0.06578797847032547, -0.10692958533763885, -0.1551200896501541, 0.04280928149819374, 0.02629845216870308, -0.09413640946149826, -0.061168160289525986, 0.04619564861059189, 0.04845988750457764, 0.12512469291687012, -0.014649304561316967, 0.11948410421609879, 0.08299531787633896, -0.1318136751651764, -0.08758261799812317, -0.030490178614854813, 0.037194669246673584, 0.09939887374639511, -0.008632371202111244, -0.03164004161953926, -0.12227249890565872, 0.02321760170161724, 0.0953947976231575, 0.031470201909542084, 0.1391860544681549, -0.1180582344532013, -0.1426791250705719, -0.0067636859603226185, 0.08859040588140488, -0.043240971863269806, -0.09203970432281494, 0.07882991433143616, 0.07511106133460999, 0.0937386304140091, 0.08117066323757172, 0.053640589118003845, 0.03378264978528023, -0.022934215143322945, 0.00914057344198227, -0.07019609957933426, -0.08413093537092209, -0.029438616707921028, 0.011912362650036812, 0.09785566478967667, 0.11257683485746384, -0.07187771052122116, 0.2020471692085266, -0.05383038893342018, 0.09174730628728867, -0.027792608365416527, -0.021199099719524384, 0.13706405460834503, 0.13510239124298096, -0.0007450853590853512, 0.05585021898150444, 0.08348845690488815, 0.08180826902389526, 0.04006481543183327, -0.043349575251340866, 0.050803616642951965, -0.012462855316698551, -0.04312619939446449, -0.06757635623216629, -0.057584937661886215, -0.0253258366137743, -0.11269953101873398, 0.09515600651502609, -0.07504671066999435, 0.0051225475035607815, -0.008328880183398724, -0.10025369375944138, 0.07035543769598007, 0.1462995707988739, 0.008316343650221825, -0.011401398107409477, -0.0035594722721725702, -0.04929306358098984, -0.11989479511976242, 0.10260815173387527, -0.09902831166982651, 0.03266745060682297, 0.16291005909442902, 0.04934099316596985, 0.045663636177778244, -0.09877186268568039, 0.021158870309591293, 0.07871900498867035, -0.015516349114477634, 0.014462254010140896, -0.013493891805410385, -0.06946489959955215, -0.10263049602508545, 0.024322519078850746, 0.028970252722501755, -0.05692708119750023, 0.022695036605000496, 0.08650374412536621, 0.059019964188337326, -0.018739081919193268, 0.10913970321416855, 0.022733943536877632, -0.10470957309007645, 0.040958698838949203, -0.05795978009700775, -0.08039718866348267, -0.0551966093480587, 0.05687969550490379, -0.06542514264583588, 0.0013417318696156144, 0.08615517616271973, -0.03512299805879593, -0.02556597627699375, -0.02676812931895256, -0.060336172580718994, 0.0889241099357605, -0.21225431561470032, 0.007298649754375219, 0.0045226882211863995, -0.029830068349838257, 0.06589380651712418, 0.03681907802820206, -0.16497375071048737, -0.1444549560546875, -0.022424517199397087, 0.1322743147611618, 0.1371552050113678, -0.13110046088695526, 0.017871620133519173, 0.00753220496699214, -0.20596516132354736, 0.053994473069906235, -0.03635774925351143, 0.008890085853636265, -0.14227162301540375, 0.10374364256858826, -0.10492660105228424, 0.013252182863652706, -0.13092978298664093, -0.03282712399959564, 0.0527658611536026, -0.09807589650154114, 0.04292134568095207, 0.055417500436306, 0.005858455318957567, 0.035406943410634995, -0.09115114063024521, -0.16354387998580933, 0.08214272558689117, 0.02337721362709999, 0.045609526336193085, -0.1381969153881073, -0.07942390441894531, -0.03421403095126152, 0.17428597807884216, -0.10644690692424774, -0.0643039122223854, -0.0915144607424736, 0.13192695379257202, 0.13618572056293488, 0.09129077941179276, -0.009512999095022678, -0.020313266664743423, 0.2013135552406311, 0.06664339452981949, -0.08676288276910782, -0.019680483266711235, 