{"model_weights__bidirectional__sequential__bidirectional__backward_lstm__lstm_cell__bias": {"shape": [128], "data": [0.0779743641614914, 0.07889723777770996, 0.13538587093353271, -0.0025165376719087362, 0.0731220617890358, 0.022375719621777534, 0.07060196995735168, 0.18977005779743195, 0.09839996695518494, 0.12942644953727722, 0.09258061647415161, 0.220847025513649, 0.33982813358306885, 0.09998266398906708, 0.016199037432670593, 0.3252313435077667, 0.18788832426071167, 0.15127918124198914, 0.15590274333953857, 0.0645592138171196, 0.09060096740722656, 0.056905146688222885, 0.09963319450616837, -0.005093371961265802, 0.08387035876512527, 0.1044258251786232, 0.062435731291770935, 0.08862840384244919, 0.19452516734600067, 0.133334219455719, 0.06871919333934784, 0.09015695750713348, 1.0328446626663208, 1.09823739528656, 1.1072309017181396, 0.974993884563446, 1.004820704460144, 0.9937310814857483, 1.0785188674926758, 1.0595077276229858, 1.0631771087646484, 1.118086338043213, 1.0549088716506958, 1.0780616998672485, 1.057155728340149, 1.0567280054092407, 0.9792249202728271, 1.2371405363082886, 1.0920686721801758, 1.152864933013916, 1.040816307067871, 1.072118878364563, 1.0129016637802124, 1.0470131635665894, 1.0454670190811157, 0.9821880459785461, 1.049529790878296, 1.0443674325942993, 1.0373984575271606, 1.0569543838500977, 1.1167566776275635, 1.0974756479263306, 1.014994740486145, 1.0423929691314697, -0.03128775209188461, 0.04233425110578537, -0.00201227399520576, 0.026052724570035934, -0.006448431871831417, 0.022201387211680412, -0.008647853508591652, 0.0332706943154335, 0.039094313979148865, -0.04158180207014084, 0.03691620007157326, -0.03293616324663162, -0.022786308079957962, 0.03796285390853882, 0.03800312057137489, 0.02690141089260578, 0.011574803851544857, 0.043864063918590546, -0.025180261582136154, -0.013204239308834076, 0.02442648820579052, -0.008700840175151825, -0.03242037072777748, -0.0388973243534565, 0.029558608308434486, -0.01737614907324314, -0.0393453985452652, -0.020799998193979263, -0.012525537051260471, 0.008254623971879482, -0.046012017875909805, 0.01039747055619955, 0.08362936973571777, 0.08647365868091583, 0.11313778162002563, -0.005477290600538254, 0.07937885075807571, 0.009993369691073895, 0.05658389627933502, 0.17547999322414398, 0.09540996700525284, 0.08913500607013702, 0.10040758550167084, 0.20440052449703217, 0.3359518349170685, 0.06626539677381516, 0.02803274616599083, 0.1776471585035324, 0.19516539573669434, 0.13067740201950073, 0.16881950199604034, 0.05657920241355896, 0.08326828479766846, 0.04343254119157791, 0.11335624754428864, -0.004754062741994858, 0.08563624322414398, 0.10406875610351562, 0.05295214429497719, 0.08508876711130142, 0.14508825540542603, 0.11269832402467728, 0.10659778863191605, 0.08122772723436356]}, "model_weights__bidirectional__sequential__bidirectional__backward_lstm__lstm_cell__kernel": {"shape": [7, 128], "data": [0.38877296447753906, 0.1845272183418274, 0.1625898778438568, 0.09345851093530655, -0.24856802821159363, 0.08841870725154877, 0.10047787427902222, 0.15378764271736145, 0.25010648369789124, 0.012152515351772308, -0.04581268131732941, 0.18836134672164917, 0.33791667222976685, 0.2606005072593689, -0.08477864414453506, 0.3038577735424042, 0.006209547631442547, 0.3216785192489624, -0.09997402131557465, 0.08308582007884979, 0.16138452291488647, 0.0024588387459516525, -0.04100159928202629, 0.22857706248760223, 0.06800151616334915, 0.0173135157674551, 0.08827542513608932, -0.19488954544067383, 0.27035191655158997, 0.1217091977596283, -0.0005171584198251367, 0.14889049530029297, 0.04336549714207649, -0.006894570775330067, 0.15947504341602325, -0.08759644627571106, -0.2369740605354309, -0.168026864528656, 0.045260749757289886, 0.10400737822055817, 0.006249828729778528, -0.14434009790420532, 0.09993144124746323, 0.06819403916597366, 0.024075713008642197, -0.15125472843647003, 0.17039455473423004, 0.007547146640717983, -0.06870096176862717, 0.0660707950592041, 0.15590454638004303, 0.08728844672441483, -0.02097889594733715, -0.09660150110721588, 0.1156454011797905, -0.14740321040153503, 0.14941170811653137, 0.1979161947965622, -0.23236985504627228, 0.07559709250926971, -0.08274839073419571, -0.1387508064508438, -0.0052089691162109375, -0.10300779342651367, 0.17510159313678741, -0.1612265706062317, -0.17780284583568573, 0.05811579152941704, 0.18207797408103943, -0.19746050238609314, 0.36268317699432373, -0.1013057753443718, -0.07768816500902176, 0.3348950743675232, 0.07489697635173798, 0.08660407364368439, 0.19507956504821777, -0.33783796429634094, -0.025986623018980026, -0.24727807939052582, -0.20470522344112396, -0.33715277910232544, 0.15395259857177734, 0.11264508962631226, 0.09906807541847229, -0.08618681132793427, 0.2758788466453552, -0.07828452438116074, -0.10056948661804199, -0.03615590184926987, 0.09012558311223984, 0.23010297119617462, 0.22122812271118164, 0.2881312966346741, 0.09804821014404297, 0.1893416792154312, 0.21130381524562836, -0.020395543426275253, 0.14013415575027466, 0.15883885324001312, 0.02620888128876686, -0.1701795756816864, -0.08595826476812363, 0.19591352343559265, -0.019138500094413757, -0.0064965286292135715, -0.01254885271191597, 0.3077763617038727, 0.19526556134223938, -0.11495307832956314, 0.23300416767597198, -0.07950688898563385, 0.1085972860455513, -0.06159668415784836, 0.21333113312721252, -0.1647632122039795, 0.136928528547287, -0.054632507264614105, 0.06981169432401657, 0.08899761736392975, -0.020135872066020966, -0.02766093611717224, -0.13990186154842377, -0.004720382392406464, 0.2349674552679062, -0.05563629791140556, 0.03477532044053078, 0.1348433643579483, 0.3380730152130127, 0.05695109814405441, 0.13112471997737885, -0.005588656757026911, -0.0957372859120369, -0.1847982108592987, 0.29148486256599426, 0.12173477560281754, 0.4155940115451813, 0.3515127897262573, -0.14936506748199463, -0.0514286644756794, 0.2867962419986725, 0.14173921942710876, 0.31407466530799866, 0.31787407398223877, 0.1821085810661316, 0.33441945910453796, 0.3535507321357727, 0.07348914444446564, 0.11131543666124344, 0.0033074761740863323, 0.19114314019680023, 0.1045917347073555, -0.17100554704666138, -0.11844978481531143, -0.038982998579740524, -0.0895453467965126, 0.27743497490882874, 0.035971902310848236, 0.28673020005226135, 0.21297983825206757, 0.27774474024772644, -0.10383643209934235, 0.14771480858325958, 0.15932424366474152, 0.04438329115509987, -0.2681805193424225, -0.13348424434661865, 0.08026551455259323, -0.12319640070199966, 0.04656483978033066, 0.06200927495956421, 0.12367377430200577, 0.15607303380966187, -0.22489091753959656, -0.2125658392906189, 0.04250062629580498, -0.1254878044128418, 0.08235999196767807, 0.22115232050418854, -0.06828902661800385, 0.0423700250685215, 0.05200286954641342, 0.06157916411757469, 0.03747604787349701, -0.012314517050981522, 0.003208419308066368, -0.051184382289648056, 0.15224935114383698, 0.12690234184265137, 0.0885029286146164, 0.20222844183444977, 0.06498974561691284, 0.3171391785144806, 0.10569774359464645, -0.2773447632789612, -0.10688430070877075, 0.22078706324100494, -0.13611961901187897, 0.3056162893772125, -0.28356093168258667, -0.30115193128585815, 0.333110511302948, -0.2853834629058838, 0.23591308295726776, 0.35049688816070557, -0.23549112677574158, -0.137775719165802, -0.24829097092151642, -0.23819033801555634, -0.34487247467041016, 0.2841191589832306, 0.06971424072980881, -0.23486952483654022, 0.05614641308784485, 0.21852721273899078, 0.2346615344285965, -0.29804107546806335, 0.18966905772686005, 0.14079339802265167, 0.3139955997467041, 0.21525195240974426, 0.16015690565109253, 0.11258440464735031, 0.004748999141156673, 0.26575079560279846, 0.14172810316085815, 0.09809061139822006, -0.06919451802968979, 0.09818394482135773, 0.02916713058948517, 0.22407840192317963, 0.3719208836555481, -0.022654911503195763, 0.04736319184303284, 0.288981169462204, 0.23597151041030884, 0.2370154857635498, 0.14571578800678253, -0.084659144282341, -0.006122412625700235, 0.04595007002353668, 0.08055474609136581, 0.39365535974502563, 0.09208624809980392, 0.003149492433294654, -0.2046109139919281, -0.07956797629594803, -0.030147306621074677, 0.09945868700742722, 0.023815369233489037, 0.1236102357506752, -0.1074734628200531, 0.17456769943237305, 0.2533024549484253, -0.03189585357904434, -0.08982887864112854, -0.046789299696683884, 0.1210918128490448, -0.08744838088750839, -0.08379492163658142, -0.05611029267311096, 0.15323138236999512, -0.18480904400348663, 0.3256113529205322, 0.12081849575042725, -0.007213583216071129, 0.20481285452842712, 0.37028267979621887, 0.2736540734767914, 0.22198589146137238, 0.07292266190052032, 0.28466737270355225, 0.04596031829714775, 0.17278876900672913, -0.17725683748722076, -0.1795334368944168, -0.09945736080408096, 0.16194289922714233, -0.2508157193660736, -0.004269123077392578, 0.12758496403694153, 0.23545058071613312, 0.11061134934425354, 0.18376709520816803, 0.05739540979266167, 0.1607666164636612, 0.08301950246095657, 0.23773004114627838, -0.14361917972564697, 0.0953332856297493, -0.06653371453285217, 0.07743029296398163, 0.0742981806397438, -0.09279986470937729, 0.08969135582447052, 0.22860339283943176, -0.1431025117635727, 0.13561180233955383, 0.22077690064907074, 0.2898104190826416, -0.1697792410850525, -0.11671967059373856, 0.12946555018424988, 0.1089327484369278, 0.06494775414466858, 0.10097596794366837, -0.17990215122699738, -0.07332442700862885, -0.15198500454425812, 0.002401046920567751, 0.0719151422381401, 0.021928315982222557, 0.16399691998958588, 0.24542434513568878, -0.21793825924396515, -0.05178504064679146, -0.08456580340862274, 0.2096487134695053, 0.2811415493488312, -0.07352519035339355, 0.16091610491275787, 0.0062777455896139145, 0.0023944720160216093, -0.01773936115205288, 0.003691653022542596, -0.16637632250785828, 0.21721747517585754, 0.13108670711517334, 0.15038201212882996, -0.11020531505346298, 0.061765436083078384, -0.23291155695915222, -0.15884825587272644, 0.14873787760734558, -0.12240470200777054, 0.27916985750198364, 0.21817857027053833, 0.12671588361263275, -0.26547905802726746, -0.07362665981054306, 0.22693902254104614, 0.05863882601261139, 0.027863211929798126, 0.1392306238412857, -0.06790871173143387, -0.09291316568851471, -0.18263982236385345, 0.09509915858507156, 0.1215934082865715, -0.03095465525984764, -0.13676981627941132, 0.09113647788763046, 0.15750843286514282, 0.07163205742835999, -0.16637226939201355, -0.06978150457143784, -0.033316317945718765, 0.16626836359500885, -0.097004234790802, 0.3436085879802704, 0.11368938535451889, -0.07599510252475739, 0.01826423779129982, 0.4242902994155884, 0.19773425161838531, 0.0014441728126257658, 0.12781071662902832, 0.03898739442229271, 0.2622252404689789, 0.09251483529806137, 0.14270921051502228, 0.17530307173728943, -0.027664951980113983, 0.22688904404640198, 0.017771407961845398, -0.26068657636642456, -0.05807735398411751, -0.0002125924947904423, -0.15596553683280945, -0.006152715999633074, -0.005119441542774439, -0.14430679380893707, 0.30251529812812805, -0.03269479051232338, 0.08230046927928925, -0.1777631640434265, 0.15088248252868652, 0.07939938455820084, -0.14192703366279602, -0.0116301653906703, -0.06452169269323349, 0.08607739955186844, 0.26149338483810425, -0.006181373260915279, -0.22488459944725037, 0.08450192213058472, 0.13250020146369934, 0.16307365894317627, 0.25730788707733154, 0.0624961219727993, 0.29003480076789856, 0.017825240269303322, 0.201179638504982, -0.001900668372400105, 0.048192914575338364, -0.018553130328655243, 0.20271149277687073, -0.0721680149435997, -0.15271329879760742, -0.161827951669693, 0.0478370301425457, -0.20124809443950653, 0.33714359998703003, 0.32414984703063965, -0.024701299145817757, 0.30052945017814636, 0.24563416838645935, -0.16975700855255127, 0.1554289013147354, 0.24424274265766144, -0.28007248044013977, -0.11773224920034409, 0.1882391721010208, -0.08881666511297226, -0.13356325030326843, 0.22260020673274994, 0.15303832292556763, -0.09141893684864044, -0.07864141464233398, -0.09536764025688171, 0.06193159520626068, 0.2181304395198822, 0.1738462746143341, 0.2044294774532318, -0.0241206306964159, -0.1741931140422821, -0.20044918358325958, 0.02171988971531391, 0.008480328135192394, 0.1048460304737091, -0.07568599283695221, 0.10252613574266434, 0.19129502773284912, 0.11656667292118073, 0.040209587663412094, 0.08503233641386032, 0.14187468588352203, 0.17800582945346832, 0.3435203433036804, -0.00115784106310457, -0.2141096144914627, -0.3066706657409668, 0.09135426580905914, 0.10020170360803604, 0.08970864117145538, -0.040684666484594345, -0.10886181890964508, 0.08959127962589264, -0.04456116259098053, -0.061742350459098816, 0.08952943235635757, -0.3057395815849304, -0.04760398343205452, -0.07891710847616196, -0.14848247170448303, -0.15080931782722473, 0.021822312846779823, 0.09383825212717056, -0.1330241709947586, 0.11950869858264923, 0.2569398880004883, 0.2051735818386078, 0.051382213830947876, -0.10741110146045685, 0.16663441061973572, 0.05152503028512001, -0.006311495788395405, -0.01724374294281006, 0.21807724237442017, 0.05360313877463341, 0.19531279802322388, 0.10383278876543045, 0.17368975281715393, 0.1232704222202301, -0.09004125744104385, -0.015221898443996906, 0.22007176280021667, 0.25030818581581116, -0.07325326651334763, -0.06361638009548187, 0.15142197906970978, -0.008803743869066238, 0.5301163792610168, 0.08896246552467346, 0.09740767627954483, 0.10797115415334702, 0.04351890832185745, 0.16051417589187622, 0.15193772315979004, -0.0941895842552185, 0.08176790922880173, -0.20510491728782654, 0.17175279557704926, 0.05375306308269501, 0.20780019462108612, 0.08475561439990997, -0.05057954415678978, -0.11574651300907135, 0.10447630286216736, 0.15003983676433563, 0.31483468413352966, 0.04246712476015091, 0.28644055128097534, 0.17041698098182678, 0.2849169075489044, -0.1927465796470642, 0.006327648181468248, 0.018346324563026428, 0.07621697336435318, 0.1625996083021164, 0.28385666012763977, 0.09268949180841446, 0.199756920337677, 0.12377546727657318, 0.44530338048934937, 0.15184694528579712, 0.13401292264461517, 0.25486183166503906, 0.3325018584728241, 0.36548566818237305, 0.2131185084581375, 0.12448686361312866, 0.2156706005334854, 0.20236176252365112, -0.04704232141375542, -0.07551722973585129, 0.16297054290771484, 0.07816394418478012, 0.29104316234588623, -0.02364852838218212, 0.3456698954105377, -0.0500061921775341, 0.16877081990242004, 0.09763903170824051, -0.16965559124946594, -0.004929238930344582, 0.006699535064399242, 0.17751748859882355, 0.1986025720834732, -0.12856334447860718, 0.2748371660709381, 0.05414276197552681, -0.004103165119886398, 0.31542325019836426, 0.09805705398321152, 0.055522579699754715, 0.20620831847190857, -0.11961548775434494, 0.031994711607694626, 0.34500792622566223, 0.1948443353176117, 0.12734903395175934, 0.04127449169754982, 0.3009861707687378, 0.10139841586351395, 0.22266989946365356, 0.23463106155395508, 0.0814574658870697, 0.10617270320653915, -0.06509532779455185, -0.12415958195924759, 0.22189798951148987, -0.0884184017777443, 0.024198196828365326, -0.05105949565768242, 0.2072765976190567, 0.04588179290294647, -0.09645403921604156, 0.12170397490262985, -0.10983588546514511, 0.033077724277973175, -0.009206484071910381, -0.07290579378604889, 0.030433932319283485, -0.18654324114322662, 0.13241036236286163, 0.2146175056695938, 0.09271767735481262, -0.004540621303021908, -0.13525204360485077, -0.18616890907287598, -0.18179842829704285, 0.22065089643001556, -0.004573507700115442, 0.015498489141464233, -0.06536179035902023, -0.13727249205112457, 0.26103344559669495, 0.19702482223510742, 0.08894210308790207, 0.20503155887126923, 0.0038084755651652813, -0.022635752335190773, -0.23187747597694397, 0.11635841429233551, -0.007431867066770792, 0.0829814001917839, -0.11954876780509949, 0.0944112241268158, 0.2421518862247467, 0.11990506201982498, -0.056954268366098404, 0.21505126357078552, -0.011948668397963047, 0.06407652050256729, -0.027261974290013313, 0.28334125876426697, 0.1994210034608841, 0.06976430118083954, 0.06197081878781319, 0.41122889518737793, 0.20696479082107544, 0.227532297372818, 0.40201371908187866, 0.3547585606575012, 0.3569783866405487, 0.14225353300571442, -0.09931087493896484, -0.026814395561814308, 0.19617436826229095, 0.32748085260391235, 0.01898232102394104, 0.21922937035560608, 0.12459233403205872, -0.00543889869004488, 0.04851501062512398, 0.14674952626228333, 0.32122212648391724, 0.06168448179960251, 0.1736806035041809, 0.2737959623336792, 0.0030850572511553764, 0.07135264575481415, -0.11703907698392868, -0.02709478698670864, -0.15443925559520721, 0.0005637878202833235, 0.09254931658506393, -0.0806737020611763, 0.05958004295825958, 0.057270582765340805, 0.3393368721008301, 0.20301522314548492, -0.056772660464048386, -0.09938191622495651, 0.39817801117897034, 0.03292415663599968, 0.1241619735956192, 0.03141013905405998, -0.048069603741168976, -0.08984100073575974, 0.1993064284324646, 0.10063103586435318, -0.06867388635873795, 0.14005284011363983, 0.1147911325097084, -0.09327229857444763, -0.007948117330670357, 0.3459007143974304, 0.20609329640865326, 0.1274140179157257, 0.23524805903434753, -0.06570003926753998, 0.20662206411361694, -0.059127043932676315, 0.17624522745609283, 0.04588307812809944, -0.13729143142700195, 0.22641852498054504, 0.17466415464878082, 0.10626023262739182, -0.09202216565608978, 0.07292523235082626, 0.2715621590614319, 0.2146783471107483, -0.035936158150434494, 0.051867906004190445, 0.045973651111125946, 0.06440167129039764, 0.10721345990896225, 0.19401226937770844, -0.1148170754313469, -0.097687266767025, 0.18726934492588043, 0.004314756020903587, 0.11255746334791183, -0.07813896238803864, -0.11326914280653, 0.15819291770458221, 0.1890876442193985, -0.08218705654144287, 0.09994887560606003, -0.11983194202184677, 0.2656981647014618, -0.17243339121341705, 0.09543219208717346, -0.008073538541793823, -0.06432492285966873, -0.07413547486066818, 0.18970470130443573, 0.1213134378194809, 0.15577398240566254, -0.1974022537469864, -0.016842035576701164, 0.11165039986371994, -0.020519796758890152, 0.02765733189880848, 0.08792669326066971, -0.14675623178482056, -0.0917031392455101, -0.1047968789935112, 0.16895712912082672, -0.18102635443210602, 0.20266954600811005, -0.07705062627792358, -0.11519461870193481, -0.011563065461814404, 0.14262749254703522, -0.17742331326007843, -0.13892658054828644, 0.10488832741975784, -0.1981578767299652, -0.17294791340827942, 0.15052181482315063, 0.044951193034648895, 0.09187664091587067, 0.13614702224731445, 0.05618025362491608, 0.1051393374800682, -0.006451168097555637, -0.05210478603839874, -0.05630845949053764, 0.0988556444644928, 0.11916697770357132, -0.00686119869351387, 0.12823443114757538, 0.2722953259944916, 0.04624473676085472, 0.42448168992996216, -0.034084055572748184, -0.013441108167171478, 0.08744701743125916, 0.3137684166431427, -0.03455474600195885, 0.36672040820121765, -0.03760140761733055, 0.038116127252578735, -0.1833174228668213, 0.13595469295978546, -0.1657763123512268, 0.09627325087785721, -0.06365768611431122, -0.0028303773142397404, -0.05295386537909508, -0.08892668038606644, 0.28999269008636475, 0.12633606791496277, 0.2903991639614105, 0.030864249914884567, 0.14533831179141998, 0.30570194125175476, -0.022893236950039864, -0.053682707250118256, -0.12272074818611145, 0.017008479684591293, 0.12153962254524231, 0.31010401248931885, 0.19627591967582703, -0.1053965762257576, 0.2534544765949249, 0.2959476113319397, -0.01654013805091381, -0.10434522479772568, 0.32945430278778076, 0.018234029412269592, -0.0016763088060542941, 0.024906395003199577, 0.06704585999250412, 0.1699073612689972, -0.12329272925853729, 0.10039108246564865, -0.049709517508745193, 0.025451762601733208, 0.29629456996917725, 0.07946112751960754, 0.05896972119808197, 0.07177324593067169, -0.0675273984670639, 0.17371371388435364, 0.002856430597603321, 0.12727250158786774, 0.04025646671652794, 0.05770426616072655, 0.016238147392868996, -0.20656771957874298, 0.05137502774596214, 0.2740646004676819, 0.03315016254782677, -0.08485230803489685, -0.05429871752858162, 0.14036282896995544, 0.22492019832134247, 0.07690536230802536, 0.09717236459255219, -0.09269913285970688, 0.2918812334537506, -0.06259766966104507, 0.281323105096817, -0.09148800373077393, 0.1274200677871704, 0.17865800857543945, -0.03497623652219772, 0.12181467562913895, 0.10629647970199585, 0.00931205227971077, 0.2183089256286621, -0.09873614460229874, 0.07963259518146515, 0.0978832095861435, 0.02656666561961174, 0.22342181205749512, 0.22878488898277283, 0.14592596888542175, -0.11449000239372253, -0.0879620835185051, -0.04863503575325012, -0.10583376884460449, -0.13106927275657654, 0.1900223195552826, 0.12547674775123596, 0.09269748628139496, 0.006285569164901972, 0.16560952365398407, -0.11861772835254669, -0.08715423941612244, -0.08457046747207642, -0.11817646771669388, 0.18003733456134796, 0.11287390440702438, -0.1312747597694397, 0.1407516747713089, 0.12705561518669128, 0.02066265046596527, 0.04927400127053261, -0.10816805809736252, 0.1336458921432495, 0.14660848677158356, -0.1862160563468933, 0.13823169469833374, -0.10176609456539154, 0.027422182261943817, -0.07568137347698212, 0.0049828458577394485, -0.04708544909954071, 0.16666896641254425, -0.001425052061676979, -0.07661082595586777, -0.17553602159023285, 0.14094246923923492, 0.16217687726020813, 0.04575516656041145, 0.28786876797676086, 0.1579999476671219, 0.03917376324534416, -0.07844357937574387, 0.12180659174919128, 0.3156328499317169, 0.18043643236160278, 0.04562274366617203, 0.04142923280596733, 0.10116113722324371, -0.007435016334056854, 0.37410977482795715, 0.05777484551072121, 0.14974799752235413, -0.10931693017482758, 0.32724228501319885, -0.004868973512202501, 0.23204723000526428, -0.01375714410096407, 0.1075059249997139, 0.21158386766910553, 0.1391383558511734, 0.14911454916000366, -0.10021915286779404, 0.1249157041311264]}, "model_weights__bidirectional__sequential__bidirectional__backward_lstm__lstm_cell__recurrent_kernel": {"shape": [32, 128], "data": [0.17025123536586761, 0.13201600313186646, 0.009891320019960403, 0.11695664376020432, 0.11152075976133347, 0.1371859908103943, -0.007511319126933813, -0.05453997105360031, 0.004952769726514816, 0.13978612422943115, 0.043192632496356964, 0.025180915370583534, 0.11564269661903381, 0.06641361862421036, 0.0007183700799942017, 0.11103563755750656, 0.09364525973796844, 0.06653424352407455, 0.1212022677063942, -0.03978376090526581, 0.05804857239127159, -0.07973037660121918, -0.09636799991130829, -0.1301022171974182, -0.11377222090959549, -0.09017394483089447, -0.03223354369401932, 0.026062829419970512, 0.1996142715215683, 0.11950206011533737, -0.05915609374642372, 0.0930127277970314, 0.03408709913492203, 0.010438179597258568, 0.22183728218078613, -0.13465681672096252, -0.32269906997680664, 0.1251344084739685, 0.03925778716802597, -0.03377426043152809, -0.017471298575401306, 0.03485095500946045, -0.032238490879535675, 0.06294788420200348, 0.2017517387866974, -0.018043916672468185, -0.05065422132611275, 0.1307830810546875, 0.028138557448983192, 0.10897290706634521, 0.2508024275302887, 0.04759376868605614, -0.07677274942398071, -0.030563708394765854, 0.1803843379020691, -0.07300315052270889, -0.04743118956685066, 0.08204902708530426, -0.05558794364333153, 0.02475445345044136, -0.1262308806180954, 0.1534661203622818, 0.1556120663881302, -0.09347974509000778, -0.08290786296129227, -0.1348750740289688, -0.1326092928647995, -0.043520938605070114, 0.07216589152812958, -0.03505142778158188, 0.17452675104141235, -0.03242652118206024, -0.004213253036141396, 0.22895307838916779, 0.12452856451272964, 0.1352328658103943, 0.012228245846927166, -0.13005393743515015, 0.031979527324438095, -0.15199114382266998, -0.12270163744688034, 0.059594687074422836, -0.0691039189696312, 0.016291428357362747, 0.0770956352353096, 0.1593439280986786, 0.005169648211449385, -0.05060282349586487, 3.0105540645308793e-05, -0.02590278536081314, 0.20822268724441528, 0.03420993313193321, 0.05411405488848686, 0.061021335422992706, -0.1907222718000412, 0.06201200932264328, 0.11036937683820724, 0.07282258570194244, 0.15045280754566193, 0.07390415668487549, 0.03273256495594978, -0.06107902526855469, -0.01627282053232193, -0.012652930803596973, -0.02382848411798477, -0.012304743751883507, -0.13793323934078217, -0.08632798492908478, 0.11819968372583389, -0.1923743635416031, 0.057986702769994736, -0.13938288390636444, 0.09274999797344208, 0.14878129959106445, 0.19300250709056854, 0.033491138368844986, 0.0414108969271183, 0.11763948202133179, 0.14253999292850494, -0.12402737140655518, -0.11903288960456848, -0.0086579080671072, 0.011267531663179398, 0.06345303356647491, 0.07398103177547455, -0.051546718925237656, 0.006348750088363886, 0.005541717633605003, -0.03389864042401314, -0.16627070307731628, -0.12756480276584625, 0.09006614238023758, -0.09177526086568832, 0.006240855902433395, -0.009996486827731133, 0.05083705112338066, -0.004741820972412825, -0.040465015918016434, -0.06017613410949707, 0.03338753432035446, -0.05723310634493828, -0.09319941699504852, -0.010255731642246246, -0.03565344959497452, -0.2798934578895569, -0.011888856068253517, -0.10896831005811691, -0.19550204277038574, -0.11864694207906723, 0.016556357964873314, 0.038686126470565796, 0.07147146016359329, -0.0009222572552971542, 0.057864557951688766, 0.04618419334292412, -0.05115814507007599, 0.11872206628322601, 0.25657498836517334, 0.03742665797472, 0.11453472822904587, 0.12820757925510406, 0.037860553711652756, -0.07073499262332916, 0.05377008020877838, -0.0629887580871582, -0.001775669283233583, -0.013188302516937256, 0.11584016680717468, 0.018972331658005714, -0.0030818490777164698, -0.1824120432138443, 0.06166549399495125, -0.1200704500079155, 0.13079337775707245, 0.1335219442844391, 0.02613619528710842, -0.11627884954214096, -0.13754114508628845, -0.03347974643111229, -0.04407283663749695, 0.26317310333251953, -0.10695389658212662, 0.05432399362325668, 0.08217796683311462, -0.1334434300661087, -0.020821966230869293, -0.08975942432880402, -0.09391003847122192, -0.1573456972837448, 0.12149858474731445, 0.08705263584852219, -0.06663912534713745, 0.08460051566362381, 0.13395817577838898, -0.024544522166252136, 0.02044740691781044, 0.26934197545051575, 0.07793756574392319, -0.10320030152797699, -0.010418293066322803, -0.07987575232982635, -0.2558214068412781, 0.13938263058662415, -0.05042755976319313, -0.032809242606163025, -0.11952152848243713, -0.10568130016326904, 0.015934418886899948, 0.03438173234462738, 0.09858793765306473, 0.004653568379580975, -0.13868588209152222, -0.12180643528699875, 0.029733503237366676, -0.0864785835146904, 0.04534982517361641, -0.022713685408234596, -0.12907956540584564, 0.11382439732551575, -0.06987358629703522, 0.30375561118125916, 0.0027791326865553856, 0.08495040982961655, 0.20020557940006256, 0.11156735569238663, 0.007065181620419025, -0.04093685746192932, -0.08687835931777954, -0.09889668226242065, 0.08109080791473389, -0.10492534190416336, 0.006053389981389046, 0.08861828595399857, -0.1664886772632599, 0.030540557578206062, 0.0134045435115695, -0.03723805397748947, 0.0727655291557312, -0.1040605753660202, 0.09754088521003723, -0.11316771805286407, 0.035918883979320526, -0.12305914610624313, -0.07798561453819275, -0.050113171339035034, -0.15376567840576172, -0.10314030200242996, 0.09300725907087326, -0.04612846300005913, 0.11737609654664993, 0.04177456721663475, -0.12277764081954956, -0.15752476453781128, 0.06089312210679054, 0.05932167172431946, -0.03202234208583832, -0.12453687191009521, -0.05138660594820976, 0.009961871430277824, 0.1037357747554779, -0.020496029406785965, 0.021972091868519783, 0.02221425622701645, -0.041085973381996155, -0.042804934084415436, -0.25569477677345276, 0.18278363347053528, 0.28700530529022217, -0.11755222827196121, 0.03165120631456375, 0.07532475143671036, -0.04468028247356415, -0.03465547785162926, -0.0841551348567009, -0.025258297100663185, -0.048238590359687805, 0.07690823078155518, -0.14958514273166656, 0.07102958112955093, 0.16120919585227966, -0.013063532300293446, -0.046664465218782425, -0.06803437322378159, 0.07136458158493042, -0.0586695559322834, -0.18278995156288147, -0.07476871460676193, -0.07430969178676605, 0.023303989320993423, -0.052160561084747314, -0.1945025473833084, -0.054895345121622086, -0.10302257537841797, 0.11454407870769501, 0.009420938789844513, -0.03482949733734131, -0.0714845284819603, 0.0085209421813488, -0.07670050859451294, 0.11486392468214035, -0.1539345234632492, -0.022231580689549446, 0.04666900634765625, -0.13659952580928802, -0.15483638644218445, -0.09811170399188995, -0.038299404084682465, 0.0630403533577919, -0.06621118634939194, -0.08090995997190475, -0.029826095327734947, -0.1689482033252716, 0.026693616062402725, 0.23015166819095612, -0.2852998971939087, -0.013163098134100437, -0.07863003760576248, -0.0926351398229599, -0.14707741141319275, -0.10178665071725845, -0.03195313736796379, 0.18892040848731995, 0.0539853535592556, 0.05225270614027977, 0.0559832938015461, 0.08659779280424118, -0.1047057956457138, 0.038528721779584885, 0.09045091271400452, -0.2896674573421478, 0.03812471404671669, -0.05959460511803627, -0.058868635445833206, 0.034266043454408646, -0.07496577501296997, 0.29113683104515076, -0.06803014874458313, 0.2409241944551468, -0.14133834838867188, -0.1326054185628891, -0.10341113805770874, -0.020434973761439323, -0.012749476358294487, 0.07222628593444824, 0.04244069382548332, 0.02697899378836155, -0.05057132989168167, -0.060318104922771454, 0.07402601093053818, 0.044537439942359924, 0.03814167156815529, -0.09506282955408096, -0.042535778135061264, -0.11679151654243469, -0.16149435937404633, -0.19182999432086945, -0.058220431208610535, 0.09638996422290802, 0.04966419190168381, -0.15010134875774384, 0.08437979966402054, -0.019490499049425125, -0.03727497532963753, -0.09221524000167847, -0.16279098391532898, 0.10086393356323242, -0.00976995937526226, 0.009829491376876831, -0.12717019021511078, -0.11083700507879257, -0.1237652376294136, -0.1981574296951294, 0.029633579775691032, -0.09355150163173676, -0.06667061150074005, 0.015603934414684772, 0.11325785517692566, -0.15374621748924255, -0.009147634729743004, 0.009510256350040436, -0.028884079307317734, -0.01538070011883974, -0.10695122182369232, 0.14362995326519012, -0.14873163402080536, -0.1967328041791916, 0.017480647191405296, -0.03645391762256622, -0.009490136988461018, -0.14967484772205353, -0.05891258269548416, 0.051275961101055145, 0.08005091547966003, -0.036332253366708755, -0.17378923296928406, 0.026222795248031616, -0.08716852217912674, -0.07846466451883316, -0.06592696905136108, 0.03986695781350136, -0.1748327761888504, -0.17431622743606567, -0.028849491849541664, -0.253671795129776, -0.011483852751553059, 0.11295448243618011, -0.11883093416690826, -0.09111060947179794, 0.03913046419620514, -0.011313122697174549, 0.07502578943967819, -0.11254573613405228, 0.01620618999004364, 0.139078289270401, -0.04151708632707596, -0.17080004513263702, 0.02062392048537731, 0.10102906078100204, -0.12054020166397095, 0.046569157391786575, -0.025108715519309044, 0.028212575241923332, -0.06621383130550385, -0.026376716792583466, -0.1193353682756424, -0.02692670002579689, -0.06842555105686188, 0.003061889670789242, -0.16986770927906036, -0.21884195506572723, 0.10629303008317947, -0.13263772428035736, -0.05353221297264099, -0.030273770913481712, 0.12185225635766983, 0.03564613685011864, 0.028931306675076485, -0.010836027562618256, -0.05037935823202133, -0.034375790506601334, -0.22920648753643036, 0.00766466511413455, 0.021334029734134674, 0.029948152601718903, 0.061595626175403595, -0.07305414974689484, 0.020670751109719276, -0.1759612113237381, 0.11231158673763275, 0.17122752964496613, -0.019222352653741837, -0.11871397495269775, -0.14444968104362488, 0.0627569928765297, -0.08340214192867279, 0.1357050985097885, 0.110896036028862, -0.06665977090597153, 0.08226500451564789, 0.021506739780306816, -0.04023810476064682, 0.20030760765075684, 0.051279466599226, 0.01948077604174614, 0.059490691870450974, 0.027757553383708, 0.04180419072508812, -0.24122309684753418, -0.02872185967862606, -0.022027090191841125, -0.020322522148489952, 0.10343986749649048, 0.006641067564487457, 0.05197934806346893, -0.05255979299545288, -0.06283698230981827, -0.09855565428733826, 0.04344614967703819, 0.08005610853433609, -0.052297208458185196, -0.002091042697429657, -0.18435260653495789, -0.031232910230755806, -0.07363427430391312, -0.010744372382760048, 0.022921696305274963, 0.10612348467111588, -0.009544816799461842, -0.0311188455671072, 0.03602759540081024, -0.17189709842205048, -0.013125736266374588, -0.21747224032878876, -0.055044014006853104, 0.06481326371431351, 0.04455560818314552, -0.10963916778564453, 0.005107883829623461, -0.13412554562091827, -0.14644920825958252, -0.02113160490989685, -0.009440991096198559, 0.10194196552038193, -0.08220532536506653, 0.05479736253619194, -0.022355277091264725, -0.12645851075649261, 0.004794704727828503, 0.017315011471509933, -0.12805667519569397, -0.1438172310590744, -0.0754517987370491, 0.02215437777340412, 0.0862284004688263, 0.17024414241313934, 0.05646489933133125, -0.07988788932561874, 0.05718284845352173, 0.08007737249135971, 0.005212562624365091, -0.10256952047348022, 0.1313692033290863, 0.12679250538349152, 0.040543168783187866, -0.0973585695028305, 0.1367942839860916, 0.05540873482823372, 0.09855765849351883, -0.03968596085906029, 0.09188758581876755, 0.05444702133536339, -0.11176836490631104, -0.07065252214670181, -0.13075752556324005, 0.11852666735649109, 0.01880553364753723, 0.18713970482349396, -0.04552840441465378, 0.16099455952644348, 0.016514744609594345, -0.22388367354869843, 0.022092243656516075, 0.08682790398597717, 0.13359595835208893, 0.0903952345252037, -0.19457969069480896, 0.013008955866098404, 0.12237125635147095, -0.06391247361898422, 0.22380565106868744, -0.11689197272062302, 0.00038403653888963163, -0.0013946606777608395, -0.08088643848896027, 0.16676463186740875, -0.06928092241287231, -0.11595313996076584, -0.10900299996137619, 0.14510612189769745, -0.035472266376018524, -0.09147252142429352, -0.11795076727867126, 0.18574844300746918, -0.21640238165855408, 0.21450883150100708, -0.17602606117725372, 0.1210499107837677, 0.0436241440474987, -0.06797675788402557, -0.11893441528081894, -0.0031813604291528463, -0.12410374730825424, -0.10267172753810883, 0.09823042899370193, 0.0918196365237236, 0.047952163964509964, 0.060843575745821, -0.07663552463054657, 0.07648557424545288, -0.060031648725271225, -0.0967445895075798, -0.12542225420475006, -0.08729732781648636, -0.057924535125494, -0.07412385940551758, 0.10381955653429031, -0.07359880954027176, -0.15923789143562317, -0.01879291422665119, -0.07983359694480896, -0.2762688398361206, -0.08413050323724747, -0.0057429117150604725, -0.0031298112589865923, -0.012902510352432728, 0.0422518290579319, -0.035471007227897644, 0.08696422725915909, 0.1439698189496994, -0.0028428672812879086, -0.17917577922344208, -0.030080780386924744, 0.15404313802719116, 0.004297933075577021, 0.1284169852733612, 0.10936250537633896, 0.15183097124099731, -0.0004400085308589041, -0.04993076249957085, -0.13662824034690857, 0.05838846042752266, 0.09350623190402985, -0.10127976536750793, 0.025555556640028954, -0.011584648862481117, -0.1867988109588623, -0.05624186247587204, 0.14887294173240662, -0.06989646703004837, -0.002593885874375701, -0.06864675134420395, 0.19298627972602844, -0.018838731572031975, 0.03982987627387047, -0.15336008369922638, 0.062075331807136536, -0.11941662430763245, -0.026173360645771027, -0.040731530636548996, -0.006931813899427652, 0.11438048630952835, 0.22676844894886017, -0.05048254877328873, 0.008262437768280506, -0.03141253441572189, -0.02920505590736866, 0.038332995027303696, -0.010800214484333992, 0.1798868179321289, -0.05642322823405266, -0.1274474859237671, -0.2113281935453415, 0.0702114924788475, 0.17389395833015442, 0.09140168130397797, -0.030138442292809486, -0.09737470000982285, -0.17309808731079102, 0.06682951748371124, 0.045889388769865036, -0.17992523312568665, -0.03950861468911171, -0.1728086918592453, 0.04457707703113556, 0.05930618196725845, -0.0027196325827389956, 0.04106593877077103, -0.010185749270021915, -0.048229020088911057, -0.1021624356508255, -0.013411375693976879, -0.025394078344106674, 0.09137555956840515, 0.24781334400177002, -0.04120509326457977, -0.0794275552034378, -0.06695956736803055, -0.022285930812358856, -0.06023259833455086, 0.024111274629831314, -0.010284381918609142, -0.003478662110865116, -0.12617173790931702, -0.0811179131269455, 0.0037039376329630613, -0.018956005573272705, -0.0669606551527977, -0.01383162196725607, -0.12713295221328735, -0.02456073835492134, -0.03622262552380562, -0.14682823419570923, 0.09054999053478241, 0.04526430368423462, 0.052971456199884415, 0.11786967515945435, 0.15974003076553345, -0.1769464761018753, 0.1252787709236145, -0.045601990073919296, 0.0005239644087851048, -0.27066245675086975, 0.027481527999043465, -0.0155338728800416, 0.09674129635095596, -0.07520439475774765, -0.09660279750823975, -0.03607460856437683, 0.029504239559173584, -0.11506575345993042, 0.003209946909919381, -0.05090602487325668, -0.05955519527196884, -0.19432158768177032, 0.10727553814649582, 0.1127915233373642, 0.2586810886859894, 0.12281443923711777, -0.07740218937397003, -0.19379939138889313, -0.1458292007446289, -0.05886157229542732, -0.034837909042835236, -0.12062220275402069, 0.03838121145963669, -0.01604490540921688, 0.04887479916214943, 0.01025977823883295, -0.03816651180386543, 0.053564462810754776, 0.02847137488424778, 0.19458192586898804, 0.0029420156497508287, -0.1932132989168167, -0.16767705976963043, 0.021807793527841568, -0.09549617022275925, -0.053523335605859756, 0.04630254581570625, -0.09973312169313431, 0.017263498157262802, 0.11894278973340988, 0.06657186150550842, 0.12515908479690552, 0.04677179455757141, -0.13321971893310547, 0.0004937161575071514, 0.03389907628297806, -0.08911840617656708, -0.046063680201768875, -0.08500123023986816, 0.14462432265281677, 0.149483785033226, 0.13328255712985992, 0.03452438861131668, -0.027163254097104073, -0.10128680616617203, 0.05113339424133301, 0.020197192206978798, -0.047956906259059906, -0.11018650978803635, -0.040450483560562134, -0.08665923774242401, -0.0957295149564743, 0.01061017345637083, 0.01887054555118084, 0.02964908815920353, -0.04016335308551788, 0.03768175095319748, 0.10252386331558228, -0.1262470930814743, 0.10599537193775177, -0.0474889799952507, -0.15363116562366486, -0.08034173399209976, -0.035807058215141296, -0.06430721282958984, 0.053566817194223404, 0.038579996675252914, 0.12671856582164764, -0.010943268425762653, 0.05652262270450592, -0.04581987485289574, -0.021916408091783524, -0.10070934146642685, -0.03819459676742554, 0.1944310963153839, 0.20707759261131287, -0.04854245111346245, -0.11372358351945877, 0.15569907426834106, -0.13619105517864227, 0.046156566590070724, 0.04459314048290253, 0.3241022229194641, -0.11625663191080093, 0.21894033253192902, 0.30001193284988403, -0.11470230668783188, 0.0552273765206337, 0.06339947879314423, -0.10663101822137833, 0.15074117481708527, -0.19294840097427368, 0.06965584307909012, 0.015444066375494003, 0.1101507619023323, -0.16207045316696167, -0.18062414228916168, 0.049857962876558304, 0.02369113452732563, 0.05479409545660019, 0.06217709183692932, -0.03098985180258751, 0.05570923537015915, 0.0067502413876354694, -0.0034487659577280283, -0.011929582804441452, -0.021392812952399254, 0.12564577162265778, -0.03231973946094513, -0.017150936648249626, 0.17783643305301666, 0.06858562678098679, -0.03827551752328873, 0.04207773879170418, -0.04578722268342972, 0.2591840326786041, 0.05022465065121651, 0.12925773859024048, -0.04403506964445114, 0.047268252819776535, 0.10149309784173965, -0.027672793716192245, -0.08571836352348328, 0.056795064359903336, 0.033197373151779175, 0.07905755192041397, 0.06923136860132217, 0.13305878639221191, -0.022787071764469147, 0.024454176425933838, 0.14731308817863464, -0.11181208491325378, -0.16525299847126007, -0.04496888071298599, 0.031508538872003555, 0.0012344951974228024, 0.08090724050998688, -0.05939078703522682, 0.013826729729771614, 0.035650212317705154, 0.07971861213445663, -0.016290893778204918, 0.04124757647514343, 0.010045703500509262, -0.1639259159564972, -0.18221597373485565, -0.06258552521467209, -0.16121438145637512, 0.09824828803539276, -0.034533217549324036, -0.013139599934220314, 0.053032685071229935, 0.08765862137079239, -0.18071764707565308, 0.11090511083602905, 0.07569752633571625, 0.06735457479953766, -0.01564565859735012, 0.01630214974284172, 0.049584534019231796, 0.02200055494904518, 0.04246947914361954, -0.06576386839151382, 0.16583427786827087, 0.04963657259941101, 0.05971384048461914, 0.04800610616803169, 0.06777820736169815, -0.08544652163982391, -0.1614588499069214, 0.02970581129193306, 0.01309953536838293, 0.006444226484745741, 0.10189054161310196, 0.10609708726406097, 0.01604260317981243, 0.1117425262928009, -0.0539834126830101, 0.09453727304935455, 0.1725103259086609, 0.0032929766457527876, 0.1440369337797165, 0.13738344609737396, -0.11041390150785446, 0.14585234224796295, -0.06786959618330002, 0.05549532175064087, 0.1646171361207962, -0.011081249453127384, 0.26945626735687256, -0.005424874369055033, 0.1930452138185501, 0.1270504742860794, 0.11088793724775314, -0.0630158856511116, -0.058897633105516434, -0.03308922424912453, 0.045736078172922134, 0.0732596293091774, -0.2704939544200897, -0.06677047908306122, -0.0072088465094566345, -0.07301290333271027, -0.06188942864537239, 0.024221472442150116, 0.01405308023095131, 0.018127599731087685, -0.16290727257728577, -0.12409518659114838, -0.08713306486606598, 0.12001880258321762, -0.18583345413208008, 0.14852584898471832, -0.19659698009490967, 0.1175498366355896, -0.1613345593214035, -0.06864798814058304, 0.03665773198008537, 0.047103818506002426, -0.056482117623090744, -0.10327252000570297, 0.12420915067195892, 0.25989091396331787, -0.02202739380300045, -0.26788851618766785, -0.017092939466238022, 0.08355057239532471, -0.08540800213813782, 0.33671870827674866, 0.16114400327205658, 0.1614784151315689, -0.10725917667150497, 0.13594701886177063, -0.11602731794118881, 0.01633918657898903, -0.04380565509200096, -0.12123078107833862, -0.040063656866550446, 0.05543949827551842, -0.06018711254000664, -0.04830704629421234, -0.009436520747840405, 0.04603106528520584, 0.07573317736387253, 0.12668955326080322, 0.1267140954732895, 0.09451380372047424, -0.136925607919693, -0.13589760661125183, 0.21046823263168335, 0.013855298049747944, 0.04863640293478966, -0.14287088811397552, 0.17145730555057526, 0.3193899691104889, 0.03312131389975548, -0.3774128556251526, -0.06538966298103333, -0.009081066586077213, -0.03554745391011238, 0.041748225688934326, -0.0899481549859047, 0.07543199509382248, 0.04035736620426178, 0.06868397444486618, 0.13013611733913422, 0.05947830155491829, 0.05894077196717262, 0.08768605440855026, -0.03087502345442772, 0.08569511771202087, 0.0763460025191307, 0.22158639132976532, 0.12424219399690628, -0.17526870965957642, 0.06174418330192566, -0.10088683664798737, -0.13822098076343536, -0.027608700096607208, -0.2354554682970047, 0.03701331093907356, 0.02266351878643036, 0.20190972089767456, -0.22151902318000793, -0.05953428894281387, 0.08574797213077545, -0.12270552664995193, 0.08964178711175919, -0.10900374501943588, 0.15033487975597382, -0.0732397586107254, -0.04490799456834793, -0.15237660706043243, -0.07312894612550735, 0.13314442336559296, 0.0643230751156807, -0.045858755707740784, -0.05047272518277168, 0.0037434459663927555, -0.03849444538354874, 0.2668401896953583, -0.004544427618384361, 0.24436414241790771, -0.10053053498268127, -0.27116629481315613, -0.053960319608449936, 0.16771236062049866, 0.0020447243005037308, -0.009645920246839523, -0.0765063688158989, 0.08100877702236176, 0.03855204954743385, -0.1462940275669098, 0.0019689302425831556, -0.011112698353827, -0.08925347030162811, -0.11054190993309021, 0.05974775552749634, 0.15772977471351624, 0.0424257256090641, -0.2695234715938568, -0.16928844153881073, 0.11451216787099838, -0.17575334012508392, 0.06590376794338226, 0.16084808111190796, -0.010715947486460209, 0.04617137461900711, -0.028843659907579422, 0.06415483355522156, -0.08816371858119965, -0.09392138570547104, 0.013504959642887115, 0.059555020183324814, -0.14062410593032837, 0.07666812092065811, 0.003702000482007861, -0.13121436536312103, -0.037752412259578705, -0.13244137167930603, -0.10229580849409103, -0.24858692288398743, 0.048102572560310364, -0.0134053323417902, 0.052650731056928635, -0.01639283448457718, 0.09477896988391876, 0.1116926372051239, -0.009199527092278004, -0.20174898207187653, 0.07650041580200195, -0.03972839191555977, 0.12428253889083862, -0.125447079539299, -0.015962868928909302, -0.06879068911075592, -0.07766222208738327, 0.05315638333559036, 0.023059461265802383, -0.1043689101934433, 0.015836158767342567, -0.005052381195127964, -0.05293518304824829, -0.10454557836055756, 0.0008949784678407013, -0.22205983102321625, -0.11073313653469086, 0.04257895424962044, 0.11701011657714844, -0.28101882338523865, -0.08760714530944824, -0.12815596163272858, 0.0015101543394848704, -0.13676203787326813, 0.05623294413089752, 0.09370017051696777, 0.22138170897960663, -0.030736345797777176, -0.030697133392095566, 0.11009867489337921, -0.10365442931652069, 0.21596789360046387, -0.1170300841331482, -0.10331306606531143, -0.0542074590921402, -0.0779910758137703, -0.12495077401399612, 0.19814424216747284, 0.2028680443763733, -0.10277412086725235, 0.028441637754440308, 0.16970455646514893, -0.2063170224428177, -0.20572201907634735, 0.09898117929697037, -0.06790534406900406, 0.11789263039827347, -0.01586761511862278, 0.03257470205426216, 0.1494356393814087, -0.04922197759151459, 0.176463782787323, 0.028502505272626877, 0.17685037851333618, -0.05074433982372284, -0.2673603296279907, 0.10589711368083954, -0.18859219551086426, 0.0823686420917511, -0.05441700667142868, -0.03597041592001915, -0.05586792156100273, 0.0024294729810208082, 0.15135422348976135, 0.1809127777814865, -0.24156448245048523, -0.022746141999959946, 0.09416703134775162, -0.07837197929620743, -0.21223430335521698, 0.046927254647016525, 0.012219891883432865, -0.0630292072892189, -0.006228391081094742, -0.0282085333019495, 0.0680384635925293, 0.058280035853385925, -0.1507788896560669, 0.06826268136501312, 0.01536089088767767, -0.12710875272750854, 0.024224529042840004, -0.010711495764553547, 0.002093685558065772, -0.11754798889160156, -0.10785705596208572, -0.16000628471374512, -0.098166324198246, 0.16999299824237823, -0.07530242204666138, -0.16780491173267365, 0.06539154797792435, 0.08317183703184128, 0.12166141718626022, -0.07207762449979782, -0.11737977713346481, 0.16781368851661682, 0.013077277690172195, -0.19371405243873596, 0.026548555120825768, 0.028358275070786476, 0.15315128862857819, 0.1144653782248497, -0.03293352201581001, 0.1060543805360794, 0.0582396425306797, 0.18867628276348114, 0.016362249851226807, 0.09722837805747986, 0.1453186422586441, -0.07882361859083176, 0.07654238492250443, 0.1947842538356781, 0.09887872636318207, 0.05467459186911583, 0.09570996463298798, 0.12187235057353973, 0.2585552930831909, 0.26699018478393555, -0.01974286139011383, -0.018377508968114853, 0.048719391226768494, -0.0074952347204089165, -0.009810351766645908, -0.006018153857439756, -0.12946578860282898, 0.115389384329319, -0.060520391911268234, 0.12196797132492065, -0.010973279364407063, 0.07151728868484497, 0.1322278529405594, 0.018436463549733162, 0.14762750267982483, 0.009360536932945251, -0.04709693789482117, 0.09995318204164505, 0.14191068708896637, 0.20937645435333252, -0.025603344663977623, -0.017138460651040077, 0.07539131492376328, -0.1912999302148819, -0.019512081518769264, 0.14294633269309998, -0.011639834381639957, 0.15866629779338837, 0.012834331952035427, 0.053734589368104935, 0.15888267755508423, 0.014402825385332108, 0.0984734520316124, 0.061378113925457, 0.2058771699666977, -0.03992966562509537, -0.13951462507247925, 0.10168270766735077, -0.027603691443800926, 0.03837733715772629, 0.0390106737613678, 0.16874806582927704, 0.15954899787902832, 0.059873539954423904, 0.16311126947402954, -0.08110231906175613, -0.23843292891979218, -0.04460524022579193, 0.051021043211221695, -0.16157349944114685, -0.18550275266170502, 0.12398165464401245, 0.07775184512138367, -0.11766611039638519, 0.011235561221837997, -0.11227919161319733, -0.17634934186935425, -0.06514056026935577, -0.18429715931415558, -0.009709779173135757, -0.17671039700508118, -0.031962838023900986, -0.27078333497047424, -0.025780897587537766, 0.21747304499149323, 0.27421388030052185, 0.047613419592380524, 0.05327480286359787, 0.0029564332216978073, 0.11123310029506683, 0.0814855769276619, 0.15772411227226257, -0.0025229789316654205, -0.18234603106975555, 0.15071970224380493, 0.06806806474924088, -0.015055573545396328, 0.24906955659389496, 0.09425339847803116, 0.16346517205238342, 0.1773127317428589, 0.21208219230175018, 0.006167548708617687, -0.11731240898370743, -0.11370112001895905, 0.025418564677238464, -0.07129284739494324, -0.17900383472442627, 0.1284143179655075, 0.1372314989566803, -0.01074263360351324, 0.13967305421829224, -0.1578288972377777, 0.16674914956092834, 0.04056596755981445, 0.06894109398126602, 0.12740768492221832, 0.002948484616354108, -0.0006899673026055098, 0.025365779176354408, -0.13050177693367004, 0.019753891974687576, 0.04010828584432602, -0.08879957348108292, -0.13889282941818237, -0.09910217672586441, 0.05905420333147049, 0.12843172252178192, 0.04839159548282623, -0.02008521556854248, -0.0995357409119606, -0.02493150718510151, -0.10251471400260925, 0.15241794288158417, -0.11766072362661362, -0.13773958384990692, -0.07875993847846985, -0.13304778933525085, -0.07730387151241302, 0.09530660510063171, 0.0970052033662796, 0.12655477225780487, -0.10364697873592377, -0.21501559019088745, -0.13025611639022827, 0.06680822372436523, -0.09540649503469467, 0.04584484547376633, 0.19507549703121185, -0.067882239818573, 0.17402921617031097, -0.1818392425775528, 0.03921028599143028, -0.10849474370479584, -0.18707434833049774, -0.13326959311962128, 0.00826028361916542, 0.23123516142368317, -0.07889226824045181, -0.23306404054164886, 0.0020048446021974087, 0.018332546576857567, -0.005581699777394533, 0.07296065986156464, -0.05941036716103554, -0.12816189229488373, -0.03580566123127937, 0.21948958933353424, -0.11676216870546341, -0.06280560046434402, -0.02574140764772892, 0.08500858396291733, -0.004174480680376291, 0.03350077196955681, 0.13943101465702057, -0.23848359286785126, 0.010916539467871189, 0.11277156323194504, 0.1714314967393875, 0.20870110392570496, 0.06911104172468185, 0.22868400812149048, -0.031371038407087326, 0.0162156093865633, -0.01842060685157776, 0.06742822378873825, 0.021053262054920197, -0.14748211205005646, 0.13887257874011993, 0.2939719557762146, 0.136062890291214, -0.23428970575332642, 0.08385808020830154, -0.005857406184077263, -0.012057662941515446, 0.12463512271642685, -0.09343120455741882, 0.054917119443416595, -0.01240217313170433, -0.07855042070150375, 0.16815756261348724, -0.010215871967375278, -0.04439586028456688, 0.13103650510311127, -0.20181851089000702, 0.14253638684749603, -0.04153114929795265, 0.0457686223089695, 0.1629447042942047, -0.09867265820503235, -0.019890138879418373, 0.10828310996294022, -0.03476053848862648, -0.027899304404854774, -0.13955433666706085, -0.01743530109524727, 0.09675800055265427, 0.016028067097067833, 0.06781312823295593, -0.035584352910518646, -0.06699670106172562, 0.016745198518037796, -0.15155237913131714, -0.08817683905363083, 0.03984297811985016, -0.03262739256024361, 0.1108766421675682, 0.14832735061645508, -0.05133824422955513, 0.041385434567928314, -0.0040105474181473255, 0.11400865018367767, 0.07134589552879333, -0.1076938807964325, -0.0750056728720665, -0.05718043074011803, 0.11505027115345001, 0.04169420152902603, -0.02203288860619068, -0.1527874618768692, 0.14208698272705078, 0.34315523505210876, -0.029726171866059303, 0.1966559886932373, 0.0406528078019619, 0.16902858018875122, 0.15104125440120697, -0.20688065886497498, -0.08137930929660797, 0.07886286824941635, -0.06078728660941124, -8.111196075333282e-05, 0.14478662610054016, 0.22274760901927948, 0.055696532130241394, -0.0819508284330368, 0.0005999531131237745, 0.04638699069619179, 0.24927036464214325, -0.05044792219996452, -0.2084554135799408, -0.031187022104859352, 0.13648764789104462, 0.023241737857460976, 0.016008656471967697, 0.15471459925174713, 0.30396008491516113, -0.001864416291937232, 0.009100304916501045, -0.06554847955703735, 0.19155295193195343, 0.07435131072998047, 0.2993180751800537, 0.04881702736020088, 0.4143911600112915, 0.03053661622107029, 0.39468812942504883, -0.18430401384830475, 0.26306241750717163, 0.13686589896678925, -0.11711160838603973, 0.11823736876249313, 0.15262524783611298, 0.15809954702854156, 0.017453256994485855, -0.036714378744363785, 0.09802698343992233, 0.09694457054138184, -0.05616935342550278, -0.02918316051363945, 0.12772151827812195, -0.12433795630931854, -0.08534493297338486, -0.03198520094156265, -0.06090710684657097, -0.07095783948898315, 0.03697726130485535, -0.012378723360598087, 0.06310950964689255, -0.05211200565099716, 0.12782388925552368, 0.1741095930337906, -0.011899905279278755, 0.21490392088890076, 0.1421165019273758, -0.11335096508264542, 0.020338768139481544, 0.15402190387248993, 0.1036771759390831, -0.10184133052825928, 0.023376228287816048, 0.18844814598560333, -0.15594592690467834, 0.0798620656132698, -0.0817551538348198, 0.21610675752162933, 0.266742080450058, -0.1703164130449295, -0.15233105421066284, -0.06288036704063416, 0.2711654305458069, -0.1467629373073578, -0.30930060148239136, -0.09839238971471786, -0.07725440710783005, -0.06447875499725342, -0.04168485477566719, 0.035672400146722794, -0.07094709575176239, -0.11755145341157913, 0.2802698016166687, -0.21919342875480652, 0.025917472317814827, -0.09365087002515793, -0.1556389331817627, -0.0165692288428545, -0.29640811681747437, 0.17096753418445587, -0.21690106391906738, -0.05416889488697052, 0.19898776710033417, 0.10531225055456161, 0.23535358905792236, 0.10003957152366638, 0.07086785137653351, 0.07424025237560272, 0.09077820181846619, 0.3289930522441864, 0.09585385024547577, 0.021999424323439598, 0.23437555134296417, 0.2543252110481262, -0.19945275783538818, 0.1590385138988495, 0.13467325270175934, -0.04299016669392586, -0.006334776058793068, 0.06897243857383728, 0.0516057126224041, -0.024936407804489136, 0.09552682191133499, 0.05930584296584129, 0.15711526572704315, -0.18366014957427979, -0.06414482742547989, 0.25833138823509216, 0.08067794144153595, 0.12343885749578476, -0.01456395909190178, 0.13682132959365845, 0.2434588372707367, 0.1795250028371811, 0.04371899738907814, -0.017240824177861214, -0.04378919303417206, 0.14205694198608398, 0.07512053102254868, -0.17382436990737915, -0.1325826197862625, 0.10914302617311478, 0.054811738431453705, -0.1613522619009018, 0.10234668105840683, 0.1267586350440979, 0.05235264077782631, 0.20731201767921448, 0.22368741035461426, 0.241770938038826, 0.19552937150001526, -0.2961815297603607, 0.16946692764759064, 0.12108674645423889, -0.0641542598605156, 0.33911651372909546, 0.2019883692264557, -0.09658338874578476, -0.03424535691738129, 0.07657349854707718, 0.28381675481796265, 0.2927916646003723, 0.1909678876399994, 0.12706342339515686, 0.2324684113264084, 0.07655684649944305, 0.22758375108242035, -0.1267707198858261, 0.1270613819360733, 0.027196425944566727, 0.149650439620018, -0.15280237793922424, -0.08098594844341278, 0.13783688843250275, -0.26760807633399963, -0.2457246631383896, 0.26455187797546387, 0.21947252750396729, 0.06733943521976471, 0.08724470436573029, -0.2734910249710083, 0.15885812044143677, 0.17647993564605713, -0.3511643707752228, 0.14806967973709106, 0.05534747987985611, 0.03837711736559868, 0.0031134849414229393, 0.015934627503156662, -0.15281005203723907, -0.13683173060417175, -0.15545225143432617, 0.14276961982250214, 0.18791675567626953, 0.09761834144592285, -0.07651151716709137, 0.07488825172185898, -0.16651219129562378, -0.28769639134407043, 0.17313705384731293, -0.21164996922016144, 0.17030741274356842, 0.07684022188186646, -0.21899574995040894, -0.03063015639781952, -0.12640318274497986, -0.11973168700933456, 0.03562791272997856, 0.04482872411608696, 0.07100766897201538, 0.020770667120814323, 0.1845475286245346, -0.3464567959308624, -0.3400106132030487, -0.06105814874172211, 0.1901964396238327, -0.09355863928794861, 0.08993575721979141, -0.20312899351119995, -0.09470866620540619, 0.36665472388267517, -0.36155232787132263, 0.24943894147872925, 0.09298747032880783, -0.14841166138648987, -0.2243574857711792, -0.28967946767807007, 0.06698880344629288, -0.2808411419391632, 0.16490432620048523, 0.3183821737766266, 0.07534134387969971, 0.04792182147502899, 0.004708580207079649, 0.09742119908332825, -0.012282959185540676, 0.016632670536637306, 0.3620527982711792, 0.07681164145469666, 0.17932936549186707, 0.07324732095003128, 0.2926974296569824, -0.09388479590415955, -0.02007305808365345, -0.16387450695037842, 0.11113111674785614, 0.06319081038236618, -0.1977512538433075, -0.07823608070611954, 0.09720564633607864, -0.1324329972267151, 0.0874330997467041, 0.0832277312874794, -0.151101753115654, 0.07349425554275513, 0.12011142820119858, 0.019839748740196228, 0.27378833293914795, 0.07425553351640701, -0.07701585441827774, 0.08938337862491608, 0.057863712310791016, -0.22803150117397308, -0.007266914937645197, -0.1897173821926117, 0.2268621176481247, 0.09866072237491608, -0.15830858051776886, -0.18392807245254517, 0.26473355293273926, -0.2552622854709625, -0.18446338176727295, -0.10499714314937592, 0.18184584379196167, 0.05312022566795349, -0.06963267177343369, -0.3117729723453522, -0.14041930437088013, -0.041084252297878265, -0.1376081109046936, 0.10771313309669495, 0.06811294704675674, 0.06320099532604218, 0.17636637389659882, -0.10925114899873734, 0.052954450249671936, -0.05339112877845764, -0.008784162811934948, 0.020789489150047302, 0.022287871688604355, -0.09522101283073425, -0.12206918001174927, 0.04185047373175621, -0.19836412370204926, -0.25069597363471985, 0.04741420969367027, -0.17093271017074585, 0.05524153634905815, 0.029812777414917946, -0.06364263594150543, 0.08841836452484131, 0.003961570560932159, -0.10522932559251785, 0.0020930529572069645, -0.10440699011087418, -0.06243892014026642, -0.16991275548934937, -0.09801474213600159, -0.41546687483787537, -0.1043623760342598, -0.09155735373497009, -0.015648437663912773, -0.10753738880157471, -0.10130446404218674, -0.09464743733406067, -0.2409370392560959, 0.04070961847901344, 0.05804231017827988, -0.02220875956118107, -0.0064096576534211636, -0.09855317324399948, -0.09714526683092117, -0.1238582581281662, -0.0620037280023098, -0.1301523596048355, 0.033932577818632126, -0.07320085912942886, 0.1830856055021286, 0.059038128703832626, 0.03505423292517662, 0.1106896623969078, 0.07806505262851715, 0.10747013986110687, -0.012505927123129368, -0.14355804026126862, 0.07403086870908737, -0.03467346727848053, 0.0027292922604829073, 0.027938324958086014, 0.03269638866186142, 0.20133425295352936, 0.1473986655473709, -0.007086091674864292, 0.14008143544197083, -0.0161238145083189, -0.016965143382549286, -0.0843842476606369, 0.02026708424091339, -0.13945326209068298, 0.03191709518432617, -0.10999112576246262, -0.006825936958193779, 0.08014952391386032, -0.04875735193490982, 0.25515955686569214, 0.010724646970629692, 0.14333878457546234, 0.07784262299537659, -0.30827972292900085, -0.002674636896699667, -0.2315441519021988, -0.0845612958073616, -0.10270675271749496, 0.07496611773967743, -0.04264693707227707, -0.18729861080646515, 0.05001582205295563, 0.01593507081270218, -0.13247448205947876, -0.05955377593636513, 0.06891275197267532, 0.029309168457984924, -0.14149466156959534, -0.03609466925263405, -0.1606145054101944, -0.026563560590147972, 0.12209223210811615, 0.00396723160520196, -0.06033214181661606, 0.08067438751459122, -0.04561647027730942, 0.09304164350032806, -0.18871064484119415, -0.04253731667995453, -0.054222334176301956, -0.08532724529504776, -0.13032712042331696, -0.05714632198214531, 0.08393441140651703, -0.11876451224088669, -0.10934413224458694, -0.15490075945854187, 0.025677433237433434, 0.009561759419739246, 0.032953035086393356, 0.12462586164474487, 0.06169133633375168, 0.039735786616802216, 0.04197418689727783, -0.12212097644805908, -0.14314386248588562, -0.08413217216730118, -0.12796132266521454, 0.009832216426730156, -0.2107224017381668, 0.029579997062683105, -0.020978128537535667, -0.0847337394952774, 0.12449045479297638, -0.06822900474071503, -0.21996308863162994, -0.08903654664754868, -0.04516417905688286, -0.014772448688745499, -0.14767152070999146, -0.26812082529067993, 0.032140057533979416, -0.056498318910598755, -0.259897381067276, -0.28002628684043884, -0.11872923374176025, -0.23007811605930328, -0.1283881962299347, 0.0029474920593202114, 0.016127267852425575, 0.23683598637580872, 0.0229933001101017, -0.06254488229751587, 0.04911191761493683, -0.024004029110074043, -0.012255053967237473, 0.08468407392501831, 0.05292351916432381, -0.08762272447347641, -0.03239883854985237, 0.08440768718719482, -0.015275295823812485, -0.16748325526714325, -0.10174369066953659, 0.0689697265625, 0.27279624342918396, -0.131728857755661, -0.12426157295703888, -0.16989682614803314, -0.024561377242207527, -0.024509044364094734, 0.0007188622839748859, -0.09294610470533371, -0.09032333642244339, 0.06069061532616615, -0.1843664050102234, -0.10907652974128723, -0.09458406269550323, -0.21147117018699646, -0.11280599236488342, 0.02541964501142502, -0.004618549719452858, -0.1505722850561142, 0.14533685147762299, -0.09885767847299576, 0.017491638660430908, -0.18492437899112701, -0.036293670535087585, 0.07053694128990173, -0.19039851427078247, -0.02353929542005062, -0.00588614447042346, -0.06751399487257004, 0.0687282606959343, 0.05228908732533455, 0.08255080133676529, 0.05647929012775421, 0.17784574627876282, -0.20305386185646057, 0.13622646033763885, -0.0713297575712204, 0.0688978061079979, 0.028397992253303528, -0.0618668794631958, 0.08044689148664474, 0.08487406373023987, -0.04251612722873688, -0.019012708216905594, -0.05474511533975601, 0.18623922765254974, 0.09276695549488068, -0.10200676321983337, -0.05732713267207146, -0.2250668704509735, 0.03044511377811432, 0.05035741999745369, 0.08915255963802338, -0.11835651099681854, 0.00038279351429082453, 0.0049162064678967, 0.12872447073459625, -0.02902275137603283, -0.05764176324009895, -0.1126411184668541, 0.04148436710238457, -0.12062281370162964, 0.024741198867559433, -0.10889732837677002, 0.10289416462182999, -0.058631569147109985, -0.031006159260869026, 0.0015839732950553298, 0.06655966490507126, 0.15030276775360107, -0.054914481937885284, -0.004099580459296703, -0.09662887454032898, 0.11676326394081116, -0.027881810441613197, -0.19574899971485138, -0.3635284900665283, -0.14350253343582153, -0.13125450909137726, 0.014135446399450302, 0.06341222673654556, 0.04295331612229347, 0.06838983297348022, 0.10878979414701462, -0.020402953028678894, -0.025429408997297287, 0.046656448394060135, -0.053081635385751724, -0.0378577820956707, -0.009953448548913002, -0.07370728999376297, -0.06023367494344711, -0.18204206228256226, -0.3098984360694885, -0.05833657830953598, 0.037226177752017975, -0.0994456484913826, 0.0034679798409342766, -0.061999451369047165, 0.14748869836330414, -0.13167090713977814, -0.2960529923439026, 0.09748909622430801, 0.04930403083562851, -0.12979932129383087, -0.1585850864648819, 0.21976442635059357, -0.3026336431503296, -0.20090031623840332, -0.2093731015920639, -0.22288046777248383, -0.28361356258392334, -0.006251833867281675, -0.2319297045469284, -0.14206568896770477, 0.06772326678037643, -0.16359297931194305, 0.03678738325834274, -0.059370651841163635, 0.030764378607273102, 0.03060675971210003, -0.17880931496620178, -0.07275035232305527, -0.1940966099500656, 0.05817873775959015, -0.2043113261461258, 0.02930389530956745, 0.11158216744661331, -0.1650005429983139, -0.008939477615058422, -0.09397777169942856, 0.005833846982568502, 0.0971759706735611, -0.11598561704158783, -0.007588006090372801, -0.04500959441065788, -0.03944111615419388, 0.1649238020181656, 0.08794079720973969, -0.055818092077970505, -0.09012764692306519, -0.19620341062545776, -0.03154681995511055, -0.22935527563095093, -0.0026241426821798086, -0.09354197978973389, -0.10713720321655273, -0.03886258602142334, 0.09599161893129349, 0.030354207381606102, -0.044654570519924164, 0.11408927291631699, 0.15581588447093964, 0.11336760222911835, 0.008939100429415703, -0.15779918432235718, -0.04299718141555786, 0.5387865900993347, -0.08199559152126312, 0.0033600025344640017, 0.08404579013586044, -0.1100124791264534, -0.14810660481452942, 0.0712575763463974, 0.1677909642457962, -0.17989732325077057, 0.05623110756278038, -0.1426335722208023, 0.04712631180882454, 0.1763823926448822, -0.021529540419578552, 0.20298245549201965, -0.0343829020857811, 0.34613603353500366, 0.005368443671613932, -0.5792521834373474, -0.04528551921248436, -0.33008474111557007, 0.11893178522586823, -0.15866631269454956, -0.010850008577108383, -0.20947273075580597, -0.18504858016967773, 0.11813896894454956, 0.25026020407676697, -0.18194180727005005, 0.0796784982085228, 0.13664087653160095, -0.08218663930892944, -0.15046824514865875, -0.021316934376955032, -0.028262121602892876, 0.049931928515434265, -0.03218889236450195, 0.00519311148673296, 0.1741224080324173, 0.02837022766470909, -0.028638111427426338, -0.1517009139060974, 0.11734044551849365, -0.13890889286994934, -0.1612091362476349, -0.1736489087343216, 0.10070513188838959, -0.2209838479757309, -0.16272547841072083, -0.1575317680835724, -0.04404880851507187, 0.07956892251968384, -0.13683007657527924, -0.05338799208402634, 0.04733746498823166, 0.03566976264119148, 0.026967136189341545, 0.0012565215583890676, 0.02548055909574032, 0.014453602954745293, -0.009960132651031017, -0.015435615554451942, -0.2684122323989868, 0.01168194692581892, 0.020408296957612038, -0.07613849639892578, -0.2089046835899353, 0.17758452892303467, -0.0621173158288002, -0.07587209343910217, 0.02528628706932068, -0.18476931750774384, -0.162862628698349, 0.13979311287403107, 0.09270497411489487, -0.07517281174659729, -0.062336403876543045, -0.13331712782382965, -0.11525218933820724, 0.08802950382232666, -0.2982834279537201, 0.2846028208732605, -0.08020122349262238, 0.12116233259439468, 0.040017642080783844, -0.303655207157135, 0.04106514900922775, 0.04858173057436943, 0.08864438533782959, -0.09765779227018356, 0.26122114062309265, 0.20473642647266388, -0.031116103753447533, -0.025906290858983994, 0.04109390079975128, 0.06281676888465881, 0.03977755829691887, 0.07193996757268906, -0.09347638487815857, 0.024607211351394653, -0.18017882108688354, 0.10154016315937042, -0.1314605474472046, 0.02186492085456848, 0.055470291525125504, 0.1492578536272049, 0.07094988971948624, 0.0022734510712325573, -0.005458642262965441, -0.1774766594171524, 0.20354405045509338, 0.07600129395723343, -0.13218165934085846, -0.13103961944580078, 0.09230096638202667, -0.057731401175260544, 0.22552217543125153, -0.12302736192941666, 0.08173201978206635, 0.1721232682466507, 0.15326641499996185, -0.08134561032056808, 0.010942835360765457, 0.2350042760372162, 0.07033100724220276, -0.006008465774357319, 0.01110772043466568, 0.05497618392109871, 0.06443270295858383, 0.05745764076709747, -0.018531251698732376, -0.18782734870910645, 0.21749156713485718, -0.005717714782804251, 0.1764306128025055, 0.11420553922653198, -0.2534416615962982, 0.277568519115448, -0.14326925575733185, -0.10183411091566086, 0.21289271116256714, 0.10720616579055786, 0.24714073538780212, 0.21142329275608063, 0.1832016408443451, 0.06664217263460159, -0.04022880643606186, -0.025778641924262047, -0.005466428119689226, -0.03502853587269783, -0.11299504339694977, 0.1202632412314415, 0.18459662795066833, -0.10745938867330551, -0.13636557757854462, 0.17730127274990082, -0.15699632465839386, -0.023522334173321724, 0.025093695148825645, -0.18313251435756683, 0.2811140716075897, -0.278930127620697, -0.24204549193382263, 0.22017653286457062, 0.004432057496160269, 0.0241029541939497, 0.19123578071594238, -0.03957775980234146, 0.006105395499616861, 0.0014589546481147408, -0.013246092014014721, 0.0294649675488472, 0.10010778903961182, -0.19590938091278076, -0.024817219004034996, 0.16523820161819458, -0.18147236108779907, -0.1371821165084839, 0.25518789887428284, 0.05493345111608505, 0.11355501413345337, -0.01797286607325077, 0.004629059694707394, 0.26865431666374207, 0.09185869991779327, -0.17667795717716217, 0.16483688354492188, 0.14759647846221924, 0.02040148712694645, -0.23188237845897675, -0.0745282769203186, 0.018957069143652916, -0.20680780708789825, -0.07095413655042648, -0.12530523538589478, -0.060195837169885635, -0.07047753036022186, -0.1559714376926422, 0.17083223164081573, 0.10530360788106918, -0.07284848392009735, 0.03036680817604065, 0.15585216879844666, -0.21261374652385712, -0.008061781525611877, 0.18914681673049927, -0.08985449373722076, -0.2933788299560547, -0.1172032505273819, -0.014340764842927456, -0.19746209681034088, -0.06112745404243469, -0.25703516602516174, 0.16259342432022095, 0.07078655809164047, 0.0030920349527150393, -0.10758048295974731, -0.009721256792545319, -0.04639587178826332, -0.0725969672203064, 0.04708972945809364, 0.03962916135787964, -0.038832586258649826, 0.045188166201114655, -0.1069573238492012, -0.06315977871417999, -0.09511052072048187, 0.09858033061027527, 0.07522118091583252, -0.09650605916976929, -0.052651844918727875, -0.09037221968173981, -0.07251613587141037, -0.009653815999627113, 0.03106711059808731, -0.15522760152816772, -0.10275229066610336, -0.04749450087547302, -0.14365480840206146, 0.05419272929430008, -0.14035801589488983, -0.15131232142448425, -0.3498487174510956, -0.008764209225773811, -0.06300509721040726, -0.0750683918595314, 0.0014673159457743168, -0.0650452971458435, 0.024899672716856003, 0.021829640492796898, -0.02878330461680889, -0.04944892227649689, -0.051689181476831436, -0.13641047477722168, -0.18815934658050537, 0.014683778397738934, 0.1745101362466812, 0.1278049200773239, 0.15667013823986053, 0.015578671358525753, 0.25195640325546265, -0.04325352609157562, 0.055501896888017654, 0.059961531311273575, -0.17733857035636902, 0.05454446002840996, -0.09212243556976318, 0.09732886403799057, -0.14299321174621582, 0.06356924772262573, 0.11090019345283508, 0.07384179532527924, 0.1815037727355957, -0.00029524017008952796, -0.28865140676498413, 0.05922401323914528, -0.20807795226573944, 0.031036945059895515, 0.07847923040390015, -0.10065225511789322, -0.20150305330753326, -0.1415528655052185, -0.07062894850969315, 0.19402700662612915, -0.24208614230155945, 0.039501745253801346, 0.12001597881317139, -0.1545359194278717, -0.12084971368312836, -0.07268527895212173, 0.1584555208683014, -0.14761492609977722, 0.06160924211144447, 0.07607915997505188, 0.03899606317281723, 0.051815781742334366, -0.08569733053445816, -0.17337192595005035, -0.024316221475601196, -0.031815025955438614, -0.030955087393522263, 0.02047448419034481, 0.12196070700883865, -0.01891307532787323, -0.0494685098528862, -0.06325922161340714, -0.24770691990852356, 0.06119312718510628, 0.06347044557332993, 0.04335757717490196, 0.1778578758239746, 0.03596887364983559, 0.13001038134098053, 0.018130576238036156, 0.15197047591209412, 0.02533227764070034, -0.09326306730508804, -0.08611644059419632, 0.005743808578699827, 0.29404139518737793, 0.13270354270935059, 0.08133259415626526, 0.10437332093715668, -0.09631883352994919, 0.04746697098016739, 0.047386977821588516, 0.008707528933882713, 0.10160814225673676, 0.30589351058006287, -0.14454399049282074, 0.10716996341943741, -0.0219399593770504, 0.18714120984077454, 0.22774071991443634, 0.1869165003299713, 0.19387033581733704, 0.2502119541168213, -0.028659380972385406, 0.04894121363759041, 0.12491123378276825, 0.26508456468582153, 0.1763642132282257, 0.049781057983636856, -0.014844154939055443, -0.08729535341262817, 0.38695546984672546, 0.21400578320026398, 0.05070370063185692, 0.0224960595369339, 0.21315120160579681, 0.11352057754993439, 0.15416312217712402, 0.07188509404659271, 0.029344351962208748, 0.2085137516260147, -0.1893349587917328, -0.01548780407756567, 0.12066676467657089, -0.011060109362006187, 0.18162083625793457, 0.3180808424949646, -0.18240571022033691, -0.016290374100208282, -0.04986133053898811, 0.12104292958974838, 0.12794940173625946, 0.37416890263557434, 0.22765164077281952, 0.1190137043595314, -0.07448602467775345, -0.0023020473308861256, 0.28287968039512634, -0.03511687368154526, 0.15212632715702057, -0.11306282877922058, 0.011117472313344479, -0.08031878620386124, 0.1669800728559494, -0.03487782180309296, -0.04669972509145737, 0.1215854063630104, 0.0634673610329628, -0.07722943276166916, -0.09593811631202698, -0.2416941374540329, -0.0046625020913779736, -0.1733006089925766, 0.01332894992083311, -0.0962882936000824, 0.19944919645786285, -0.0999232605099678, -0.052071183919906616, 0.17524844408035278, -0.1996312290430069, 0.1693609356880188, 0.09266435354948044, -0.04045858606696129, -0.26147422194480896, -0.17785131931304932, -0.11259070038795471, -0.14447614550590515, -0.023100100457668304, 0.13307997584342957, -0.2025909572839737, 0.1534705013036728, 0.15826047956943512, 0.06147265434265137, -0.1596926599740982, -0.00046193250454962254, 0.22742708027362823, 0.23579174280166626, 0.08539873361587524, 0.06256414204835892, 0.05602595582604408, -0.08501395583152771, 0.19507518410682678, 0.22941192984580994, 0.11752729117870331, 0.18390770256519318, -0.009735913947224617, -0.010529770515859127, 0.145468607544899, -0.07960256934165955, 0.11787459999322891, 0.20077694952487946, -0.12074150145053864, 0.2327718436717987, -0.07948392629623413, 0.20506449043750763, 0.05025904253125191, 0.1573900729417801, 0.19811318814754486, 0.24792952835559845, 0.14026354253292084, -0.11483015865087509, 0.11314117908477783, -0.10964826494455338, 0.3756392300128937, -0.06306479871273041, -0.002971690148115158, 0.029241180047392845, 0.23436123132705688, -0.08402369171380997, -0.10474787652492523, -0.01116242352873087, 0.07802199572324753, 0.09475849568843842, 0.09202389419078827, 0.161047101020813, 0.08085473626852036, 0.10587410628795624, 0.08140356093645096, -0.10951462388038635, 0.17060744762420654, -0.1624860018491745, 0.1042395606637001, 0.0478602796792984, 0.17781485617160797, -0.16813364624977112, 0.005802701227366924, 0.0410892553627491, -0.03465614095330238, 0.05709723010659218, 0.07927010208368301, -0.040383078157901764, 0.022018758580088615, 0.0677490159869194, -0.17524117231369019, -0.10372161865234375, 0.02929641492664814, -0.0817117989063263, -0.04715379700064659, -0.150140181183815, -0.0057487208396196365, 0.04972946643829346, 0.10532837361097336, 0.13533228635787964, -0.025160260498523712, -0.06751574575901031, 0.09126917272806168, 0.14092276990413666, 0.0012291899183765054, 0.13275742530822754, 0.04774370789527893, -0.14749357104301453, 0.12764324247837067, -0.10413185507059097, -0.09161822497844696, 0.07642006129026413, 0.11718074977397919, 0.03370188549160957, 0.13625621795654297, 0.11871390789747238, -0.02971196360886097, 0.0799163281917572, 0.13223591446876526, -0.013771402649581432, 0.06686943024396896, 0.15568684041500092, -0.10233640670776367, 0.08957649767398834, -0.052263740450143814, 0.06040706858038902, -0.10084214061498642, -0.12652315199375153, 0.1331489533185959, 0.12773551046848297, 0.02942701242864132, -0.11356686800718307, 0.02632487565279007, -0.0022298500407487154, 0.028676336631178856, -0.02301775850355625, 0.060765285044908524, -0.09262506663799286, -0.09551534056663513, -0.01924695260822773, 0.05652099475264549, 0.08150956779718399, -0.0930168554186821, -0.0604577511548996, -0.11706376075744629, -0.02445276826620102, -0.0655457153916359, -0.014328759163618088, 0.0105711929500103, -0.07820535451173782, -0.03710852935910225, -0.04866762086749077, -0.11742520332336426, 0.0876067727804184, 0.14899024367332458, 0.03121527098119259, -0.048713814467191696, -0.1630799025297165, 0.03908843174576759, 0.10855105519294739, 0.1449303925037384, -0.12648428976535797, -0.24463121592998505, -0.028007417917251587, -0.12819331884384155, 0.10571502894163132, 0.08397764712572098, 0.3412615954875946, 0.1396404355764389, -0.13731838762760162, -0.05485643446445465, -0.1323552131652832, -0.013980395160615444, -0.1235404685139656, 0.04794207587838173, 0.01074190717190504, -0.09897617995738983, 0.05113014206290245, 0.11014937609434128, -0.11569304019212723, -0.0492849163711071, -0.054300930351018906, 0.25621187686920166, 0.05589627847075462, -0.04752083495259285, 0.046442337334156036, -0.013163409195840359, -0.0745127946138382, 0.06296449154615402, 0.026705654338002205, 0.10874869674444199, -0.20816828310489655, 0.04613102599978447, -0.013361591845750809, 0.19404183328151703, 0.007431036327034235, 0.14477917551994324, 0.015466068871319294, -0.10703275352716446, -0.19855421781539917, -0.11433406174182892, -0.0007778622675687075, -0.2714644968509674, -0.0460696779191494, 0.16597889363765717, -0.11764407157897949, 0.09687352180480957, -0.06128861382603645, 0.03178372606635094, -0.048792459070682526, -0.1772807538509369, -0.1731896549463272, -0.02986280992627144, -0.014069939032196999, -0.21623365581035614, 0.026168527081608772, -0.009850695729255676, -0.15902963280677795, -0.12558439373970032, -0.03395984694361687, -0.04225138947367668, -0.04008473455905914, 0.036540936678647995, 0.1558959186077118, -0.021145178005099297, -0.016232715919613838, -0.16170334815979004, -0.12409483641386032, 0.11083216220140457, -0.036564555019140244, -0.17571118474006653, -0.0040511577390134335, -0.1560416966676712, -0.06314760446548462, -0.1394020915031433, -0.06908214092254639, 0.10498402267694473, 0.16406412422657013, 0.0789274275302887, -0.15814852714538574, 0.022583257406949997, -0.06025005131959915, 0.01331125758588314, -0.11868419498205185, 0.02458844892680645, -0.16839569807052612, -0.1458711475133896, -0.087430439889431, 0.030960150063037872, -0.17841070890426636, 0.01692471094429493, 0.15251795947551727, -0.13935312628746033, -0.15835167467594147, -0.07239308208227158, 0.17439140379428864, -0.021293068304657936, -0.07782402634620667, -0.24241752922534943, -0.31148943305015564, 0.06143280118703842, 0.16846279799938202, -0.15755951404571533, -0.04631247743964195, 0.001049161539413035, -0.03978002816438675, 0.06965455412864685, 0.10257986932992935, -0.12102938443422318, 0.29460522532463074, 0.030964873731136322, 0.0403713695704937, 0.03135814145207405, -0.08574097603559494, 0.006458832882344723, -0.04809027165174484, 0.00413340050727129, 0.14578162133693695, -0.032383717596530914, 0.19312463700771332, 0.08569950610399246, -0.09258636832237244, -0.058920811861753464, -0.08999539166688919, 0.0868116095662117, -0.053607694804668427, -0.1253337860107422, -0.09989503771066666, -0.024320004507899284, 0.060842256993055344, -0.13228900730609894, -0.07368326932191849, -0.024426372721791267, -0.000276706152362749, -0.19903860986232758, -0.1556209921836853, -0.20258855819702148, 0.018340611830353737, -0.2706339359283447, -0.03512022644281387, 0.0096948416903615, -0.03717911243438721, -0.16332870721817017, -0.07262487709522247, 0.0781758651137352, 0.036464616656303406, -0.07239572703838348, -0.15070746839046478, 0.050919920206069946, -0.17296990752220154, -0.19675414264202118, -0.06498535722494125, -0.13570420444011688, 0.03375227749347687, -0.2588231563568115, 0.03338751941919327, 0.023899368941783905, 0.0011909179156646132, -0.11810687929391861, 0.050001367926597595, 0.09179572761058807, -0.014834773726761341, -0.1136731430888176, 0.09558985382318497, 0.0029113811906427145, -0.004682502709329128, 0.05230960249900818, 0.03841453790664673, 0.03773331642150879, 0.08092303574085236, 0.19882230460643768, 0.00602247379720211, -0.0873975083231926, 0.10550525039434433, -0.16546203196048737, 0.0015977438306435943, 0.03617700934410095, 0.04144170880317688, -0.08100597560405731, 0.01402876153588295, 0.022590497508645058, 0.11047343164682388, 0.0030426527373492718, 0.016568586230278015, 0.27852746844291687, 0.1670038402080536, 0.026362285017967224, 0.1159302294254303, -0.17563936114311218, -0.14729052782058716, -0.048112135380506516, -0.08623931556940079, 0.059226904064416885, 0.10665799677371979, 0.10752016305923462, -0.05726371705532074, -0.09920216351747513, -0.010822044685482979, 0.017163550481200218, 0.06952627003192902, -0.12213917076587677, -0.040227919816970825, 0.12045446783304214, -0.19795465469360352, 0.0775679349899292, 0.07640700042247772, 0.0423983670771122, 0.07731068879365921, 0.034066129475831985, -0.06410297751426697, -0.03396904468536377, 0.18356412649154663, 0.06656207889318466, 0.06369715183973312, -0.04848136752843857, 0.15643596649169922, 0.19989517331123352, 0.04478524252772331, -0.011276235803961754, 0.07681871205568314, 0.11304031312465668, -0.029160430654883385, 0.11409877240657806, -0.05450507998466492, 0.11174619197845459, 0.029373908415436745, 0.2048669010400772, -0.037059489637613297, 0.058788444846868515, 0.16419216990470886, 0.028613977134227753, -0.14419502019882202, -0.10182978957891464, 0.15141691267490387, 0.0015479453140869737, 0.03657710179686546, -0.00542562548071146, -0.020383158698678017, 0.015980979427695274, 0.06577729433774948, 0.03279748931527138, -0.014445312321186066, 0.04382695257663727, -0.16279567778110504, 0.03983563184738159, -0.03269573673605919, 0.05555712431669235, 0.06653624027967453, -0.20611105859279633, 0.10992959141731262, -0.1475621610879898, -0.008115146309137344, -0.21228335797786713, -0.06548083573579788, 0.02824919857084751, -0.0451849065721035, -0.16516701877117157, -0.07496287673711777, -0.19151782989501953, 0.17993201315402985, -0.09173895418643951, 0.07586229592561722, -0.03390652313828468, 0.13420765101909637, 0.11528443545103073, 0.060386739671230316, 0.10895047336816788, -0.15586213767528534, -0.08499359339475632, 0.06976046413183212, 0.05351775512099266, 0.09475764632225037, 0.13077303767204285, 0.008681420236825943, 0.13293465971946716, -0.008091406896710396, 0.22966919839382172, -0.08098526298999786, 0.19797517359256744, 0.217042475938797, 0.0077781458385288715, 0.12145920097827911, 0.06480782479047775, 0.08773207664489746, 0.18587574362754822, -0.03128627687692642, 0.08464212715625763, -0.14527282118797302, -0.004173498600721359, 0.006955651566386223, -0.001560740522108972, -0.0019857005681842566, 0.09181703627109528, -0.013508407399058342, -0.062166836112737656, 0.35073527693748474, -0.049470193684101105, 0.16217678785324097, 0.053454335778951645, -0.08302708715200424, -0.0009710247977636755, 0.052920274436473846, 0.10047299414873123, 0.12459069490432739, -0.0737583264708519, 0.17405952513217926, 0.0717845931649208, 0.14380007982254028, 0.13859902322292328, 0.025247519835829735, 0.13127808272838593, 0.23003941774368286, -0.0526721328496933, 0.02138051576912403, 0.13822437822818756, 0.328958123922348, 0.08528658002614975, -0.05211907997727394, 0.13200770318508148, -0.07754501700401306, 0.1075534000992775, -0.07252047210931778, -0.12271886318922043, 0.04066231846809387, 0.022957362234592438, 0.152720645070076, 0.0016864956123754382, 0.24433791637420654, 0.07145870476961136, 0.12332085520029068, -0.07707687467336655, 0.04540097340941429, -0.019501743838191032, -0.09033647179603577, -0.07329048961400986, 0.14947019517421722, 0.021589109674096107, 0.21122810244560242, 0.07163341343402863, 0.08389188349246979, 0.11656807363033295, 0.30573907494544983, 0.07396673411130905, 0.19535604119300842, -0.0496596023440361, 0.10612602531909943, 0.09671664983034134, 0.03737306967377663, 0.0795900821685791, 0.03881141543388367, 0.14518003165721893, -0.1125963106751442, 0.09860216081142426, 0.1460464745759964, -0.043352868407964706, 0.15122126042842865, 0.1486162394285202, 0.20501002669334412, 0.019157234579324722, -0.39347702264785767, -0.022631416097283363, -0.0536159947514534, 0.05020579323172569, -0.21261383593082428, 0.15406686067581177, -0.1386403739452362, -0.12813979387283325, 0.26751086115837097, -0.06590066850185394, 0.07802754640579224, -0.024648208171129227, -0.2466275990009308, -0.07779283076524734, -0.22031889855861664, -0.0389723926782608, 0.07973087579011917, 0.11992041021585464, 0.21428599953651428, 0.013913211412727833, 0.1182791069149971, -0.04738369211554527, -0.08727232366800308, 0.11283344030380249, 0.39376795291900635, 0.05623701587319374, -0.07887022942304611, 0.08697004616260529, 0.1068464070558548, 0.13126841187477112, 0.02072102203965187, -0.030569598078727722, 0.1333581954240799, 0.1106172651052475, 0.13618198037147522, -0.15030565857887268, -0.015454312786459923, 0.11788532137870789, 0.027054419741034508, 0.0067281899973750114, 0.09267142415046692, 0.008792162872850895, 0.06993420422077179, 0.11094066500663757, -0.012758910655975342, 0.22812402248382568, -0.09728687256574631, 0.06323588639497757, -0.05343802273273468, 0.10752174258232117, 0.05294818431138992, 0.03669242560863495, -0.015428151935338974, 0.09738881886005402, 0.00703254621475935, 0.12138005346059799, -0.07574449479579926, 0.10277971625328064, 0.10539928823709488, 0.0733119547367096, 0.09992904961109161, 0.08790350705385208, 0.09194283187389374, -0.031816981732845306, 0.05349045991897583, 0.022286774590611458, -0.09764043241739273, 0.16305463016033173, 0.0029579992406070232, 0.08677532523870468, -0.11572756618261337, 0.015020700171589851, -0.0687667652964592, 0.031115014106035233, -0.10760423541069031, 0.2363765984773636, 0.10290427505970001, 0.02946127951145172, 0.16148151457309723, 0.26898762583732605, 0.008651521056890488, 0.14076054096221924, 0.1133582815527916, 0.10651648044586182, -0.06682594120502472, -0.08202216029167175, -0.1605965495109558, -0.029873473569750786, 0.06725793331861496, -0.003329648170620203, 0.058434098958969116, 0.23393531143665314, -0.06019959598779678, -0.010045417584478855, 0.08503260463476181, -0.03781609237194061, 0.10324122756719589, 0.06144257262349129, 0.09167040139436722, 0.07831179350614548, -0.21385009586811066, 0.12586231529712677, -0.06506520509719849, 0.10286730527877808, 0.10939308255910873, -0.05202505737543106, 0.09749279916286469, -0.06848939508199692, 0.13238359987735748, 0.11555028706789017, 0.05258269980549812, 0.049303509294986725, 0.12971487641334534, 0.1115107610821724, 0.07915947586297989, 0.20869241654872894, 0.1354512870311737, 0.029935253784060478, -0.10608941316604614, 0.12872517108917236, -0.10618618875741959, -0.009733523242175579, -0.04417668655514717, 0.08390818536281586, 0.230144202709198, -0.07366648316383362, -0.07007381319999695, 0.07568006962537766, -0.07288308441638947, 0.10406371206045151, 0.07067012041807175, 0.11406122148036957, 0.07761972397565842, 0.16022278368473053, 0.07126849889755249, 0.01810629852116108, -0.0849522054195404, 0.06431318819522858, 0.11169068515300751, -0.014576952904462814, -0.03841390833258629, -0.04490220546722412, -0.11501447856426239, -0.03123711422085762, -0.046544142067432404, 0.2059793621301651, 0.20632679760456085, -0.08739235252141953, 0.006184489466249943, 0.1469554603099823, -0.0972704216837883, 0.12693960964679718, 0.034723106771707535, 0.10083277523517609, -0.10120642930269241, 0.05130669102072716, 1.9357787095941603e-05, -0.011284607462584972, 0.1622539907693863, 0.14987003803253174, 0.03617148846387863, 0.030765578150749207, 0.09157449752092361, 0.028056491166353226, -0.15691342949867249, 0.11646118760108948, -0.049517903476953506, -0.027408894151449203, 0.2014537900686264, -0.02967960759997368, 0.016192765906453133, 0.33911341428756714, 0.025516510009765625, 0.03684026375412941, 0.1517486274242401, -0.0045879133976995945, -0.032097578048706055, 0.2048545628786087, 0.07427586615085602, 0.31726786494255066, 0.13412602245807648, 0.04496484622359276, 0.0010448360117152333, 0.014650559052824974, -0.08543920516967773, -0.06996093690395355, 0.10832366347312927, 0.093755804002285, -0.031418561935424805, -0.05500450357794762, 0.10780419409275055, -0.03198666125535965, 0.031162064522504807, -0.09255794435739517, 0.049998484551906586, -0.002764205215498805, -0.06621786952018738, -0.19464653730392456, 0.03663380816578865, 0.026178749278187752, -0.08030778169631958, 0.08828886598348618, -0.05121421441435814, 0.19731737673282623, 0.013549481518566608, 4.601600085152313e-05, 0.06847919523715973, 0.26942959427833557, -0.040571898221969604, 0.05853230133652687, 0.12207945436239243, 0.10391048341989517, -0.04348057880997658, -0.11229653656482697, -0.04971804469823837, -0.03296207636594772, -0.014180461876094341, 0.10373485088348389, 0.06646572053432465, 0.2416204959154129, -0.027750028297305107, -0.048908498138189316, -0.06635133177042007, -0.043503906577825546, 0.31332623958587646, 0.04959553852677345, -0.049923285841941833, -0.06535567343235016, -0.1188659816980362, -0.049762021750211716, -0.1265464425086975, -0.08958519250154495, 0.1156848594546318, 0.04371481388807297, -0.041882384568452835, -0.1324181854724884, 0.08772101253271103, -0.08863356709480286, 0.14251837134361267, 0.2122838795185089, 0.07762400805950165, 0.09204521775245667, 0.014664646238088608, 0.09815693646669388, -0.12614569067955017, -0.09868142008781433, 0.0450553260743618, 0.1698562353849411, -0.09632748365402222, -0.015468868426978588, 0.11561017483472824, 0.2940816283226013, 0.13681663572788239, -0.2222328931093216, -0.11727582663297653, -0.18811340630054474, 0.06367538869380951, 0.04677656665444374, -0.07692433148622513, -0.15465879440307617, 0.15488286316394806, -0.14223630726337433, 0.19913876056671143, 0.007977068424224854, 0.022387642413377762, 0.11620399355888367, -0.2098969966173172, 0.05840287357568741, 0.03493287041783333, 0.16814938187599182, 0.06059364974498749, -0.007863784208893776, -0.036849480122327805, -0.03315019980072975, 0.04400983452796936, 0.05071761831641197, 0.13779491186141968, 0.03187097609043121, -0.18761450052261353, 0.012975994497537613, -0.0321127288043499, -0.20592759549617767, -0.07491639256477356, 0.14290815591812134, 0.06872867047786713, -0.0910707637667656, -0.028493888676166534, 0.010380269028246403, -0.004282057750970125, -0.10574702173471451, -0.04020405188202858, -0.12039261311292648, -0.03328286483883858, -0.0864090844988823, -0.008156332187354565, 0.09141555428504944, -0.050026342272758484, 0.030937569215893745, -0.21082627773284912, -0.05344361439347267, -0.09548147022724152, -0.12299226969480515, -0.13158324360847473, 0.08898799121379852, 0.05371088907122612, -0.0986316055059433, 0.11093708127737045, 0.09126929193735123, 0.10378006845712662, -0.14197474718093872, -0.021460415795445442, 0.016803480684757233, -0.008369727060198784, 0.054625723510980606, -0.027116509154438972, 0.006182387936860323, -0.02175137959420681, -0.13632076978683472, -0.09653360396623611, 0.0901859700679779, 0.008412684313952923, -0.014355313032865524, 0.011266746558248997, 0.010229832492768764, 0.0939052477478981, 0.11082710325717926, -0.04421352967619896, -0.0038704543840140104, 0.1602686047554016, -0.036112137138843536, -0.311551570892334, -0.0293878186494112, -0.11240717768669128, 0.08191251009702682, -0.018152019008994102, -0.26957836747169495, 0.03952638432383537, -0.1850789338350296, 0.04967642202973366, -0.09908101707696915, -0.06993889063596725, 0.07881337404251099, 0.04328026622533798, 0.11817881464958191, -0.02416440285742283, 0.08705976605415344, 0.10812228918075562, -0.2337873876094818, -0.024367008358240128, 0.18008999526500702, 0.14939498901367188, -0.01235124934464693, 0.05546192452311516, -0.3559746742248535, 0.19021570682525635, -0.1272462010383606, 0.03448091074824333, -0.006138457916676998, 0.07459204643964767, -0.2914005219936371, -0.00220119277946651, 0.02148209512233734, -0.08644773811101913, -0.08853709697723389, -0.22082650661468506, -0.21962277591228485, -0.36318349838256836, -0.12187905609607697, -0.024121906608343124, 0.15412412583827972, 0.031003056094050407, -0.31202566623687744, 0.07964121550321579, -0.05556636303663254, -0.08729856461286545, -0.01818734221160412, -0.09633149951696396, 0.10251999646425247, -0.032121747732162476, -0.28328993916511536, -0.24532075226306915, -0.018707679584622383, 0.08327674865722656, 0.02592506632208824, -0.2464679777622223, -0.010143283754587173, 0.1255371868610382, 0.017281321808695793, -0.0359908863902092, 0.00450011296197772, -0.05813043937087059, -0.09896883368492126, 0.18257616460323334, -0.017807960510253906, -0.022982729598879814, 0.10170184820890427, -0.14087353646755219, 0.015486449003219604, -0.08964177221059799, 0.08948900550603867, -0.23475877940654755, -0.104764923453331, 0.1408350020647049, 0.21807600557804108, 0.1627633422613144, -0.006291790399700403, -0.0010851912666112185, 0.1765117645263672, 0.19334854185581207, 0.04238881915807724, 0.14856915175914764, -0.20023217797279358, 0.010526101104915142, 0.20101642608642578, -0.0452713817358017, -0.05783127620816231, 0.048301104456186295, -0.1349201202392578, -0.0629875436425209, -0.014979210682213306, -0.0767214223742485, -0.06555391103029251, 0.12586982548236847, -0.16362251341342926, -0.1005648523569107, 0.0010806366335600615, -0.01648714765906334, -0.05333993583917618, -0.10176751762628555, 0.003696103347465396, -0.2564823627471924, -0.13039708137512207, 0.003855940653011203, 0.07746866345405579, 0.13784976303577423, -0.05618656426668167, -0.08168135583400726, -0.01031329482793808, -0.0865413025021553, 0.06204669177532196, -0.09838216751813889, 0.02627989649772644, -0.029657742008566856, -0.1971394419670105, -0.08229832351207733, -0.07915452867746353, -0.1256895661354065, 0.061104193329811096, 0.20498354732990265, 0.005954440217465162, 0.1152399480342865, 0.021949125453829765, 0.10616379231214523, -0.006832494400441647, 0.07251503318548203, 0.23541021347045898, 0.029023615643382072, 0.08054555207490921, 0.06803147494792938, 0.05133329704403877, 0.026245685294270515, -0.10668402165174484, 0.07265745848417282, 0.13458837568759918, -0.03249390795826912, 0.08937375247478485, 0.15148021280765533, -0.07532893866300583, 0.07713564485311508, -0.03264492005109787, 0.061677929013967514, 0.10910031199455261, 0.13004560768604279, 0.0647425502538681, 0.0013067708350718021, 0.1386246681213379, -0.11200352013111115, 0.06284266710281372, 0.26333481073379517, -0.052654605358839035, 0.03449336439371109, 0.0059502627700567245, 0.04471546411514282, -0.030832193791866302, 0.017803162336349487, 0.05171602591872215, 0.1371772736310959, -0.042138706892728806, 0.09670917689800262, -0.04628855735063553, -0.03990243375301361, -0.01535071525722742, 0.14685764908790588, -0.013307813555002213, -0.016433529555797577, 0.2269914299249649, 0.28694239258766174, 0.2042952924966812, 0.15388375520706177, -0.046749554574489594, 0.04554415121674538, -0.0808919221162796, -0.13817815482616425, -0.025682415813207626, -0.06315271556377411, 0.06121818348765373, -0.02160537615418434, -0.026831351220607758, -0.03047601319849491, -0.010716678574681282, 0.06968370079994202, 0.07505618035793304, 0.050593551248311996, -0.051689695566892624, -0.09018804877996445, -0.051478058099746704, 0.016268739476799965, 0.1970144361257553, -0.02610473334789276, 0.050081610679626465, 0.17602786421775818, -0.017728226259350777, 0.12608927488327026, -0.2281639575958252, -0.09153962880373001, 0.06828847527503967, -0.25896936655044556, -0.03177265822887421, 0.01300389226526022, -0.07882457971572876, 0.07661796361207962, 0.07469984889030457, 0.03613967448472977, -0.03304634243249893, 0.04962849244475365, -0.0949324443936348, 0.19661618769168854, 0.029150228947401047, -0.026794401928782463, -0.003119547851383686, 0.06397969275712967, 0.07055453211069107, -0.023732192814350128, 0.15208932757377625, 0.20969724655151367, 0.01764794997870922, 0.21314814686775208, 0.17266833782196045, -0.0028616604395210743, 0.1839139610528946, 0.0947713702917099, -0.042364735156297684, 0.20004984736442566, 0.06415177881717682, 0.12449095398187637, 0.1612529158592224, 0.09867962449789047, -0.031923502683639526, -0.1793472021818161, 0.14439046382904053, 0.13917021453380585, -0.007937486283481121, -0.00743468850851059, -0.07327557355165482, 0.132693812251091, -0.08123566210269928, 0.06319313496351242, 0.046683505177497864, -0.03759121149778366, 0.0715176910161972, 0.00036596390418708324, -0.07494761794805527, -0.04010600969195366, 0.21945475041866302, -0.0025282730348408222, 0.048739127814769745, -0.045709703117609024, -0.05016595125198364, 0.0700930804014206, -0.08401525765657425, 0.09524610638618469, 0.0942067876458168, -0.01560739055275917, 0.05014381557703018, 0.03437187522649765, -0.10818969458341599, -0.02080930769443512, -0.02359943836927414, 0.123745858669281, 0.07791811972856522, -0.00931219756603241, -0.20846660435199738, -0.11780081689357758, -0.014203527010977268, 0.08252725005149841, 0.13520269095897675, 0.013188211247324944, 0.17813701927661896, 0.018889470025897026, 0.01339820958673954, -0.02986201085150242, 0.25563716888427734, -0.11945126950740814, -0.2192409783601761, 0.18169358372688293, 0.18396827578544617, -0.03806445375084877, -0.02860387973487377, -0.10003755986690521, 0.046282291412353516, 0.088973268866539, -0.08884937316179276, 0.020338106900453568, -0.09966298937797546, 0.04995465278625488, 0.11641906201839447, -0.2100137174129486, -0.12644998729228973, -0.10883185267448425, 0.007362040225416422, -0.02852817438542843, -0.043625492602586746, -0.09476307779550552, 0.005087919533252716, -0.3307080864906311, -0.10298065841197968, -0.08954913169145584, -0.021315308287739754, 0.014683564193546772, 0.1571236401796341, 0.01985555700957775, -0.002469593659043312, -0.037121135741472244, -0.04213431477546692, -0.1770821511745453, -0.23983970284461975, 0.055297937244176865, -0.027804411947727203, -0.03874850273132324, 0.0710323378443718, -0.07243599742650986, -0.09218436479568481, -0.07591155171394348, 0.00563266035169363, 0.0018781929975375533, -0.15428844094276428, -0.11932578682899475, -0.01470240019261837, 0.058420874178409576, -0.048404138535261154, 0.07353359460830688, -0.05896171182394028, -0.2542761266231537, -0.22412452101707458, 0.02741904743015766, -0.0923708826303482, -0.2226254791021347, 0.05472482368350029, -0.24978047609329224, -0.060442253947257996, -0.045089930295944214, 0.02200159803032875, -0.018687844276428223, -0.12152805924415588, -0.06136103346943855, 0.231252983212471, -0.03608451783657074, 0.017821403220295906, 0.18929921090602875, 0.11766448616981506, -0.23944181203842163, 0.24504566192626953, -0.052252691239118576, 0.060607586055994034, 0.14841529726982117, -0.11676692217588425, -0.05162607505917549, 0.021762695163488388, 0.004411270376294851, 0.09796950221061707, 0.12674608826637268, -0.041941817849874496, 0.14109183847904205, -0.18532171845436096, 0.048491884022951126, 0.18640318512916565, -0.1338912695646286, -0.11529768258333206, -0.004671844653785229, 0.06487610936164856, -0.08984039723873138, -0.11887145042419434, -0.09304913133382797, 0.043158404529094696, 0.1411294788122177, 0.10576163977384567, -0.10506902635097504, 0.08268462866544724, -0.0371701754629612, -0.10427854210138321, 0.05263456702232361, 0.07929639518260956, -0.07807786017656326, -0.06659625470638275, 0.15022706985473633, -0.05320163443684578, 0.11301767081022263, 0.17337848246097565, -0.014111938886344433, 0.0856667011976242, -0.16236889362335205, 0.1400051862001419, 0.17188194394111633, -0.01773483119904995, 0.11026959866285324, 0.013654965907335281, 0.00814286433160305, 0.011878401041030884, 0.27278605103492737, 0.13323017954826355, 0.06226653978228569, 0.09824037551879883, 0.16955623030662537, 0.011533285491168499, -0.1189839318394661, 0.02759176678955555, 0.20934338867664337, -0.03452901542186737, 